{"learner":{"attributes":{"scikit_learn":"{\"_estimator_type\": \"classifier\"}"},"feature_names":["total_length_km","n_secondary_subs","n_switches","avg_segment_m","bbox_area_km2","year","month","day_of_week","day_of_year","is_weekend","month_sin","month_cos","dow_sin","dow_cos","season_long_dry","season_long_rains","season_short_dry","season_short_rains","max_demand_kva","affected_customers","feeder_id","outages_last_7d","outages_last_30d","duration_last_7d_hrs","days_since_last_outage","consecutive_clean_days","precipitation_sum","wind_speed_10m_max","wind_gusts_10m_max","et0_fao_evapotranspiration","heavy_rain_day","high_wind_day","is_public_holiday","is_long_weekend","days_to_next_holiday","days_since_holiday","feeder_outage_rate","storm_index","rain_season_interaction","demand_risk_score","overdue_pressure","length_x_outage_rate"],"feature_types":["float","int","int","float","float","int","int","int","int","int","float","float","float","float","int","int","int","int","float","int","int","int","int","float","int","int","float","float","float","float","int","int","int","int","int","int","float","float","float","float","int","float"],"gradient_booster":{"model":{"cats":{"enc":[],"feature_segments":[],"sorted_idx":[]},"gbtree_model_param":{"num_parallel_tree":"1","num_trees":"279"},"iteration_indptr":[0,1,2,3,4,5,6,7,8,9,10,11,12,13,14,15,16,17,18,19,20,21,22,23,24,25,26,27,28,29,30,31,32,33,34,35,36,37,38,39,40,41,42,43,44,45,46,47,48,49,50,51,52,53,54,55,56,57,58,59,60,61,62,63,64,65,66,67,68,69,70,71,72,73,74,75,76,77,78,79,80,81,82,83,84,85,86,87,88,89,90,91,92,93,94,95,96,97,98,99,100,101,102,103,104,105,106,107,108,109,110,111,112,113,114,115,116,117,118,119,120,121,122,123,124,125,126,127,128,129,130,131,132,133,134,135,136,137,138,139,140,141,142,143,144,145,146,147,148,149,150,151,152,153,154,155,156,157,158,159,160,161,162,163,164,165,166,167,168,169,170,171,172,173,174,175,176,177,178,179,180,181,182,183,184,185,186,187,188,189,190,191,192,193,194,195,196,197,198,199,200,201,202,203,204,205,206,207,208,209,210,211,212,213,214,215,216,217,218,219,220,221,222,223,224,225,226,227,228,229,230,231,232,233,234,235,236,237,238,239,240,241,242,243,244,245,246,247,248,249,250,251,252,253,254,255,256,257,258,259,260,261,262,263,264,265,266,267,268,269,270,271,272,273,274,275,276,277,278,279],"tree_info":[0,0,0,0,0,0,0,0,0,0,0,0,0,0,0,0,0,0,0,0,0,0,0,0,0,0,0,0,0,0,0,0,0,0,0,0,0,0,0,0,0,0,0,0,0,0,0,0,0,0,0,0,0,0,0,0,0,0,0,0,0,0,0,0,0,0,0,0,0,0,0,0,0,0,0,0,0,0,0,0,0,0,0,0,0,0,0,0,0,0,0,0,0,0,0,0,0,0,0,0,0,0,0,0,0,0,0,0,0,0,0,0,0,0,0,0,0,0,0,0,0,0,0,0,0,0,0,0,0,0,0,0,0,0,0,0,0,0,0,0,0,0,0,0,0,0,0,0,0,0,0,0,0,0,0,0,0,0,0,0,0,0,0,0,0,0,0,0,0,0,0,0,0,0,0,0,0,0,0,0,0,0,0,0,0,0,0,0,0,0,0,0,0,0,0,0,0,0,0,0,0,0,0,0,0,0,0,0,0,0,0,0,0,0,0,0,0,0,0,0,0,0,0,0,0,0,0,0,0,0,0,0,0,0,0,0,0,0,0,0,0,0,0,0,0,0,0,0,0,0,0,0,0,0,0,0,0,0,0,0,0,0,0,0,0,0,0,0,0,0,0,0,0,0,0,0,0,0,0],"trees":[{"base_weights":[-0E0,-1.7954984E0,1.3840647E-1,-2.7265675E-2,-3.228194E-1,-1.5141387E-1,6.427562E-1,-1.7693521E-2,1.1513454E-2,-4.3134266E-3,5.989092E-3,6.7938967E-3,1.5671683E-2],"categories":[],"categories_nodes":[],"categories_segments":[],"categories_sizes":[],"default_left":[0,0,0,0,0,0,0,0,0,0,0,0,0],"id":0,"left_children":[1,3,5,-1,7,9,11,-1,-1,-1,-1,-1,-1],"loss_changes":[7.4466864E2,1.2559448E1,4.0707843E2,0E0,1.3711481E1,1.388446E2,7.4736725E1,0E0,0E0,0E0,0E0,0E0,0E0],"parents":[2147483647,0,0,1,1,2,2,4,4,5,5,6,6],"right_children":[2,4,6,-1,8,10,12,-1,-1,-1,-1,-1,-1],"split_conditions":[4.4317E-2,7.51E2,9.2379E0,-2.7265675E-2,7.1E1,1.0000001E0,2E0,-1.7693521E-2,1.1513454E-2,-4.3134266E-3,5.989092E-3,6.7938967E-3,1.5671683E-2],"split_indices":[36,24,4,0,35,38,21,0,0,0,0,0,0],"split_type":[0,0,0,0,0,0,0,0,0,0,0,0,0],"sum_hessian":[2.9888054E3,2.1189815E2,2.7769075E3,2.0326543E2,8.632716E0,1.7632561E3,1.0136512E3,5.25E0,3.382716E0,1.4099814E3,3.532747E2,7.1208026E2,3.0157098E2],"tree_param":{"num_deleted":"0","num_feature":"42","num_nodes":"13","size_leaf_vector":"1"}},{"base_weights":[-2.2156532E-3,-1.7183298E0,1.3322046E-1,-2.8447278E-2,-1.3192192E0,-9.565133E-2,9.2715E-1,4.6584755E-3,-2.1192612E-2,-5.77957E-3,2.8693117E-3,1.422557E-2,-2.065902E-2],"categories":[],"categories_nodes":[],"categories_segments":[],"categories_sizes":[],"default_left":[0,0,0,0,0,0,0,0,0,0,0,0,0],"id":1,"left_children":[1,3,5,-1,7,9,11,-1,-1,-1,-1,-1,-1],"loss_changes":[6.9990656E2,8.250122E0,5.069312E2,0E0,1.8840073E1,1.8607509E2,5.6618103E1,0E0,0E0,0E0,0E0,0E0,0E0],"parents":[2147483647,0,0,1,1,2,2,4,4,5,5,6,6],"right_children":[2,4,6,-1,8,10,12,-1,-1,-1,-1,-1,-1],"split_conditions":[1.1E1,3.4E1,1.51E2,-2.8447278E-2,3.5E1,8.200001E0,1.4E1,4.6584755E-3,-2.1192612E-2,-5.77957E-3,2.8693117E-3,1.422557E-2,-2.065902E-2],"split_indices":[1,35,1,0,35,37,28,0,0,0,0,0,0],"split_type":[0,0,0,0,0,0,0,0,0,0,0,0,0],"sum_hessian":[2.9986116E3,2.1774162E2,2.78087E3,1.34475E2,8.326661E1,2.1592632E3,6.21607E2,4.6318555E0,7.863475E1,1.0701744E3,1.0890886E3,6.138572E2,7.7497983E0],"tree_param":{"num_deleted":"0","num_feature":"42","num_nodes":"13","size_leaf_vector":"1"}},{"base_weights":[-8.989031E-4,-1.6921856E0,1.3173845E-1,-1.7406169E0,-2.638763E-1,-7.187337E-2,8.766262E-1,-1.3233678E-2,-2.6390638E-2,-1.6943108E-2,1.1612942E-2,-4.905758E-3,2.9780022E-3,1.601756E-2,6.884615E-3],"categories":[],"categories_nodes":[],"categories_segments":[],"categories_sizes":[],"default_left":[0,0,0,0,0,0,0,0,0,0,0,0,0,0,0],"id":2,"left_children":[1,3,5,7,9,11,13,-1,-1,-1,-1,-1,-1,-1,-1],"loss_changes":[6.737529E2,1.1691223E1,4.2227625E2,1.3580933E0,1.2913318E1,1.5596037E2,4.8145996E1,0E0,0E0,0E0,0E0,0E0,0E0,0E0,0E0],"parents":[2147483647,0,0,1,1,2,2,3,3,4,4,5,5,6,6],"right_children":[2,4,6,8,10,12,14,-1,-1,-1,-1,-1,-1,-1,-1],"split_conditions":[1.1E1,7.5E2,1.51E2,1.4E1,2.4E0,8.68E0,4E0,-1.3233678E-2,-2.6390638E-2,-1.6943108E-2,1.1612942E-2,-4.905758E-3,2.9780022E-3,1.601756E-2,6.884615E-3],"split_indices":[1,25,1,25,26,37,7,0,0,0,0,0,0,0,0],"split_type":[0,0,0,0,0,0,0,0,0,0,0,0,0,0,0],"sum_hessian":[2.99053E3,2.1588364E2,2.7746465E3,2.0750288E2,8.380747E0,2.1796714E3,5.949751E2,1.5123479E1,1.9237941E2,4.998199E0,3.3825479E0,1.1183683E3,1.0613031E3,3.89563E2,2.0541211E2],"tree_param":{"num_deleted":"0","num_feature":"42","num_nodes":"15","size_leaf_vector":"1"}},{"base_weights":[-3.341451E-2,-7.7128786E-1,2.572288E-1,-1.6606454E0,-4.6729186E-1,2.0750618E-2,8.551629E-1,-2.5242023E-2,-1.9960767E-3,-9.007045E-3,5.6195245E-3,5.0532715E-3,-3.343426E-3,1.5701149E-2,-2.3247374E-3],"categories":[],"categories_nodes":[],"categories_segments":[],"categories_sizes":[],"default_left":[0,0,0,0,0,0,0,0,0,0,0,0,0,0,0],"id":3,"left_children":[1,3,5,7,9,11,13,-1,-1,-1,-1,-1,-1,-1,-1],"loss_changes":[6.3430945E2,2.2167773E2,2.9861945E2,1.3442932E1,7.7038635E1,1.2147791E2,1.282063E2,0E0,0E0,0E0,0E0,0E0,0E0,0E0,0E0],"parents":[2147483647,0,0,1,1,2,2,3,3,4,4,5,5,6,6],"right_children":[2,4,6,8,10,12,14,-1,-1,-1,-1,-1,-1,-1,-1],"split_conditions":[6.3617E-2,1.1E1,1.51E2,7.51E2,4E0,1.38E2,1E0,-2.5242023E-2,-1.9960767E-3,-9.007045E-3,5.6195245E-3,5.0532715E-3,-3.343426E-3,1.5701149E-2,-2.3247374E-3],"split_indices":[36,1,1,24,22,8,9,0,0,0,0,0,0,0,0],"split_type":[0,0,0,0,0,0,0,0,0,0,0,0,0,0,0],"sum_hessian":[2.9500994E3,8.335353E2,2.116564E3,2.08472E2,6.250633E2,1.5199629E3,5.9660126E2,2.0084265E2,7.629359E0,5.3655994E2,8.8503334E1,6.6218164E2,8.577812E2,4.953833E2,1.01217926E2],"tree_param":{"num_deleted":"0","num_feature":"42","num_nodes":"15","size_leaf_vector":"1"}},{"base_weights":[3.0141674E-2,-1.7593255E0,1.6542462E-1,-2.6718594E-2,-4.6111628E-1,-1.6341744E-2,8.2495934E-1,1.1531754E-2,-1.873278E-2,-2.5480485E-3,3.5737571E-3,1.2740188E-2,-2.1058604E-2],"categories":[],"categories_nodes":[],"categories_segments":[],"categories_sizes":[],"default_left":[0,0,0,0,0,0,0,0,0,0,0,0,0],"id":4,"left_children":[1,3,5,-1,7,9,11,-1,-1,-1,-1,-1,-1],"loss_changes":[7.391345E2,9.628357E0,3.420595E2,0E0,1.5609905E1,9.0243E1,5.5892517E1,0E0,0E0,0E0,0E0,0E0,0E0],"parents":[2147483647,0,0,1,1,2,2,4,4,5,5,6,6],"right_children":[2,4,6,-1,8,10,12,-1,-1,-1,-1,-1,-1],"split_conditions":[8.542E2,7.5E2,3.4904E1,-2.6718594E-2,3.7E1,2.978E3,1.4E1,1.1531754E-2,-1.873278E-2,-2.5480485E-3,3.5737571E-3,1.2740188E-2,-2.1058604E-2],"split_indices":[18,25,0,0,34,18,28,0,0,0,0,0,0],"split_type":[0,0,0,0,0,0,0,0,0,0,0,0,0],"sum_hessian":[3.0548877E3,2.1196252E2,2.8429253E3,2.0208514E2,9.87739E0,2.2293425E3,6.135827E2,3.3826647E0,6.4947248E0,1.3924708E3,8.3687177E2,6.053332E2,8.249529E0],"tree_param":{"num_deleted":"0","num_feature":"42","num_nodes":"13","size_leaf_vector":"1"}},{"base_weights":[6.044783E-3,-1.7347448E0,1.3920707E-1,-9.1256106E-1,-1.785011E0,-6.220412E-2,8.4385633E-1,-2.204129E-2,9.362626E-3,-2.722367E-2,-1.4686684E-2,-2.1490126E-3,8.719698E-3,1.3026227E-2,-2.1011423E-2],"categories":[],"categories_nodes":[],"categories_segments":[],"categories_sizes":[],"default_left":[0,0,0,0,0,0,0,0,0,0,0,0,0,0,0],"id":5,"left_children":[1,3,5,7,9,11,13,-1,-1,-1,-1,-1,-1,-1,-1],"loss_changes":[6.9975E2,1.656189E0,4.0006854E2,2.039848E1,1.4779663E0,1.1895378E2,5.7944122E1,0E0,0E0,0E0,0E0,0E0,0E0,0E0,0E0],"parents":[2147483647,0,0,1,1,2,2,3,3,4,4,5,5,6,6],"right_children":[2,4,6,8,10,12,14,-1,-1,-1,-1,-1,-1,-1,-1],"split_conditions":[8.542E2,1.4E1,3.4904E1,1.3E1,1E0,2.8E0,1.4E1,-2.204129E-2,9.362626E-3,-2.722367E-2,-1.4686684E-2,-2.1490126E-3,8.719698E-3,1.3026227E-2,-2.1011423E-2],"split_indices":[18,25,0,25,10,38,28,0,0,0,0,0,0,0,0],"split_type":[0,0,0,0,0,0,0,0,0,0,0,0,0,0,0],"sum_hessian":[3.0210923E3,2.1188065E2,2.8092117E3,1.632951E1,1.9555113E2,2.185337E3,6.2387476E2,1.2459305E1,3.870205E0,1.7724236E2,1.8308777E1,1.9410851E3,2.4425189E2,6.153755E2,8.499245E0],"tree_param":{"num_deleted":"0","num_feature":"42","num_nodes":"15","size_leaf_vector":"1"}},{"base_weights":[6.382715E-3,-2.370166E-1,8.92435E-1,-1.5979048E0,-1.00048885E-1,9.238015E-1,-1.9604906E-2,-2.6661558E-2,-1.7836703E-2,3.4274862E-3,-4.772986E-3,1.5610736E-2,5.489109E-3],"categories":[],"categories_nodes":[],"categories_segments":[],"categories_sizes":[],"default_left":[0,0,0,0,0,0,0,0,0,0,0,0,0],"id":6,"left_children":[1,3,5,7,9,11,-1,-1,-1,-1,-1,-1,-1],"loss_changes":[6.47449E2,4.3601715E2,4.779883E1,8.416748E0,1.5918748E2,4.477838E1,0E0,0E0,0E0,0E0,0E0,0E0,0E0],"parents":[2147483647,0,0,1,1,2,2,3,3,4,4,5,5],"right_children":[2,4,6,8,10,12,-1,-1,-1,-1,-1,-1,-1],"split_conditions":[1.51E2,1.1E1,6.1326995E0,3.4E1,1.27E2,5E0,-1.9604906E-2,-2.6661558E-2,-1.7836703E-2,3.4274862E-3,-4.772986E-3,1.5610736E-2,5.489109E-3],"split_indices":[1,1,27,35,8,7,0,0,0,0,0,0,0],"split_type":[0,0,0,0,0,0,0,0,0,0,0,0,0],"sum_hessian":[2.9936172E3,2.3489778E3,6.446393E2,2.1153899E2,2.1374387E3,6.3764136E2,6.9979677E0,1.2965857E2,8.188042E1,8.572264E2,1.2802125E3,5.0941925E2,1.2822209E2],"tree_param":{"num_deleted":"0","num_feature":"42","num_nodes":"13","size_leaf_vector":"1"}},{"base_weights":[1.0789233E-2,-1.6330099E0,1.3328381E-1,-1.7326111E0,-1.0208216E0,-6.488048E-2,8.4308E-1,-2.6562043E-2,-1.2558925E-2,-2.3067418E-2,-2.8009603E-3,-4.0276367E-3,2.4894872E-3,1.3064748E-2,-2.118654E-2],"categories":[],"categories_nodes":[],"categories_segments":[],"categories_sizes":[],"default_left":[0,0,0,0,0,0,0,0,0,0,0,0,0,0,0],"id":7,"left_children":[1,3,5,7,9,11,13,-1,-1,-1,-1,-1,-1,-1,-1],"loss_changes":[6.122927E2,5.2262573E0,4.0020804E2,3.5706177E0,1.411092E1,1.0812966E2,6.253473E1,0E0,0E0,0E0,0E0,0E0,0E0,0E0,0E0],"parents":[2147483647,0,0,1,1,2,2,3,3,4,4,5,5,6,6],"right_children":[2,4,6,8,10,12,14,-1,-1,-1,-1,-1,-1,-1,-1],"split_conditions":[3.7855583E1,9.749279E-1,3.4904E1,3.4E2,1.001E1,4.3388373E-1,1.4E1,-2.6562043E-2,-1.2558925E-2,-2.3067418E-2,-2.8009603E-3,-4.0276367E-3,2.4894872E-3,1.3064748E-2,-2.118654E-2],"split_indices":[39,12,0,8,37,12,28,0,0,0,0,0,0,0,0],"split_type":[0,0,0,0,0,0,0,0,0,0,0,0,0,0,0],"sum_hessian":[3.0437942E3,2.0825606E2,2.835538E3,1.73492E2,3.476406E1,2.217276E3,6.182621E2,1.5748196E2,1.601003E1,1.8847672E1,1.5916389E1,1.1749952E3,1.0422808E3,6.0901733E2,9.244779E0],"tree_param":{"num_deleted":"0","num_feature":"42","num_nodes":"15","size_leaf_vector":"1"}},{"base_weights":[-3.925775E-2,-3.870311E-1,5.9408003E-1,-1.6188428E0,-2.2857554E-1,4.2899978E-1,9.815988E-1,-2.532315E-2,-1.3838491E-2,-5.6262123E-3,4.56582E-3,2.0503341E-3,1.0255592E-2,1.6918555E-2,8.135342E-3],"categories":[],"categories_nodes":[],"categories_segments":[],"categories_sizes":[],"default_left":[0,0,0,0,0,0,0,0,0,0,0,0,0,0,0],"id":8,"left_children":[1,3,5,7,9,11,13,-1,-1,-1,-1,-1,-1,-1,-1],"loss_changes":[6.492013E2,3.6868307E2,6.413229E1,7.1939697E0,1.3932297E2,5.5823654E1,1.833078E1,0E0,0E0,0E0,0E0,0E0,0E0,0E0,0E0],"parents":[2147483647,0,0,1,1,2,2,3,3,4,4,5,5,6,6],"right_children":[2,4,6,8,10,12,14,-1,-1,-1,-1,-1,-1,-1,-1],"split_conditions":[9.2379E0,8.542E2,2E0,7E1,8E-1,3.73039E1,2.05E2,-2.532315E-2,-1.3838491E-2,-5.6262123E-3,4.56582E-3,2.0503341E-3,1.0255592E-2,1.6918555E-2,8.135342E-3],"split_indices":[4,18,21,35,38,4,8,0,0,0,0,0,0,0,0],"split_type":[0,0,0,0,0,0,0,0,0,0,0,0,0,0,0],"sum_hessian":[2.9432437E3,1.9017396E3,1.0415039E3,2.1324207E2,1.6884976E3,7.361969E2,3.0530695E2,1.8172128E2,3.152078E1,1.3173801E3,3.7111755E2,3.5607782E2,3.801191E2,2.1571458E2,8.959236E1],"tree_param":{"num_deleted":"0","num_feature":"42","num_nodes":"15","size_leaf_vector":"1"}},{"base_weights":[-1.1231246E-2,-1.5869343E0,1.03983924E-1,-1.0858122E0,-2.4867022E-2,-8.982321E-2,8.0255E-1,-2.4021506E-2,1.0052664E-2,-5.417078E-3,2.7684236E-3,1.2370529E-2,-1.9951377E-2],"categories":[],"categories_nodes":[],"categories_segments":[],"categories_sizes":[],"default_left":[0,0,0,0,0,0,0,0,0,0,0,0,0],"id":9,"left_children":[1,3,5,7,-1,9,11,-1,-1,-1,-1,-1,-1],"loss_changes":[5.4058545E2,2.1907654E0,3.7544586E2,4.4517017E1,0E0,1.670316E2,4.8801544E1,0E0,0E0,0E0,0E0,0E0,0E0],"parents":[2147483647,0,0,1,1,2,2,3,3,5,5,6,6],"right_children":[2,4,6,8,-1,10,12,-1,-1,-1,-1,-1,-1],"split_conditions":[1.1E1,3.19634E0,1.51E2,3.1649268E0,-2.4867022E-2,8.370001E0,1.4E1,-2.4021506E-2,1.0052664E-2,-5.417078E-3,2.7684236E-3,1.2370529E-2,-1.9951377E-2],"split_indices":[1,29,1,29,0,37,28,0,0,0,0,0,0],"split_type":[0,0,0,0,0,0,0,0,0,0,0,0,0],"sum_hessian":[2.9636604E3,2.0035518E2,2.7633052E3,3.980872E1,1.6054646E2,2.1636719E3,5.996332E2,3.1101515E1,8.707206E0,1.0837181E3,1.0799539E3,5.918898E2,7.7433805E0],"tree_param":{"num_deleted":"0","num_feature":"42","num_nodes":"13","size_leaf_vector":"1"}},{"base_weights":[1.4148037E-3,-1.5263191E0,1.20725654E-1,-2.5490047E-2,-1.158168E0,-8.033223E-2,8.0149806E-1,6.4455443E-3,-1.8808363E-2,-5.3923125E-3,2.5072503E-3,1.2369274E-2,-2.0315E-2],"categories":[],"categories_nodes":[],"categories_segments":[],"categories_sizes":[],"default_left":[0,0,0,0,0,0,0,0,0,0,0,0,0],"id":10,"left_children":[1,3,5,-1,7,9,11,-1,-1,-1,-1,-1,-1],"loss_changes":[5.469384E2,7.7177734E0,3.8310974E2,0E0,1.8449707E1,1.5423242E2,5.3474762E1,0E0,0E0,0E0,0E0,0E0,0E0],"parents":[2147483647,0,0,1,1,2,2,4,4,5,5,6,6],"right_children":[2,4,6,-1,8,10,12,-1,-1,-1,-1,-1,-1],"split_conditions":[1.1E1,3.4E1,1.51E2,-2.5490047E-2,3.5E1,7.37E0,1.4E1,6.4455443E-3,-1.8808363E-2,-5.3923125E-3,2.5072503E-3,1.2369274E-2,-2.0315E-2],"split_indices":[1,35,1,0,35,37,28,0,0,0,0,0,0],"split_type":[0,0,0,0,0,0,0,0,0,0,0,0,0],"sum_hessian":[3.0040466E3,2.1473312E2,2.7893135E3,1.3075246E2,8.398067E1,2.1538362E3,6.354774E2,4.5811496E0,7.939951E1,1.00833154E3,1.1455046E3,6.2699066E2,8.486777E0],"tree_param":{"num_deleted":"0","num_feature":"42","num_nodes":"13","size_leaf_vector":"1"}},{"base_weights":[-8.064282E-3,-7.4178356E-1,2.7464324E-1,-1.5626194E0,-4.5437413E-1,8.922084E-2,7.459294E-1,-2.3760559E-2,-4.944208E-3,-2.081221E-3,-1.0778196E-2,4.5857932E-3,-5.513302E-4,1.4193305E-2,4.0104794E-3],"categories":[],"categories_nodes":[],"categories_segments":[],"categories_sizes":[],"default_left":[0,0,0,0,0,0,0,0,0,0,0,0,0,0,0],"id":11,"left_children":[1,3,5,7,9,11,13,-1,-1,-1,-1,-1,-1,-1,-1],"loss_changes":[6.2189075E2,1.9273969E2,1.8777083E2,8.970093E0,5.2612854E1,4.3966766E1,6.022525E1,0E0,0E0,0E0,0E0,0E0,0E0,0E0,0E0],"parents":[2147483647,0,0,1,1,2,2,3,3,4,4,5,5,6,6],"right_children":[2,4,6,8,10,12,14,-1,-1,-1,-1,-1,-1,-1,-1],"split_conditions":[6.3617E-2,1.1E1,1.51E2,7.51E2,1.3E1,5E0,4E0,-2.3760559E-2,-4.944208E-3,-2.081221E-3,-1.0778196E-2,4.5857932E-3,-5.513302E-4,1.4193305E-2,4.0104794E-3],"split_indices":[36,1,1,24,24,6,7,0,0,0,0,0,0,0,0],"split_type":[0,0,0,0,0,0,0,0,0,0,0,0,0,0,0],"sum_hessian":[2.990485E3,8.317043E2,2.1587808E3,2.1172102E2,6.199833E2,1.5531448E3,6.0563605E2,2.0216345E2,9.557573E0,2.9410944E2,3.258738E2,5.665652E2,9.8657965E2,4.1267426E2,1.9296178E2],"tree_param":{"num_deleted":"0","num_feature":"42","num_nodes":"15","size_leaf_vector":"1"}},{"base_weights":[-3.2613E-2,-1.5460624E0,8.485178E-2,-1.5942519E0,-1.6460285E-1,-9.459778E-2,7.416873E-1,-2.428567E-2,-1.22438045E-2,-1.5314149E-2,1.2124295E-2,-5.601996E-3,2.6302643E-3,1.3150793E-2,2.5202304E-3],"categories":[],"categories_nodes":[],"categories_segments":[],"categories_sizes":[],"default_left":[0,0,0,0,0,0,0,0,0,0,0,0,0,0,0],"id":12,"left_children":[1,3,5,7,9,11,13,-1,-1,-1,-1,-1,-1,-1,-1],"loss_changes":[5.3022675E2,1.166272E1,3.2612723E2,1.8640747E0,1.1820645E1,1.6902469E2,4.910791E1,0E0,0E0,0E0,0E0,0E0,0E0,0E0,0E0],"parents":[2147483647,0,0,1,1,2,2,3,3,4,4,5,5,6,6],"right_children":[2,4,6,8,10,12,14,-1,-1,-1,-1,-1,-1,-1,-1],"split_conditions":[1.008E3,7.51E2,3.4904E1,3.4E2,1.6E1,8.200001E0,1E0,-2.428567E-2,-1.22438045E-2,-1.5314149E-2,1.2124295E-2,-5.601996E-3,2.6302643E-3,1.3150793E-2,2.5202304E-3],"split_indices":[19,24,0,8,37,37,9,0,0,0,0,0,0,0,0],"split_type":[0,0,0,0,0,0,0,0,0,0,0,0,0,0,0],"sum_hessian":[2.968887E3,2.1225908E2,2.756628E3,2.0394023E2,8.318845E0,2.1655093E3,5.911188E2,1.8689792E2,1.7042307E1,4.941121E0,3.3777237E0,1.0605868E3,1.1049224E3,4.6572305E2,1.253957E2],"tree_param":{"num_deleted":"0","num_feature":"42","num_nodes":"15","size_leaf_vector":"1"}},{"base_weights":[-1.8079506E-2,-4.268622E-1,4.3056092E-1,-1.5226585E0,-2.5852615E-1,2.0167474E-1,7.426993E-1,-2.392761E-2,-1.35374535E-2,-5.863115E-4,-8.996829E-3,2.0044723E-3,1.5447953E-2,1.1510182E-2,-2.0268869E-2],"categories":[],"categories_nodes":[],"categories_segments":[],"categories_sizes":[],"default_left":[0,0,0,0,0,0,0,0,0,0,0,0,0,0,0],"id":13,"left_children":[1,3,5,7,9,11,13,-1,-1,-1,-1,-1,-1,-1,-1],"loss_changes":[5.4822943E2,2.8575327E2,1.0029202E2,5.729126E0,1.03782745E2,4.4337124E1,4.9472107E1,0E0,0E0,0E0,0E0,0E0,0E0,0E0,0E0],"parents":[2147483647,0,0,1,1,2,2,3,3,4,4,5,5,6,6],"right_children":[2,4,6,8,10,12,14,-1,-1,-1,-1,-1,-1,-1,-1],"split_conditions":[2.7672766E2,1.008E3,3.73039E1,9.749279E-1,4E0,1E0,5.8694124E0,-2.392761E-2,-1.35374535E-2,-5.863115E-4,-8.996829E-3,2.0044723E-3,1.5447953E-2,1.1510182E-2,-2.0268869E-2],"split_indices":[39,19,4,12,7,30,27,0,0,0,0,0,0,0,0],"split_type":[0,0,0,0,0,0,0,0,0,0,0,0,0,0,0],"sum_hessian":[2.9841787E3,1.5628171E3,1.4213615E3,2.0446742E2,1.3583497E3,8.2454895E2,5.9681256E2,1.7044057E2,3.4026848E1,8.406622E2,5.1768756E2,7.689679E2,5.558101E1,5.885796E2,8.232999E0],"tree_param":{"num_deleted":"0","num_feature":"42","num_nodes":"15","size_leaf_vector":"1"}},{"base_weights":[2.3352768E-2,-2.3086732E-2,1.3967352E-1,-1.2501006E-1,5.858411E-1,-3.993805E-3,4.780022E-3,6.5136245E-3,1.5403258E-2],"categories":[],"categories_nodes":[],"categories_segments":[],"categories_sizes":[],"default_left":[0,0,0,0,0,0,0,0,0],"id":14,"left_children":[1,-1,3,5,7,-1,-1,-1,-1],"loss_changes":[5.6125244E2,0E0,3.3601245E2,1.1673658E2,6.7220856E1,0E0,0E0,0E0,0E0],"parents":[2147483647,0,0,2,2,3,3,4,4],"right_children":[2,-1,4,6,8,-1,-1,-1,-1],"split_conditions":[8.542E2,-2.3086732E-2,9.2924E-2,2.6999998E0,2.025E3,-3.993805E-3,4.780022E-3,6.5136245E-3,1.5403258E-2],"split_indices":[18,0,36,26,5,0,0,0,0],"split_type":[0,0,0,0,0,0,0,0,0],"sum_hessian":[3.0415354E3,2.0474942E2,2.836786E3,1.7801095E3,1.0566765E3,1.3467137E3,4.3339572E2,8.09082E2,2.475945E2],"tree_param":{"num_deleted":"0","num_feature":"42","num_nodes":"9","size_leaf_vector":"1"}},{"base_weights":[-1.1962309E-2,-5.121049E-1,3.1794375E-1,-1.4825227E0,-3.142831E-1,1.08378276E-1,7.149728E-1,-2.2629334E-2,-1.9107008E-3,-5.9342682E-3,4.5570736E-3,-2.0954951E-3,5.6889663E-3,1.1089737E-2,-2.016452E-2],"categories":[],"categories_nodes":[],"categories_segments":[],"categories_sizes":[],"default_left":[0,0,0,0,0,0,0,0,0,0,0,0,0,0,0],"id":15,"left_children":[1,3,5,7,9,11,13,-1,-1,-1,-1,-1,-1,-1,-1],"loss_changes":[4.9207678E2,2.2449313E2,1.482221E2,1.139679E1,5.4610077E1,8.22806E1,4.8999023E1,0E0,0E0,0E0,0E0,0E0,0E0,0E0,0E0],"parents":[2147483647,0,0,1,1,2,2,3,3,4,4,5,5,6,6],"right_children":[2,4,6,8,10,12,14,-1,-1,-1,-1,-1,-1,-1,-1],"split_conditions":[6.5046E-2,3.1784E0,3.4904E1,7.5E2,3.45E0,1.0000001E0,1.4E1,-2.2629334E-2,-1.9107008E-3,-5.9342682E-3,4.5570736E-3,-2.0954951E-3,5.6889663E-3,1.1089737E-2,-2.016452E-2],"split_indices":[36,0,0,25,23,26,28,0,0,0,0,0,0,0,0],"split_type":[0,0,0,0,0,0,0,0,0,0,0,0,0,0,0],"sum_hessian":[2.975851E3,1.183543E3,1.7923081E3,1.9662521E2,9.869177E2,1.1770901E3,6.1521796E2,1.8834734E2,8.277884E0,8.6730035E2,1.1961736E2,6.169577E2,5.601324E2,6.0673737E2,8.4806185E0],"tree_param":{"num_deleted":"0","num_feature":"42","num_nodes":"15","size_leaf_vector":"1"}},{"base_weights":[1.6199691E-2,-1.4128445E0,1.2161895E-1,-2.3983024E-2,-1.040179E0,-2.865037E-2,6.90989E-1,6.369724E-3,-1.7089022E-2,-3.9859074E-3,3.1690784E-3,-2.222255E-2,1.0759444E-2],"categories":[],"categories_nodes":[],"categories_segments":[],"categories_sizes":[],"default_left":[0,0,0,0,0,0,0,0,0,0,0,0,0],"id":16,"left_children":[1,3,5,-1,7,9,11,-1,-1,-1,-1,-1,-1],"loss_changes":[4.4729944E2,8.817474E0,2.3816852E2,0E0,1.6526558E1,1.2929306E2,5.069577E1,0E0,0E0,0E0,0E0,0E0,0E0],"parents":[2147483647,0,0,1,1,2,2,4,4,5,5,6,6],"right_children":[2,4,6,-1,8,10,12,-1,-1,-1,-1,-1,-1],"split_conditions":[1.1E1,3.4E1,1.51E2,-2.3983024E-2,3.5E1,8.200001E0,1.6E1,6.369724E-3,-1.7089022E-2,-3.9859074E-3,3.1690784E-3,-2.222255E-2,1.0759444E-2],"split_indices":[1,35,1,0,35,37,8,0,0,0,0,0,0],"split_type":[0,0,0,0,0,0,0,0,0,0,0,0,0],"sum_hessian":[2.9732083E3,2.0134048E2,2.771868E3,1.20805695E2,8.053479E1,2.193453E3,5.7841504E2,4.7643814E0,7.577041E1,1.1032838E3,1.090169E3,7.689178E0,5.707258E2],"tree_param":{"num_deleted":"0","num_feature":"42","num_nodes":"13","size_leaf_vector":"1"}},{"base_weights":[-3.2463316E-2,-1.5769836E0,7.851853E-2,-2.4102224E-2,-1.8672359E-1,-8.560996E-2,6.793115E-1,1.2515378E-2,-1.5343957E-2,-4.839612E-3,2.3122076E-3,1.2240833E-2,6.191941E-4],"categories":[],"categories_nodes":[],"categories_segments":[],"categories_sizes":[],"default_left":[0,0,0,0,0,0,0,0,0,0,0,0,0],"id":17,"left_children":[1,3,5,-1,7,9,11,-1,-1,-1,-1,-1,-1],"loss_changes":[5.0132977E2,1.2565033E1,2.6897998E2,0E0,1.2487106E1,1.2581768E2,5.498523E1,0E0,0E0,0E0,0E0,0E0,0E0],"parents":[2147483647,0,0,1,1,2,2,4,4,5,5,6,6],"right_children":[2,4,6,-1,8,10,12,-1,-1,-1,-1,-1,-1],"split_conditions":[1.008E3,7.51E2,3.73039E1,-2.4102224E-2,3.7E1,8.370001E0,5E0,1.2515378E-2,-1.5343957E-2,-4.839612E-3,2.3122076E-3,1.2240833E-2,6.191941E-4],"split_indices":[19,24,4,0,34,37,7,0,0,0,0,0,0],"split_type":[0,0,0,0,0,0,0,0,0,0,0,0,0],"sum_hessian":[2.9104824E3,1.9350687E2,2.7169756E3,1.8475471E2,8.752149E0,2.134272E3,5.827035E2,3.3703463E0,5.3818026E0,1.068846E3,1.0654261E3,4.6949463E2,1.1320888E2],"tree_param":{"num_deleted":"0","num_feature":"42","num_nodes":"13","size_leaf_vector":"1"}},{"base_weights":[2.0094855E-2,-6.362543E-1,2.7548832E-1,-1.3988458E0,-3.736034E-1,1.0532683E-1,7.0332354E-1,-2.1270728E-2,-4.065744E-3,-2.3189688E-4,-9.683032E-3,-2.896085E-3,5.862175E-3,1.2263609E-2,3.424544E-3],"categories":[],"categories_nodes":[],"categories_segments":[],"categories_sizes":[],"default_left":[0,0,0,0,0,0,0,0,0,0,0,0,0,0,0],"id":18,"left_children":[1,3,5,7,9,11,13,-1,-1,-1,-1,-1,-1,-1,-1],"loss_changes":[5.0956964E2,1.6712576E2,1.5842723E2,7.4137573E0,6.371216E1,1.3889305E2,3.5722168E1,0E0,0E0,0E0,0E0,0E0,0E0,0E0,0E0],"parents":[2147483647,0,0,1,1,2,2,3,3,4,4,5,5,6,6],"right_children":[2,4,6,8,10,12,14,-1,-1,-1,-1,-1,-1,-1,-1],"split_conditions":[6.3617E-2,1.1E1,1.51E2,7.51E2,1.1E1,8.48E0,1E0,-2.1270728E-2,-4.065744E-3,-2.3189688E-4,-9.683032E-3,-2.896085E-3,5.862175E-3,1.2263609E-2,3.424544E-3],"split_indices":[36,1,1,24,24,37,9,0,0,0,0,0,0,0,0],"split_type":[0,0,0,0,0,0,0,0,0,0,0,0,0,0,0],"sum_hessian":[3.0370303E3,8.484197E2,2.1886106E3,2.1340852E2,6.3501117E2,1.569999E3,6.1861163E2,2.0393762E2,9.470914E0,2.8313544E2,3.518757E2,7.7078284E2,7.992161E2,4.832397E2,1.3537193E2],"tree_param":{"num_deleted":"0","num_feature":"42","num_nodes":"15","size_leaf_vector":"1"}},{"base_weights":[2.4953332E-2,-9.019293E-1,2.0799634E-1,-5.8081746E-2,-1.279372E0,4.4537306E-2,7.1783024E-1,-2.1103116E-2,1.0576822E-3,-1.0977103E-2,-2.0962488E-2,4.3431846E-3,-1.6003068E-3,1.120893E-2,-2.0869095E-2],"categories":[],"categories_nodes":[],"categories_segments":[],"categories_sizes":[],"default_left":[0,0,0,0,0,0,0,0,0,0,0,0,0,0,0],"id":19,"left_children":[1,3,5,7,9,11,13,-1,-1,-1,-1,-1,-1,-1,-1],"loss_changes":[5.0842392E2,1.5564563E2,2.0799748E2,2.9603767E1,2.059851E1,7.30097E1,5.6118988E1,0E0,0E0,0E0,0E0,0E0,0E0,0E0,0E0],"parents":[2147483647,0,0,1,1,2,2,3,3,4,4,5,5,6,6],"right_children":[2,4,6,8,10,12,14,-1,-1,-1,-1,-1,-1,-1,-1],"split_conditions":[1.656E3,1.2E1,3.73039E1,3E0,7.3E1,1.22E2,1.4E1,-2.1103116E-2,1.0576822E-3,-1.0977103E-2,-2.0962488E-2,4.3431846E-3,-1.6003068E-3,1.120893E-2,-2.0869095E-2],"split_indices":[18,25,4,40,8,8,28,0,0,0,0,0,0,0,0],"split_type":[0,0,0,0,0,0,0,0,0,0,0,0,0,0,0],"sum_hessian":[2.9958752E3,4.9138977E2,2.5044854E3,1.5369772E2,3.3769208E2,1.9002365E3,6.04249E2,1.1792747E1,1.4190497E2,7.550952E1,2.6218253E2,7.236255E2,1.176611E3,5.9477014E2,9.478881E0],"tree_param":{"num_deleted":"0","num_feature":"42","num_nodes":"15","size_leaf_vector":"1"}},{"base_weights":[-4.150869E-2,-9.13919E-1,1.3470104E-1,-2.9970047E-1,-1.3064175E0,-4.1851874E-2,6.6859394E-1,-6.0765496E-3,1.989722E-2,-2.0196393E-2,-1.557472E-3,-3.1956006E-3,3.7727696E-3,1.0435049E-2,-2.0343382E-2],"categories":[],"categories_nodes":[],"categories_segments":[],"categories_sizes":[],"default_left":[0,0,0,0,0,0,0,0,0,0,0,0,0,0,0],"id":20,"left_children":[1,3,5,7,9,11,13,-1,-1,-1,-1,-1,-1,-1,-1],"loss_changes":[4.50166E2,1.15852356E2,2.2992075E2,3.6662514E1,2.0305542E1,9.511097E1,4.9627655E1,0E0,0E0,0E0,0E0,0E0,0E0,0E0,0E0],"parents":[2147483647,0,0,1,1,2,2,3,3,4,4,5,5,6,6],"right_children":[2,4,6,8,10,12,14,-1,-1,-1,-1,-1,-1,-1,-1],"split_conditions":[1.05349754E2,1.9E1,3.4904E1,1.84E1,9.9E1,1.6E0,1.4E1,-6.0765496E-3,1.989722E-2,-2.0196393E-2,-1.557472E-3,-3.1956006E-3,3.7727696E-3,1.0435049E-2,-2.0343382E-2],"split_indices":[39,25,0,26,34,26,28,0,0,0,0,0,0,0,0],"split_type":[0,0,0,0,0,0,0,0,0,0,0,0,0,0,0],"sum_hessian":[2.9180469E3,4.8960007E2,2.4284468E3,1.9376497E2,2.958351E2,1.8251661E3,6.0328076E2,1.8386752E2,9.897449E0,2.8001965E2,1.581547E1,1.1527262E3,6.724399E2,5.943093E2,8.971419E0],"tree_param":{"num_deleted":"0","num_feature":"42","num_nodes":"15","size_leaf_vector":"1"}},{"base_weights":[-2.043235E-2,-1.4672055E0,8.723134E-2,-6.84561E-1,-1.5175401E0,-1.5559083E-1,4.9737176E-1,-1.8949436E-2,1.2083573E-2,-2.3306942E-2,-1.0465629E-2,8.799623E-4,-5.5326177E-3,5.9573976E-3,1.6454259E-2],"categories":[],"categories_nodes":[],"categories_segments":[],"categories_sizes":[],"default_left":[0,0,0,0,0,0,0,0,0,0,0,0,0,0,0],"id":21,"left_children":[1,3,5,7,9,11,13,-1,-1,-1,-1,-1,-1,-1,-1],"loss_changes":[4.6303128E2,2.97818E0,2.7518127E2,1.9884926E1,4.0782776E0,8.21865E1,5.659047E1,0E0,0E0,0E0,0E0,0E0,0E0,0E0,0E0],"parents":[2147483647,0,0,1,1,2,2,3,3,4,4,5,5,6,6],"right_children":[2,4,6,8,10,12,14,-1,-1,-1,-1,-1,-1,-1,-1],"split_conditions":[1.008E3,1.4E1,9.2379E0,1.3E1,1E0,1E1,3E0,-1.8949436E-2,1.2083573E-2,-2.3306942E-2,-1.0465629E-2,8.799623E-4,-5.5326177E-3,5.9573976E-3,1.6454259E-2],"split_indices":[19,25,4,25,11,25,21,0,0,0,0,0,0,0,0],"split_type":[0,0,0,0,0,0,0,0,0,0,0,0,0,0,0],"sum_hessian":[2.9580469E3,2.0334616E2,2.7547007E3,1.5900153E1,1.8744601E2,1.7295837E3,1.0251171E3,1.2165963E1,3.734191E0,1.7053198E2,1.6914024E1,8.713871E2,8.5819666E2,8.954484E2,1.296686E2],"tree_param":{"num_deleted":"0","num_feature":"42","num_nodes":"15","size_leaf_vector":"1"}},{"base_weights":[4.362877E-2,-1.3359421E0,1.4416972E-1,-1.3822381E0,-9.610989E-2,-6.912825E-2,5.112798E-1,-1.6006533E-2,-2.2884427E-2,1.301275E-2,-1.4303737E-2,1.3911021E-3,-4.7525754E-3,5.7277256E-3,1.7455924E-2],"categories":[],"categories_nodes":[],"categories_segments":[],"categories_sizes":[],"default_left":[0,0,0,0,0,0,0,0,0,0,0,0,0,0,0],"id":22,"left_children":[1,3,5,7,9,11,13,-1,-1,-1,-1,-1,-1,-1,-1],"loss_changes":[4.1765936E2,9.742767E0,2.2103435E2,2.5587463E0,1.169002E1,7.394933E1,8.280554E1,0E0,0E0,0E0,0E0,0E0,0E0,0E0,0E0],"parents":[2147483647,0,0,1,1,2,2,3,3,4,4,5,5,6,6],"right_children":[2,4,6,8,10,12,14,-1,-1,-1,-1,-1,-1,-1,-1],"split_conditions":[4.4317E-2,7.5E2,9.2924E-2,1.01E2,3.7E1,4E0,3E0,-1.6006533E-2,-2.2884427E-2,1.301275E-2,-1.4303737E-2,1.3911021E-3,-4.7525754E-3,5.7277256E-3,1.7455924E-2],"split_indices":[36,25,36,25,34,7,21,0,0,0,0,0,0,0,0],"split_type":[0,0,0,0,0,0,0,0,0,0,0,0,0,0,0],"sum_hessian":[3.0146086E3,2.0187213E2,2.8127366E3,1.9345233E2,8.419802E0,1.7784646E3,1.034272E3,7.931275E1,1.1413958E2,3.3567555E0,5.0630465E0,1.0787905E3,6.996741E2,8.789111E2,1.553609E2],"tree_param":{"num_deleted":"0","num_feature":"42","num_nodes":"15","size_leaf_vector":"1"}},{"base_weights":[-1.0787197E-2,-1.385829E0,9.01824E-2,-1.4863868E0,-6.72431E-1,-1.4190087E-1,4.8143312E-1,-2.1604265E-3,-2.2911808E-2,1.4364541E-2,-2.0435294E-2,-3.1192233E-3,5.4307682E-3,5.0851093E-3,1.3857582E-2],"categories":[],"categories_nodes":[],"categories_segments":[],"categories_sizes":[],"default_left":[0,0,0,0,0,0,0,0,0,0,0,0,0,0,0],"id":23,"left_children":[1,3,5,7,9,11,13,-1,-1,-1,-1,-1,-1,-1,-1],"loss_changes":[4.171025E2,9.76178E0,2.537618E2,1.32239685E1,4.0835175E1,6.205539E1,6.2896698E1,0E0,0E0,0E0,0E0,0E0,0E0,0E0,0E0],"parents":[2147483647,0,0,1,1,2,2,3,3,4,4,5,5,6,6],"right_children":[2,4,6,8,10,12,14,-1,-1,-1,-1,-1,-1,-1,-1],"split_conditions":[4.4317E-2,7E1,9.2379E0,1.4E1,7.2E1,2.8E0,2.025E3,-2.1604265E-3,-2.2911808E-2,1.4364541E-2,-2.0435294E-2,-3.1192233E-3,5.4307682E-3,5.0851093E-3,1.3857582E-2],"split_indices":[36,35,4,25,35,38,5,0,0,0,0,0,0,0,0],"split_type":[0,0,0,0,0,0,0,0,0,0,0,0,0,0,0],"sum_hessian":[2.9889397E3,2.0297873E2,2.7859612E3,1.7408484E2,2.8893887E1,1.7479156E3,1.0380454E3,9.396624E0,1.6468822E2,7.9704823E0,2.0923405E1,1.5415485E3,2.0636714E2,8.045142E2,2.3353119E2],"tree_param":{"num_deleted":"0","num_feature":"42","num_nodes":"15","size_leaf_vector":"1"}},{"base_weights":[-2.4619821E-2,1.05771E-1,-1.0524253E0,-4.5701478E-2,6.237206E-1,-1.1367103E0,1.635289E-2,-3.162604E-3,1.969368E-3,1.0390763E-2,-2.9790911E-3,-1.9636234E-2,-1.2257965E-2],"categories":[],"categories_nodes":[],"categories_segments":[],"categories_sizes":[],"default_left":[0,0,0,0,0,0,0,0,0,0,0,0,0],"id":24,"left_children":[1,3,5,7,9,11,-1,-1,-1,-1,-1,-1,-1],"loss_changes":[3.9327356E2,2.0443738E2,6.3453644E1,6.088537E1,4.008084E1,1.3727692E1,0E0,0E0,0E0,0E0,0E0,0E0,0E0],"parents":[2147483647,0,0,1,1,2,2,3,3,4,4,5,5],"right_children":[2,4,6,8,10,12,-1,-1,-1,-1,-1,-1,-1],"split_conditions":[4E1,3.5E1,6.937E1,8.68E0,6E0,1.206E3,1.635289E-2,-3.162604E-3,1.969368E-3,1.0390763E-2,-2.9790911E-3,-1.9636234E-2,-1.2257965E-2],"split_indices":[25,2,3,37,7,19,0,0,0,0,0,0,0],"split_type":[0,0,0,0,0,0,0,0,0,0,0,0,0],"sum_hessian":[2.9219182E3,2.5940527E3,3.278656E2,2.0072368E3,5.8681586E2,3.1722818E2,1.063744E1,1.0369744E3,9.702624E2,5.3628174E2,5.05341E1,1.866137E2,1.3061447E2],"tree_param":{"num_deleted":"0","num_feature":"42","num_nodes":"13","size_leaf_vector":"1"}},{"base_weights":[2.3993436E-2,-4.3019328E-1,3.198964E-1,-1.3559425E0,-2.4507968E-1,1.2446855E-1,6.848529E-1,-2.1520495E-2,-1.0494735E-2,-4.904758E-3,1.1257678E-2,-1.5878952E-4,6.8340157E-3,1.060825E-2,-1.9844936E-2],"categories":[],"categories_nodes":[],"categories_segments":[],"categories_sizes":[],"default_left":[0,0,0,0,0,0,0,0,0,0,0,0,0,0,0],"id":25,"left_children":[1,3,5,7,9,11,13,-1,-1,-1,-1,-1,-1,-1,-1],"loss_changes":[4.0387128E2,2.0032849E2,1.2879425E2,7.845703E0,8.7413574E1,5.5084232E1,4.554297E1,0E0,0E0,0E0,0E0,0E0,0E0,0E0,0E0],"parents":[2147483647,0,0,1,1,2,2,3,3,4,4,5,5,6,6],"right_children":[2,4,6,8,10,12,14,-1,-1,-1,-1,-1,-1,-1,-1],"split_conditions":[6.5046E-2,3.1784E0,3.4904E1,7E1,5E0,8.660254E-1,1.4E1,-2.1520495E-2,-1.0494735E-2,-4.904758E-3,1.1257678E-2,-1.5878952E-4,6.8340157E-3,1.060825E-2,-1.9844936E-2],"split_indices":[36,0,0,35,22,10,28,0,0,0,0,0,0,0,0],"split_type":[0,0,0,0,0,0,0,0,0,0,0,0,0,0,0],"sum_hessian":[3.000805E3,1.1818385E3,1.8189664E3,1.9322137E2,9.886172E2,1.1888635E3,6.301029E2,1.6241612E2,3.080524E1,9.1241547E2,7.620171E1,8.490445E2,3.3981906E2,6.21878E2,8.224948E0],"tree_param":{"num_deleted":"0","num_feature":"42","num_nodes":"15","size_leaf_vector":"1"}},{"base_weights":[1.0684759E-2,-1.3429493E0,1.077598E-1,-2.2155084E-2,-1.014905E0,-5.4475594E-2,6.754363E-1,1.161749E-2,-1.709173E-2,-2.7476128E-3,3.996332E-3,1.1960265E-2,1.3325836E-3],"categories":[],"categories_nodes":[],"categories_segments":[],"categories_sizes":[],"default_left":[0,0,0,0,0,0,0,0,0,0,0,0,0],"id":26,"left_children":[1,3,5,-1,7,9,11,-1,-1,-1,-1,-1,-1],"loss_changes":[3.8969186E2,3.5810547E0,2.565836E2,0E0,2.2112617E1,9.26393E1,4.7747253E1,0E0,0E0,0E0,0E0,0E0,0E0],"parents":[2147483647,0,0,1,1,2,2,4,4,5,5,6,6],"right_children":[2,4,6,-1,8,10,12,-1,-1,-1,-1,-1,-1],"split_conditions":[4.4317E-2,3.4E1,1.83703E-1,-2.2155084E-2,3.5E1,8.660254E-1,5E0,1.161749E-2,-1.709173E-2,-2.7476128E-3,3.996332E-3,1.1960265E-2,1.3325836E-3],"split_indices":[36,35,36,0,35,10,7,0,0,0,0,0,0],"split_type":[0,0,0,0,0,0,0,0,0,0,0,0,0],"sum_hessian":[2.97068E3,1.958033E2,2.7748767E3,1.2351005E2,7.229324E1,2.1583945E3,6.164821E2,3.9022474E0,6.8391E1,1.5395143E3,6.188802E2,4.9847794E2,1.180042E2],"tree_param":{"num_deleted":"0","num_feature":"42","num_nodes":"13","size_leaf_vector":"1"}},{"base_weights":[-5.0753556E-2,-7.924218E-1,1.0306919E-1,-2.6741657E-1,-1.2065647E0,-5.279891E-2,5.9239745E-1,-7.266468E-3,3.3367567E-3,-2.125826E-2,-1.0087848E-2,-1.1737918E-2,-3.4663433E-4,1.1199908E-2,-6.30971E-4],"categories":[],"categories_nodes":[],"categories_segments":[],"categories_sizes":[],"default_left":[0,0,0,0,0,0,0,0,0,0,0,0,0,0,0],"id":27,"left_children":[1,3,5,7,9,11,13,-1,-1,-1,-1,-1,-1,-1,-1],"loss_changes":[3.3474823E2,1.0712579E2,1.855697E2,2.5772331E1,2.9353638E1,3.9067833E1,6.306514E1,0E0,0E0,0E0,0E0,0E0,0E0,0E0,0E0],"parents":[2147483647,0,0,1,1,2,2,3,3,4,4,5,5,6,6],"right_children":[2,4,6,8,10,12,14,-1,-1,-1,-1,-1,-1,-1,-1],"split_conditions":[6.0043E-2,2.5E1,1.51E2,2.025E3,4.632494E0,2.745906E0,1E0,-7.266468E-3,3.3367567E-3,-2.125826E-2,-1.0087848E-2,-1.1737918E-2,-3.4663433E-4,1.1199908E-2,-6.30971E-4],"split_indices":[36,25,1,5,27,27,9,0,0,0,0,0,0,0,0],"split_type":[0,0,0,0,0,0,0,0,0,0,0,0,0,0,0],"sum_hessian":[2.923024E3,5.0151147E2,2.4215125E3,2.2421292E2,2.7729852E2,1.8365302E3,5.849823E2,1.5555524E2,6.865769E1,1.8694617E2,9.035236E1,6.5718994E1,1.7708112E3,4.6440872E2,1.2057361E2],"tree_param":{"num_deleted":"0","num_feature":"42","num_nodes":"15","size_leaf_vector":"1"}},{"base_weights":[1.0815062E-2,-1.321176E0,1.04033664E-1,-1.371951E0,-9.4609715E-2,-1.0937536E-1,4.750742E-1,-2.1060498E-2,-9.959622E-3,1.5046575E-2,-1.4311881E-2,2.7805115E-3,-4.28091E-3,7.7428874E-3,-1.0569911E-2],"categories":[],"categories_nodes":[],"categories_segments":[],"categories_sizes":[],"default_left":[0,0,0,0,0,0,0,0,0,0,0,0,0,0,0],"id":28,"left_children":[1,3,5,7,9,11,13,-1,-1,-1,-1,-1,-1,-1,-1],"loss_changes":[3.6701483E2,1.0064941E1,2.2013603E2,2.2867737E0,1.3535779E1,9.503215E1,6.081076E1,0E0,0E0,0E0,0E0,0E0,0E0,0E0,0E0],"parents":[2147483647,0,0,1,1,2,2,3,3,4,4,5,5,6,6],"right_children":[2,4,6,8,10,12,14,-1,-1,-1,-1,-1,-1,-1,-1],"split_conditions":[8.542E2,7.51E2,9.2924E-2,1.2E1,3.7E1,5E0,5.6824293E0,-2.1060498E-2,-9.959622E-3,1.5046575E-2,-1.4311881E-2,2.7805115E-3,-4.28091E-3,7.7428874E-3,-1.0569911E-2],"split_indices":[18,24,36,6,34,6,27,0,0,0,0,0,0,0,0],"split_type":[0,0,0,0,0,0,0,0,0,0,0,0,0,0,0],"sum_hessian":[2.961347E3,1.9069019E2,2.7706567E3,1.819431E2,8.747085E0,1.7582076E3,1.0124491E3,1.6457964E2,1.736347E1,3.1001744E0,5.64691E0,6.616746E2,1.096533E3,9.74218E2,3.8231087E1],"tree_param":{"num_deleted":"0","num_feature":"42","num_nodes":"15","size_leaf_vector":"1"}},{"base_weights":[-1.4795443E-2,-5.721271E-1,2.0459653E-1,-1.3085084E0,-3.4898585E-1,6.0334865E-2,5.8910835E-1,-2.0054914E-2,-1.8077475E-3,-6.7809005E-3,1.0104964E-2,-1.8457322E-3,3.892092E-3,9.926699E-3,-3.4075757E-3],"categories":[],"categories_nodes":[],"categories_segments":[],"categories_sizes":[],"default_left":[0,0,0,0,0,0,0,0,0,0,0,0,0,0,0],"id":29,"left_children":[1,3,5,7,9,11,13,-1,-1,-1,-1,-1,-1,-1,-1],"loss_changes":[3.5883557E2,1.3325754E2,1.1578433E2,9.369751E0,7.384325E1,5.8085613E1,4.00558E1,0E0,0E0,0E0,0E0,0E0,0E0,0E0,0E0],"parents":[2147483647,0,0,1,1,2,2,3,3,4,4,5,5,6,6],"right_children":[2,4,6,8,10,12,14,-1,-1,-1,-1,-1,-1,-1,-1],"split_conditions":[6.3617E-2,3.1784E0,3.4904E1,7.5E2,5E0,1E0,6E0,-2.0054914E-2,-1.8077475E-3,-6.7809005E-3,1.0104964E-2,-1.8457322E-3,3.892092E-3,9.926699E-3,-3.4075757E-3],"split_indices":[36,0,0,25,22,26,7,0,0,0,0,0,0,0,0],"split_type":[0,0,0,0,0,0,0,0,0,0,0,0,0,0,0],"sum_hessian":[2.926285E3,8.268207E2,2.0994644E3,1.88204E2,6.386167E2,1.5309597E3,5.685046E2,1.7923735E2,8.966656E0,5.7918774E2,5.942893E1,7.985864E2,7.323732E2,5.1755023E2,5.0954365E1],"tree_param":{"num_deleted":"0","num_feature":"42","num_nodes":"15","size_leaf_vector":"1"}},{"base_weights":[-3.1937533E-3,-1.2415738E0,8.376101E-2,-1.2898895E0,-0E0,-3.3590026E-2,5.421506E-1,-2.1534072E-2,-1.3692104E-2,1.4929149E-2,-1.2592322E-2,-4.294068E-3,3.0828086E-3,9.973707E-3,8.00236E-4],"categories":[],"categories_nodes":[],"categories_segments":[],"categories_sizes":[],"default_left":[0,0,0,0,0,0,0,0,0,0,0,0,0,0,0],"id":30,"left_children":[1,3,5,7,9,11,13,-1,-1,-1,-1,-1,-1,-1,-1],"loss_changes":[3.2245178E2,1.146814E1,1.5048154E2,5.4395447E0,1.093037E1,1.3875233E2,3.629036E1,0E0,0E0,0E0,0E0,0E0,0E0,0E0,0E0],"parents":[2147483647,0,0,1,1,2,2,3,3,4,4,5,5,6,6],"right_children":[2,4,6,8,10,12,14,-1,-1,-1,-1,-1,-1,-1,-1],"split_conditions":[1.1E1,7.51E2,3.4904E1,3.4E1,3.7E1,8.200001E0,1E0,-2.1534072E-2,-1.3692104E-2,1.4929149E-2,-1.2592322E-2,-4.294068E-3,3.0828086E-3,9.973707E-3,8.00236E-4],"split_indices":[1,24,0,35,34,37,9,0,0,0,0,0,0,0,0],"split_type":[0,0,0,0,0,0,0,0,0,0,0,0,0,0,0],"sum_hessian":[2.9773875E3,1.939437E2,2.7834438E3,1.8638997E2,7.553729E0,2.2160667E3,5.673772E2,1.1953208E2,6.685789E1,3.1042256E0,4.4495034E0,1.0769764E3,1.1390901E3,4.4271994E2,1.2465729E2],"tree_param":{"num_deleted":"0","num_feature":"42","num_nodes":"15","size_leaf_vector":"1"}},{"base_weights":[-1.3929787E-2,-1.8928254E-1,6.580035E-1,-9.0386234E-2,-1.2898984E0,7.976246E-1,4.3928932E-2,-2.9208725E-3,4.4983085E-3,-1.9783542E-2,-0E0,1.2226149E-2,-1.7495077E-2,4.6878033E-3,-1.10517545E-2],"categories":[],"categories_nodes":[],"categories_segments":[],"categories_sizes":[],"default_left":[0,0,0,0,0,0,0,0,0,0,0,0,0,0,0],"id":31,"left_children":[1,3,5,7,9,11,13,-1,-1,-1,-1,-1,-1,-1,-1],"loss_changes":[3.4546432E2,2.5175916E2,5.0963013E1,9.10759E1,1.1108917E1,3.2352448E1,2.5429716E1,0E0,0E0,0E0,0E0,0E0,0E0,0E0,0E0],"parents":[2147483647,0,0,1,1,2,2,3,3,4,4,5,5,6,6],"right_children":[2,4,6,8,10,12,14,-1,-1,-1,-1,-1,-1,-1,-1],"split_conditions":[7E0,6E0,1E0,8E-1,7.5E2,1.4E1,1E0,-2.9208725E-3,4.4983085E-3,-1.9783542E-2,-0E0,1.2226149E-2,-1.7495077E-2,4.6878033E-3,-1.10517545E-2],"split_indices":[20,20,9,38,25,28,14,0,0,0,0,0,0,0,0],"split_type":[0,0,0,0,0,0,0,0,0,0,0,0,0,0,0],"sum_hessian":[2.9311455E3,2.3273057E3,6.038397E2,2.138914E3,1.8839159E2,4.898709E2,1.1396882E2,1.6845759E3,4.5433826E2,1.8036479E2,8.0267935E0,4.843761E2,5.4948106E0,8.691243E1,2.7056389E1],"tree_param":{"num_deleted":"0","num_feature":"42","num_nodes":"15","size_leaf_vector":"1"}},{"base_weights":[4.0586926E-2,-1.3408642E0,1.3245672E-1,-1.3952996E0,-0E0,2.1895005E-3,6.053794E-1,-2.1519499E-2,-1.0290183E-2,1.3153352E-2,-1.286731E-2,3.0496651E-3,-1.6794401E-3,1.0945656E-2,6.0611137E-4],"categories":[],"categories_nodes":[],"categories_segments":[],"categories_sizes":[],"default_left":[0,0,0,0,0,0,0,0,0,0,0,0,0,0,0],"id":32,"left_children":[1,3,5,7,9,11,13,-1,-1,-1,-1,-1,-1,-1,-1],"loss_changes":[3.7998776E2,1.2175629E1,1.7286688E2,2.8363953E0,1.0220224E1,5.2662666E1,4.5735367E1,0E0,0E0,0E0,0E0,0E0,0E0,0E0,0E0],"parents":[2147483647,0,0,1,1,2,2,3,3,4,4,5,5,6,6],"right_children":[2,4,6,8,10,12,14,-1,-1,-1,-1,-1,-1,-1,-1],"split_conditions":[1.1E1,7.51E2,1.51E2,1E0,3.7E1,5E0,1E0,-2.1519499E-2,-1.0290183E-2,1.3153352E-2,-1.286731E-2,3.0496651E-3,-1.6794401E-3,1.0945656E-2,6.0611137E-4],"split_indices":[1,24,1,10,34,6,9,0,0,0,0,0,0,0,0],"split_type":[0,0,0,0,0,0,0,0,0,0,0,0,0,0,0],"sum_hessian":[2.9985144E3,1.8403296E2,2.8144814E3,1.7601051E2,8.022446E0,2.2105347E3,6.0394684E2,1.5738054E2,1.8629976E1,3.3515413E0,4.6709046E0,8.028799E2,1.4076548E3,4.8412982E2,1.1981704E2],"tree_param":{"num_deleted":"0","num_feature":"42","num_nodes":"15","size_leaf_vector":"1"}},{"base_weights":[1.3620692E-3,-1.2697712E0,8.840197E-2,-1.3742445E0,-5.987753E-1,-1.1297249E-1,4.3794206E-1,-1.0163176E-3,-2.1338867E-2,1.5529631E-2,-1.925562E-2,-4.9784174E-3,1.7256081E-3,4.548262E-3,1.3008745E-2],"categories":[],"categories_nodes":[],"categories_segments":[],"categories_sizes":[],"default_left":[0,0,0,0,0,0,0,0,0,0,0,0,0,0,0],"id":33,"left_children":[1,3,5,7,9,11,13,-1,-1,-1,-1,-1,-1,-1,-1],"loss_changes":[3.2647775E2,8.930695E0,1.9572395E2,1.3082062E1,4.051889E1,9.114978E1,5.646147E1,0E0,0E0,0E0,0E0,0E0,0E0,0E0,0E0],"parents":[2147483647,0,0,1,1,2,2,3,3,4,4,5,5,6,6],"right_children":[2,4,6,8,10,12,14,-1,-1,-1,-1,-1,-1,-1,-1],"split_conditions":[1.1E1,7E1,9.2379E0,1.4E1,7.2E1,8.68E0,2.025E3,-1.0163176E-3,-2.1338867E-2,1.5529631E-2,-1.925562E-2,-4.9784174E-3,1.7256081E-3,4.548262E-3,1.3008745E-2],"split_indices":[1,35,4,25,35,37,5,0,0,0,0,0,0,0,0],"split_type":[0,0,0,0,0,0,0,0,0,0,0,0,0,0,0],"sum_hessian":[2.9575598E3,1.8647334E2,2.7710864E3,1.5757587E2,2.8897474E1,1.7572577E3,1.01382874E3,9.299249E0,1.4827661E2,7.804647E0,2.1092829E1,8.9111615E2,8.6614154E2,7.898076E2,2.2402109E2],"tree_param":{"num_deleted":"0","num_feature":"42","num_nodes":"15","size_leaf_vector":"1"}},{"base_weights":[-5.8910176E-3,-8.131905E-1,1.5100205E-1,-1.0338111E0,-1.2031999E-2,-1.13791535E-2,6.270838E-1,-1.5990559E-2,1.2835034E-2,-2.2923099E-2,4.4430275E-3,-1.3266732E-3,8.130517E-3,9.797652E-3,-2.0500895E-2],"categories":[],"categories_nodes":[],"categories_segments":[],"categories_sizes":[],"default_left":[0,0,0,0,0,0,0,0,0,0,0,0,0,0,0],"id":34,"left_children":[1,3,5,7,9,11,13,-1,-1,-1,-1,-1,-1,-1,-1],"loss_changes":[3.7249582E2,8.3420654E1,1.9060274E2,3.8197266E1,5.428419E1,8.054105E1,4.8190186E1,0E0,0E0,0E0,0E0,0E0,0E0,0E0,0E0],"parents":[2147483647,0,0,1,1,2,2,3,3,4,4,5,5,6,6],"right_children":[2,4,6,8,10,12,14,-1,-1,-1,-1,-1,-1,-1,-1],"split_conditions":[1.656E3,1E0,1.51E2,2.15E1,3.473111E0,2.8E0,1.4E1,-1.5990559E-2,1.2835034E-2,-2.2923099E-2,4.4430275E-3,-1.3266732E-3,8.130517E-3,9.797652E-3,-2.0500895E-2],"split_indices":[18,21,1,26,27,38,28,0,0,0,0,0,0,0,0],"split_type":[0,0,0,0,0,0,0,0,0,0,0,0,0,0,0],"sum_hessian":[2.9300095E3,4.7617465E2,2.453835E3,3.71681E2,1.0449365E2,1.8298739E3,6.239611E2,3.638449E2,7.836071E0,1.6522251E1,8.7971405E1,1.6093046E3,2.2056927E2,6.149869E2,8.974234E0],"tree_param":{"num_deleted":"0","num_feature":"42","num_nodes":"15","size_leaf_vector":"1"}},{"base_weights":[3.0033184E-2,1.3661698E-1,-1.0974847E0,-2.1016916E-2,6.643685E-1,-1.3667172E0,-6.902091E-1,-2.2213452E-3,3.326699E-3,1.023831E-2,-1.9059086E-2,-2.1327225E-2,-5.9188143E-3,3.5446787E-3,-1.407282E-2],"categories":[],"categories_nodes":[],"categories_segments":[],"categories_sizes":[],"default_left":[0,0,0,0,0,0,0,0,0,0,0,0,0,0,0],"id":35,"left_children":[1,3,5,7,9,11,13,-1,-1,-1,-1,-1,-1,-1,-1],"loss_changes":[3.6194952E2,2.3037476E2,2.378299E1,6.787942E1,3.8348663E1,8.004974E0,2.8435452E1,0E0,0E0,0E0,0E0,0E0,0E0,0E0,0E0],"parents":[2147483647,0,0,1,1,2,2,3,3,4,4,5,5,6,6],"right_children":[2,4,6,8,10,12,14,-1,-1,-1,-1,-1,-1,-1,-1],"split_conditions":[4.9E1,3.4904E1,4.4877E0,1.7000002E0,6.1326995E0,1E0,3.400945E0,-2.2213452E-3,3.326699E-3,1.023831E-2,-1.9059086E-2,-2.1327225E-2,-5.9188143E-3,3.5446787E-3,-1.407282E-2],"split_indices":[24,0,0,26,27,11,29,0,0,0,0,0,0,0,0],"split_type":[0,0,0,0,0,0,0,0,0,0,0,0,0,0,0],"sum_hessian":[3.0149868E3,2.7575686E3,2.5741815E2,2.1236226E3,6.33946E2,1.4966951E2,1.07748634E2,1.39569E3,7.279327E2,6.267319E2,7.214089E0,1.3614691E2,1.35226E1,2.2895863E1,8.485277E1],"tree_param":{"num_deleted":"0","num_feature":"42","num_nodes":"15","size_leaf_vector":"1"}},{"base_weights":[-1.6170908E-3,-1.8389896E-2,8.35237E-2,-5.4895174E-2,5.864136E-1,-1.9471841E-3,7.417884E-3,1.04295155E-2,1.7467596E-3],"categories":[],"categories_nodes":[],"categories_segments":[],"categories_sizes":[],"default_left":[0,0,0,0,0,0,0,0,0],"id":36,"left_children":[1,-1,3,5,7,-1,-1,-1,-1],"loss_changes":[3.1359207E2,0E0,1.9262268E2,9.270283E1,3.2511353E1,0E0,0E0,0E0,0E0],"parents":[2147483647,0,0,2,2,3,3,4,4],"right_children":[2,-1,4,6,8,-1,-1,-1,-1],"split_conditions":[1.008E3,-1.8389896E-2,3.4904E1,2.8E0,1E0,-1.9471841E-3,7.417884E-3,1.04295155E-2,1.7467596E-3],"split_indices":[19,0,0,38,9,0,0,0,0],"split_type":[0,0,0,0,0,0,0,0,0],"sum_hessian":[2.941842E3,1.869413E2,2.7549006E3,2.160347E3,5.945539E2,1.9015105E3,2.5883633E2,4.6996304E2,1.2459087E2],"tree_param":{"num_deleted":"0","num_feature":"42","num_nodes":"9","size_leaf_vector":"1"}},{"base_weights":[1.9273318E-2,-3.9142358E-1,2.902765E-1,-2.3197152E-1,-1.23299E0,6.8475686E-2,4.9756032E-1,-9.2268055E-3,-9.347306E-4,-1.8952414E-2,-0E0,-2.28945E-3,6.9109113E-3,9.11156E-3,2.0529127E-3],"categories":[],"categories_nodes":[],"categories_segments":[],"categories_sizes":[],"default_left":[0,0,0,0,0,0,0,0,0,0,0,0,0,0,0],"id":37,"left_children":[1,3,5,7,9,11,13,-1,-1,-1,-1,-1,-1,-1,-1],"loss_changes":[3.3033517E2,1.5579762E2,8.1587234E1,6.513846E1,1.0680847E1,7.837417E1,3.8585052E1,0E0,0E0,0E0,0E0,0E0,0E0,0E0,0E0],"parents":[2147483647,0,0,1,1,2,2,3,3,4,4,5,5,6,6],"right_children":[2,4,6,8,10,12,14,-1,-1,-1,-1,-1,-1,-1,-1],"split_conditions":[6.5046E-2,6E0,8.200001E0,1.96E0,7.51E2,1.2E1,2.4E1,-9.2268055E-3,-9.347306E-4,-1.8952414E-2,-0E0,-2.28945E-3,6.9109113E-3,9.11156E-3,2.0529127E-3],"split_indices":[36,20,37,37,24,2,34,0,0,0,0,0,0,0,0],"split_type":[0,0,0,0,0,0,0,0,0,0,0,0,0,0,0],"sum_hessian":[2.9637764E3,1.1761277E3,1.7876486E3,9.926599E2,1.8346776E2,8.678409E2,9.198077E2,2.9378592E2,6.98874E2,1.753449E2,8.122863E0,5.557961E2,3.1204483E2,6.854738E2,2.3433388E2],"tree_param":{"num_deleted":"0","num_feature":"42","num_nodes":"15","size_leaf_vector":"1"}},{"base_weights":[2.5367647E-2,-1.2796832E0,1.08999535E-1,-4.9121422E-1,-1.3349084E0,2.7513814E-3,6.259234E-1,-1.7014164E-2,1.7222911E-2,-2.0746414E-2,-5.773953E-3,-2.736271E-3,2.9912482E-3,5.404344E-3,1.4792354E-2],"categories":[],"categories_nodes":[],"categories_segments":[],"categories_sizes":[],"default_left":[0,0,0,0,0,0,0,0,0,0,0,0,0,0,0],"id":38,"left_children":[1,3,5,7,9,11,13,-1,-1,-1,-1,-1,-1,-1,-1],"loss_changes":[3.2362656E2,4.0447693E0,1.5296072E2,2.219978E1,7.575348E0,8.761837E1,4.39944E1,0E0,0E0,0E0,0E0,0E0,0E0,0E0,0E0],"parents":[2147483647,0,0,1,1,2,2,3,3,4,4,5,5,6,6],"right_children":[2,4,6,8,10,12,14,-1,-1,-1,-1,-1,-1,-1,-1],"split_conditions":[8.542E2,1.4E1,2E0,1.3E1,3.4E2,8.370001E0,5E-1,-1.7014164E-2,1.7222911E-2,-2.0746414E-2,-5.773953E-3,-2.736271E-3,2.9912482E-3,5.404344E-3,1.4792354E-2],"split_indices":[18,25,21,25,8,37,38,0,0,0,0,0,0,0,0],"split_type":[0,0,0,0,0,0,0,0,0,0,0,0,0,0,0],"sum_hessian":[2.9712434E3,1.759176E2,2.7953257E3,1.4506209E1,1.6141139E2,2.3226738E3,4.7265182E2,1.1410498E1,3.0957122E0,1.478307E2,1.3580701E1,1.1937938E3,1.12888E3,2.8450482E2,1.88147E2],"tree_param":{"num_deleted":"0","num_feature":"42","num_nodes":"15","size_leaf_vector":"1"}},{"base_weights":[7.150788E-2,-4.876751E-1,2.8307167E-1,-1.2162207E0,-2.7309498E-1,1.5592606E-1,6.020684E-1,-1.9549774E-2,-6.9667622E-3,-2.6289455E-3,-2.1796405E-2,-6.1686337E-4,5.2285935E-3,9.440637E-3,-2.0361148E-2],"categories":[],"categories_nodes":[],"categories_segments":[],"categories_sizes":[],"default_left":[0,0,0,0,0,0,0,0,0,0,0,0,0,0,0],"id":39,"left_children":[1,3,5,7,9,11,13,-1,-1,-1,-1,-1,-1,-1,-1],"loss_changes":[3.544739E2,1.25934845E2,8.7174866E1,1.1343231E1,7.053926E1,6.1667286E1,4.7563248E1,0E0,0E0,0E0,0E0,0E0,0E0,0E0,0E0],"parents":[2147483647,0,0,1,1,2,2,3,3,4,4,5,5,6,6],"right_children":[2,4,6,8,10,12,14,-1,-1,-1,-1,-1,-1,-1,-1],"split_conditions":[6.3617E-2,1.1E1,1.51E2,7E1,1.28E1,8.48E0,1.4E1,-1.9549774E-2,-6.9667622E-3,-2.6289455E-3,-2.1796405E-2,-6.1686337E-4,5.2285935E-3,9.440637E-3,-2.0361148E-2],"split_indices":[36,1,1,35,28,37,28,0,0,0,0,0,0,0,0],"split_type":[0,0,0,0,0,0,0,0,0,0,0,0,0,0,0],"sum_hessian":[2.9926753E3,8.1909424E2,2.173581E3,1.8244136E2,6.366529E2,1.5593785E3,6.142024E2,1.5612875E2,2.6312609E1,5.9372565E2,4.2927223E1,7.792387E2,7.8013983E2,6.0499426E2,9.208119E0],"tree_param":{"num_deleted":"0","num_feature":"42","num_nodes":"15","size_leaf_vector":"1"}},{"base_weights":[-5.219541E-3,-2.2924516E-1,3.9952683E-1,-1.1392636E0,-1.3058923E-1,3.0238292E-1,1.0013174E0,-2.0228585E-2,-1.0659879E-2,1.9636312E-3,-4.0669683E-3,5.1010754E-3,-1.4619629E-2,1.744045E-2,8.249427E-3],"categories":[],"categories_nodes":[],"categories_segments":[],"categories_sizes":[],"default_left":[0,0,0,0,0,0,0,0,0,0,0,0,0,0,0],"id":40,"left_children":[1,3,5,7,9,11,13,-1,-1,-1,-1,-1,-1,-1,-1],"loss_changes":[2.6545148E2,1.6766368E2,5.8682938E1,1.2798965E1,6.5527E1,5.071685E1,7.7074127E0,0E0,0E0,0E0,0E0,0E0,0E0,0E0,0E0],"parents":[2147483647,0,0,1,1,2,2,3,3,4,4,5,5,6,6],"right_children":[2,4,6,8,10,12,14,-1,-1,-1,-1,-1,-1,-1,-1],"split_conditions":[9.2379E0,4.4317E-2,3E0,3.4E1,1.14E2,1.36E1,1.29E2,-2.0228585E-2,-1.0659879E-2,1.9636312E-3,-4.0669683E-3,5.1010754E-3,-1.4619629E-2,1.744045E-2,8.249427E-3],"split_indices":[4,36,21,35,8,28,8,0,0,0,0,0,0,0,0],"split_type":[0,0,0,0,0,0,0,0,0,0,0,0,0,0,0],"sum_hessian":[2.9244702E3,1.8850028E3,1.0394673E3,1.8060352E2,1.7043993E3,8.9992236E2,1.3954494E2,1.10582275E2,7.002124E1,6.021689E2,1.1022305E3,8.7341547E2,2.650693E1,9.422831E1,4.531663E1],"tree_param":{"num_deleted":"0","num_feature":"42","num_nodes":"15","size_leaf_vector":"1"}},{"base_weights":[-1.0195069E-2,-1.1934899E0,6.693492E-2,-1.3066225E0,-5.0861907E-1,-4.6422478E-2,4.9588954E-1,-2.0403273E-2,-5.896085E-3,-1.1859403E-2,7.990652E-3,-1.494868E-3,5.754748E-3,8.056356E-3,-1.5914503E-2],"categories":[],"categories_nodes":[],"categories_segments":[],"categories_sizes":[],"default_left":[0,0,0,0,0,0,0,0,0,0,0,0,0,0,0],"id":41,"left_children":[1,3,5,7,9,11,13,-1,-1,-1,-1,-1,-1,-1,-1],"loss_changes":[2.6756332E2,1.0165054E1,1.337328E2,7.0088806E0,1.1037439E1,5.167537E1,4.6248917E1,0E0,0E0,0E0,0E0,0E0,0E0,0E0,0E0],"parents":[2147483647,0,0,1,1,2,2,3,3,4,4,5,5,6,6],"right_children":[2,4,6,8,10,12,14,-1,-1,-1,-1,-1,-1,-1,-1],"split_conditions":[1.1E1,9.749279E-1,3.4904E1,3.4E2,1E0,2.8E0,5.6824293E0,-2.0403273E-2,-5.896085E-3,-1.1859403E-2,7.990652E-3,-1.494868E-3,5.754748E-3,8.056356E-3,-1.5914503E-2],"split_indices":[1,12,0,8,10,38,27,0,0,0,0,0,0,0,0],"split_type":[0,0,0,0,0,0,0,0,0,0,0,0,0,0,0],"sum_hessian":[2.9130288E3,1.7686319E2,2.7361655E3,1.4838374E2,2.8479445E1,2.163994E3,5.7217175E2,1.3451512E2,1.3868618E1,2.3533783E1,4.9456615E0,1.9262788E3,2.3771513E2,5.568469E2,1.5324791E1],"tree_param":{"num_deleted":"0","num_feature":"42","num_nodes":"15","size_leaf_vector":"1"}},{"base_weights":[-6.755364E-3,-1.119753E0,6.61848E-2,-1.998352E-2,-7.187041E-1,-1.1378842E-1,3.759494E-1,1.0660433E-2,-1.2560696E-2,-3.445781E-3,4.700887E-3,3.176354E-3,9.324079E-3],"categories":[],"categories_nodes":[],"categories_segments":[],"categories_sizes":[],"default_left":[0,0,0,0,0,0,0,0,0,0,0,0,0],"id":42,"left_children":[1,3,5,-1,7,9,11,-1,-1,-1,-1,-1,-1],"loss_changes":[2.3759163E2,1.2114334E1,1.5272858E2,0E0,1.5801842E1,8.954905E1,4.011815E1,0E0,0E0,0E0,0E0,0E0,0E0],"parents":[2147483647,0,0,1,1,2,2,4,4,5,5,6,6],"right_children":[2,4,6,-1,8,10,12,-1,-1,-1,-1,-1,-1],"split_conditions":[4.4317E-2,3.4E1,9.2379E0,-1.998352E-2,3.5E1,8E-1,1.7E0,1.0660433E-2,-1.2560696E-2,-3.445781E-3,4.700887E-3,3.176354E-3,9.324079E-3],"split_indices":[36,35,4,0,35,38,26,0,0,0,0,0,0],"split_type":[0,0,0,0,0,0,0,0,0,0,0,0,0],"sum_hessian":[2.9072317E3,1.7747472E2,2.729757E3,1.06366394E2,7.110832E1,1.725353E3,1.00440405E3,4.31383E0,6.6794495E1,1.3541299E3,3.712231E2,6.2261584E2,3.8178818E2],"tree_param":{"num_deleted":"0","num_feature":"42","num_nodes":"13","size_leaf_vector":"1"}},{"base_weights":[-8.87713E-3,-1.1789272E0,6.835253E-2,-8.482297E-1,-2.0054476E-2,-4.517021E-2,4.9195164E-1,-1.6962646E-2,1.1357457E-2,-3.2730766E-3,1.9340835E-3,3.6733635E-3,1.132558E-2],"categories":[],"categories_nodes":[],"categories_segments":[],"categories_sizes":[],"default_left":[0,0,0,0,0,0,0,0,0,0,0,0,0],"id":43,"left_children":[1,3,5,7,-1,9,11,-1,-1,-1,-1,-1,-1],"loss_changes":[2.648692E2,5.3829193E0,1.3213487E2,3.8322506E1,0E0,6.736624E1,3.725551E1,0E0,0E0,0E0,0E0,0E0,0E0],"parents":[2147483647,0,0,1,1,2,2,3,3,5,5,6,6],"right_children":[2,4,6,8,-1,10,12,-1,-1,-1,-1,-1,-1],"split_conditions":[3.7855583E1,1.01E2,3.4904E1,9E1,-2.0054476E-2,8.370001E0,1.6333E0,-1.6962646E-2,1.1357457E-2,-3.2730766E-3,1.9340835E-3,3.6733635E-3,1.132558E-2],"split_indices":[39,25,0,25,0,37,23,0,0,0,0,0,0],"split_type":[0,0,0,0,0,0,0,0,0,0,0,0,0],"sum_hessian":[2.912591E3,1.789631E2,2.733628E3,7.048518E1,1.0847792E2,2.1556018E3,5.780262E2,6.0628906E1,9.856278E0,1.0793997E3,1.076202E3,3.119261E2,2.6610007E2],"tree_param":{"num_deleted":"0","num_feature":"42","num_nodes":"13","size_leaf_vector":"1"}},{"base_weights":[-1.3379473E-2,-1.9223157E-2,6.793879E-2,-1.162192E-1,3.8702393E-1,6.539322E-4,-5.451332E-3,3.4814912E-3,1.2567444E-2],"categories":[],"categories_nodes":[],"categories_segments":[],"categories_sizes":[],"default_left":[0,0,0,0,0,0,0,0,0],"id":44,"left_children":[1,-1,3,5,7,-1,-1,-1,-1],"loss_changes":[3.0818326E2,0E0,1.6213884E2,7.133124E1,6.9169815E1,0E0,0E0,0E0,0E0],"parents":[2147483647,0,0,2,2,3,3,4,4],"right_children":[2,-1,4,6,8,-1,-1,-1,-1],"split_conditions":[4.4317E-2,-1.9223157E-2,9.2379E0,4E0,2.025E3,6.539322E-4,-5.451332E-3,3.4814912E-3,1.2567444E-2],"split_indices":[36,0,4,7,5,0,0,0,0],"split_type":[0,0,0,0,0,0,0,0,0],"sum_hessian":[2.9213855E3,1.7183421E2,2.7495513E3,1.7421941E3,1.00735724E3,1.0648274E3,6.773667E2,7.649341E2,2.4242314E2],"tree_param":{"num_deleted":"0","num_feature":"42","num_nodes":"9","size_leaf_vector":"1"}},{"base_weights":[1.2015159E-2,-5.103919E-1,2.1015927E-1,-4.999861E-3,-8.6380035E-1,9.979247E-2,5.0995266E-1,-3.3361788E-3,7.5265514E-3,-2.2506898E-3,-1.4117867E-2,-1.4588995E-3,4.3146573E-3,1.0317167E-2,1.6824563E-3],"categories":[],"categories_nodes":[],"categories_segments":[],"categories_sizes":[],"default_left":[0,0,0,0,0,0,0,0,0,0,0,0,0,0,0],"id":45,"left_children":[1,3,5,7,9,11,13,-1,-1,-1,-1,-1,-1,-1,-1],"loss_changes":[3.0334457E2,1.428399E2,6.961281E1,3.8158367E1,2.9633728E1,6.004659E1,4.1549072E1,0E0,0E0,0E0,0E0,0E0,0E0,0E0,0E0],"parents":[2147483647,0,0,1,1,2,2,3,3,4,4,5,5,6,6],"right_children":[2,4,6,8,10,12,14,-1,-1,-1,-1,-1,-1,-1,-1],"split_conditions":[6.3617E-2,1.2E1,1.51E2,2.8E0,3.4E1,9E-1,4E0,-3.3361788E-3,7.5265514E-3,-2.2506898E-3,-1.4117867E-2,-1.4588995E-3,4.3146573E-3,1.0317167E-2,1.6824563E-3],"split_indices":[36,25,1,26,8,26,7,0,0,0,0,0,0,0,0],"split_type":[0,0,0,0,0,0,0,0,0,0,0,0,0,0,0],"sum_hessian":[2.9285222E3,8.0264795E2,2.1258743E3,3.3267566E2,4.699723E2,1.5590702E3,5.66804E2,2.3529065E2,9.738502E1,5.6502533E1,4.1346976E2,7.6524615E2,7.938241E2,3.8025977E2,1.8654425E2],"tree_param":{"num_deleted":"0","num_feature":"42","num_nodes":"15","size_leaf_vector":"1"}},{"base_weights":[-1.5514641E-2,-1.216314E0,5.848642E-2,-4.423659E-1,-1.2735621E0,-6.2347338E-2,5.0787646E-1,-1.621222E-2,1.5336138E-2,-1.9835921E-2,-8.719359E-3,-4.0118992E-3,2.2250868E-3,5.036659E-3,1.4325492E-2],"categories":[],"categories_nodes":[],"categories_segments":[],"categories_sizes":[],"default_left":[0,0,0,0,0,0,0,0,0,0,0,0,0,0,0],"id":46,"left_children":[1,3,5,7,9,11,13,-1,-1,-1,-1,-1,-1,-1,-1],"loss_changes":[2.6024152E2,4.1672516E0,1.4961407E2,1.9540466E1,3.306305E0,9.6858635E1,4.269684E1,0E0,0E0,0E0,0E0,0E0,0E0,0E0,0E0],"parents":[2147483647,0,0,1,1,2,2,3,3,4,4,5,5,6,6],"right_children":[2,4,6,8,10,12,14,-1,-1,-1,-1,-1,-1,-1,-1],"split_conditions":[8.542E2,1.4E1,3.5E1,1.3E1,7E1,8.68E0,2.025E3,-1.621222E-2,1.5336138E-2,-1.9835921E-2,-8.719359E-3,-4.0118992E-3,2.2250868E-3,5.036659E-3,1.4325492E-2],"split_indices":[18,25,2,25,35,37,5,0,0,0,0,0,0,0,0],"split_type":[0,0,0,0,0,0,0,0,0,0,0,0,0,0,0],"sum_hessian":[2.9094722E3,1.6745999E2,2.7420122E3,1.4424875E1,1.5303513E2,2.1607544E3,5.8125775E2,1.0980198E1,3.4446778E0,1.3492558E2,1.8109535E1,1.0918673E3,1.0688871E3,4.3254483E2,1.4871295E2],"tree_param":{"num_deleted":"0","num_feature":"42","num_nodes":"15","size_leaf_vector":"1"}},{"base_weights":[3.050463E-2,-2.4736346E-1,3.2822987E-1,-1.0703869E0,-1.4460413E-1,2.0134404E-1,7.1754414E-1,-1.945085E-2,-9.661896E-3,1.6570349E-3,-5.7432465E-3,2.3913342E-3,1.4262211E-2,1.3978295E-2,5.4401797E-3],"categories":[],"categories_nodes":[],"categories_segments":[],"categories_sizes":[],"default_left":[0,0,0,0,0,0,0,0,0,0,0,0,0,0,0],"id":47,"left_children":[1,3,5,7,9,11,13,-1,-1,-1,-1,-1,-1,-1,-1],"loss_changes":[2.478921E2,1.2912854E2,7.012331E1,1.3099304E1,8.7142944E1,3.1333042E1,2.5904633E1,0E0,0E0,0E0,0E0,0E0,0E0,0E0,0E0],"parents":[2147483647,0,0,1,1,2,2,3,3,4,4,5,5,6,6],"right_children":[2,4,6,8,10,12,14,-1,-1,-1,-1,-1,-1,-1,-1],"split_conditions":[7.4339E-2,3.1784E0,2E0,3.4E1,3E0,8.100001E0,1.51E2,-1.945085E-2,-9.661896E-3,1.6570349E-3,-5.7432465E-3,2.3913342E-3,1.4262211E-2,1.3978295E-2,5.4401797E-3],"split_indices":[36,0,21,35,7,38,8,0,0,0,0,0,0,0,0],"split_type":[0,0,0,0,0,0,0,0,0,0,0,0,0,0,0],"sum_hessian":[2.9902642E3,1.544998E3,1.4452661E3,1.6759264E2,1.3774054E3,1.0951185E3,3.501475E2,9.980465E1,6.778799E1,6.70286E2,7.071194E2,1.0460006E3,4.9117958E1,2.0651505E2,1.4363245E2],"tree_param":{"num_deleted":"0","num_feature":"42","num_nodes":"15","size_leaf_vector":"1"}},{"base_weights":[3.0454267E-2,-6.5069187E-1,1.5985915E-1,-1.1222517E0,-3.9305508E-1,4.489615E-2,5.3094167E-1,-1.9339805E-2,-1.1356888E-2,-7.041756E-3,1.4430205E-2,-9.5444807E-4,6.291739E-3,9.746301E-3,-0E0],"categories":[],"categories_nodes":[],"categories_segments":[],"categories_sizes":[],"default_left":[0,0,0,0,0,0,0,0,0,0,0,0,0,0,0],"id":48,"left_children":[1,3,5,7,9,11,13,-1,-1,-1,-1,-1,-1,-1,-1],"loss_changes":[2.608077E2,5.4519424E1,1.0563286E2,5.9647827E0,3.6500355E1,8.024345E1,3.996501E1,0E0,0E0,0E0,0E0,0E0,0E0,0E0,0E0],"parents":[2147483647,0,0,1,1,2,2,3,3,4,4,5,5,6,6],"right_children":[2,4,6,8,10,12,14,-1,-1,-1,-1,-1,-1,-1,-1],"split_conditions":[1.656E3,3.1784E0,3.4904E1,3.4E1,1.33167E1,8E-1,5E0,-1.9339805E-2,-1.1356888E-2,-7.041756E-3,1.4430205E-2,-9.5444807E-4,6.291739E-3,9.746301E-3,-0E0],"split_indices":[18,0,0,35,23,38,7,0,0,0,0,0,0,0,0],"split_type":[0,0,0,0,0,0,0,0,0,0,0,0,0,0,0],"sum_hessian":[2.959495E3,4.694512E2,2.490044E3,1.6127972E2,3.0817148E2,1.9055818E3,5.8446216E2,9.848794E1,6.2791782E1,2.9269614E2,1.5475363E1,1.479756E3,4.2582578E2,4.683483E2,1.16113846E2],"tree_param":{"num_deleted":"0","num_feature":"42","num_nodes":"15","size_leaf_vector":"1"}},{"base_weights":[2.0862678E-2,-1.0617983E0,8.8185236E-2,-6.0404414E-1,-1.1562065E0,-1.4752798E-3,5.3221136E-1,-1.7910952E-2,1.766116E-2,-1.8116968E-2,-5.981332E-3,2.7223252E-4,-2.0983329E-2,1.1653288E-2,9.2494657E-4],"categories":[],"categories_nodes":[],"categories_segments":[],"categories_sizes":[],"default_left":[0,0,0,0,0,0,0,0,0,0,0,0,0,0,0],"id":49,"left_children":[1,3,5,7,9,11,13,-1,-1,-1,-1,-1,-1,-1,-1],"loss_changes":[2.148491E2,3.6896057E0,1.1164451E2,4.428806E1,4.3198853E0,6.733508E1,5.5840225E1,0E0,0E0,0E0,0E0,0E0,0E0,0E0,0E0],"parents":[2147483647,0,0,1,1,2,2,3,3,4,4,5,5,6,6],"right_children":[2,4,6,8,10,12,14,-1,-1,-1,-1,-1,-1,-1,-1],"split_conditions":[1.1E1,3.19634E0,2E0,3.1649268E0,3.4E2,3.58E2,1.68E2,-1.7910952E-2,1.766116E-2,-1.8116968E-2,-5.981332E-3,2.7223252E-4,-2.0983329E-2,1.1653288E-2,9.2494657E-4],"split_indices":[1,29,21,29,8,8,8,0,0,0,0,0,0,0,0],"split_type":[0,0,0,0,0,0,0,0,0,0,0,0,0,0,0],"sum_hessian":[2.956707E3,1.6989401E2,2.786813E3,3.4328037E1,1.3556598E2,2.3186665E3,4.681464E2,2.6735237E1,7.5927987E0,1.2091568E2,1.46502905E1,2.2883274E3,3.0339045E1,2.996538E2,1.6849261E2],"tree_param":{"num_deleted":"0","num_feature":"42","num_nodes":"15","size_leaf_vector":"1"}},{"base_weights":[-1.0142005E-2,-2.3243256E-1,3.9588964E-1,-1.0951818E-1,-9.055376E-1,3.2323274E-1,8.733121E-1,1.6530618E-3,-3.8019705E-3,-1.610487E-2,-2.591296E-3,9.709463E-3,3.3370268E-3,1.4570832E-2,-2.7645815E-3],"categories":[],"categories_nodes":[],"categories_segments":[],"categories_sizes":[],"default_left":[0,0,0,0,0,0,0,0,0,0,0,0,0,0,0],"id":50,"left_children":[1,3,5,7,9,11,13,-1,-1,-1,-1,-1,-1,-1,-1],"loss_changes":[2.6166443E2,1.5385867E2,3.347931E1,5.2455364E1,3.716829E1,2.7731201E1,1.7327309E1,0E0,0E0,0E0,0E0,0E0,0E0,0E0,0E0],"parents":[2147483647,0,0,1,1,2,2,3,3,4,4,5,5,6,6],"right_children":[2,4,6,8,10,12,14,-1,-1,-1,-1,-1,-1,-1,-1],"split_conditions":[9.2379E0,4E1,3E0,1.27E2,2.9056E3,6E0,2.8E2,1.6530618E-3,-3.8019705E-3,-1.610487E-2,-2.591296E-3,9.709463E-3,3.3370268E-3,1.4570832E-2,-2.7645815E-3],"split_indices":[4,25,21,8,18,34,8,0,0,0,0,0,0,0,0],"split_type":[0,0,0,0,0,0,0,0,0,0,0,0,0,0,0],"sum_hessian":[2.8959238E3,1.8738796E3,1.02204425E3,1.5884661E3,2.8541348E2,8.928265E2,1.2921783E2,6.3376385E2,9.547023E2,2.25245E2,6.01685E1,1.9477646E2,6.9805E2,1.1777266E2,1.14451685E1],"tree_param":{"num_deleted":"0","num_feature":"42","num_nodes":"15","size_leaf_vector":"1"}},{"base_weights":[-5.098362E-3,-1.1208007E0,6.438536E-2,-5.69546E-1,-1.2349174E0,-1.2606926E-1,2.8469595E-1,-1.770134E-2,1.9078126E-2,-1.9440673E-2,-5.5099498E-3,-9.081456E-3,-7.833744E-5,7.4697305E-3,8.0950244E-4],"categories":[],"categories_nodes":[],"categories_segments":[],"categories_sizes":[],"default_left":[0,0,0,0,0,0,0,0,0,0,0,0,0,0,0],"id":51,"left_children":[1,3,5,7,9,11,13,-1,-1,-1,-1,-1,-1,-1,-1],"loss_changes":[2.2464056E2,6.864212E0,1.1409449E2,4.5671112E1,6.5852356E0,8.522894E1,6.352147E1,0E0,0E0,0E0,0E0,0E0,0E0,0E0,0E0],"parents":[2147483647,0,0,1,1,2,2,3,3,4,4,5,5,6,6],"right_children":[2,4,6,8,10,12,14,-1,-1,-1,-1,-1,-1,-1,-1],"split_conditions":[1.1E1,3.19634E0,3E0,3.1649268E0,3.4E2,8E0,1.34E2,-1.770134E-2,1.9078126E-2,-1.9440673E-2,-5.5099498E-3,-9.081456E-3,-7.833744E-5,7.4697305E-3,8.0950244E-4],"split_indices":[1,29,22,29,8,35,8,0,0,0,0,0,0,0,0],"split_type":[0,0,0,0,0,0,0,0,0,0,0,0,0,0,0],"sum_hessian":[2.8775376E3,1.6735806E2,2.7101797E3,3.302747E1,1.3433058E2,1.4514563E3,1.2587234E3,2.5811466E1,7.216006E0,1.2015423E2,1.4176353E1,2.833566E2,1.1680996E3,6.3689465E2,6.218287E2],"tree_param":{"num_deleted":"0","num_feature":"42","num_nodes":"15","size_leaf_vector":"1"}},{"base_weights":[-3.608704E-2,-4.9698606E-1,1.373946E-1,-1.1803643E0,-3.1350026E-1,-2.6995614E-3,4.954473E-1,-1.8322371E-2,-6.4734155E-3,-2.4365417E-3,-1.4110153E-2,-3.0416197E-3,4.512912E-3,5.5124294E-3,1.4361596E-2],"categories":[],"categories_nodes":[],"categories_segments":[],"categories_sizes":[],"default_left":[0,0,0,0,0,0,0,0,0,0,0,0,0,0,0],"id":52,"left_children":[1,3,5,7,9,11,13,-1,-1,-1,-1,-1,-1,-1,-1],"loss_changes":[2.2999686E2,9.605704E1,1.0513328E2,4.1987762E0,5.796419E1,9.413013E1,3.1835754E1,0E0,0E0,0E0,0E0,0E0,0E0,0E0,0E0],"parents":[2147483647,0,0,1,1,2,2,3,3,4,4,5,5,6,6],"right_children":[2,4,6,8,10,12,14,-1,-1,-1,-1,-1,-1,-1,-1],"split_conditions":[6.3617E-2,3.1784E0,3.4904E1,3.4E2,2.6E1,1.5000001E0,3E0,-1.8322371E-2,-6.4734155E-3,-2.4365417E-3,-1.4110153E-2,-3.0416197E-3,4.512912E-3,5.5124294E-3,1.4361596E-2],"split_indices":[36,0,0,8,40,26,21,0,0,0,0,0,0,0,0],"split_type":[0,0,0,0,0,0,0,0,0,0,0,0,0,0,0],"sum_hessian":[2.8666921E3,7.8438947E2,2.0823027E3,1.6177902E2,6.226105E2,1.4962919E3,5.8601086E2,1.4642595E2,1.5353067E1,5.0988065E2,1.12729805E2,9.044373E2,5.918545E2,4.724434E2,1.1356746E2],"tree_param":{"num_deleted":"0","num_feature":"42","num_nodes":"15","size_leaf_vector":"1"}},{"base_weights":[-3.0507449E-2,5.5326503E-2,-9.5019627E-1,-6.2215306E-2,4.737575E-1,-1.1544732E0,-1.5093395E-1,-6.3902275E-3,4.9988186E-4,7.474086E-3,-1.9648531E-2,-1.7738007E-2,4.369907E-4,6.655588E-3,-8.563075E-3],"categories":[],"categories_nodes":[],"categories_segments":[],"categories_sizes":[],"default_left":[0,0,0,0,0,0,0,0,0,0,0,0,0,0,0],"id":53,"left_children":[1,3,5,7,9,11,13,-1,-1,-1,-1,-1,-1,-1,-1],"loss_changes":[2.306498E2,1.3139124E2,3.88201E1,7.450991E1,3.546823E1,1.2521088E1,1.4996432E1,0E0,0E0,0E0,0E0,0E0,0E0,0E0,0E0],"parents":[2147483647,0,0,1,1,2,2,3,3,4,4,5,5,6,6],"right_children":[2,4,6,8,10,12,14,-1,-1,-1,-1,-1,-1,-1,-1],"split_conditions":[4.8E1,3.5E1,2.393E3,8E0,1.4E1,1.5E1,-2.2252093E-1,-6.3902275E-3,4.9988186E-4,7.474086E-3,-1.9648531E-2,-1.7738007E-2,4.369907E-4,6.655588E-3,-8.563075E-3],"split_indices":[25,2,19,35,28,28,13,0,0,0,0,0,0,0,0],"split_type":[0,0,0,0,0,0,0,0,0,0,0,0,0,0,0],"sum_hessian":[2.9048723E3,2.658009E3,2.4686325E2,2.0747222E3,5.83287E2,1.9458861E2,5.227465E1,4.274891E2,1.647233E3,5.753179E2,7.9691577E0,1.8793198E2,6.6566277E0,2.0626888E1,3.1647762E1],"tree_param":{"num_deleted":"0","num_feature":"42","num_nodes":"15","size_leaf_vector":"1"}},{"base_weights":[1.1123625E-3,-4.5789626E-1,1.735168E-1,-1.0290974E0,-2.9882953E-1,6.6788435E-2,4.5664445E-1,-1.8882044E-2,-8.555345E-3,-1.573049E-2,-2.9061635E-3,-1.2894676E-3,3.554666E-3,8.408717E-3,1.1946062E-3],"categories":[],"categories_nodes":[],"categories_segments":[],"categories_sizes":[],"default_left":[0,0,0,0,0,0,0,0,0,0,0,0,0,0,0],"id":54,"left_children":[1,3,5,7,9,11,13,-1,-1,-1,-1,-1,-1,-1,-1],"loss_changes":[2.2850261E2,6.929962E1,6.2907837E1,1.5037888E1,4.661411E1,4.139602E1,2.3510414E1,0E0,0E0,0E0,0E0,0E0,0E0,0E0,0E0],"parents":[2147483647,0,0,1,1,2,2,3,3,4,4,5,5,6,6],"right_children":[2,4,6,8,10,12,14,-1,-1,-1,-1,-1,-1,-1,-1],"split_conditions":[6.3617E-2,1.1E1,1.51E2,3.4E1,-7.818315E-1,4.3388373E-1,1E0,-1.8882044E-2,-8.555345E-3,-1.573049E-2,-2.9061635E-3,-1.2894676E-3,3.554666E-3,8.408717E-3,1.1946062E-3],"split_indices":[36,1,1,35,12,12,9,0,0,0,0,0,0,0,0],"split_type":[0,0,0,0,0,0,0,0,0,0,0,0,0,0,0],"sum_hessian":[2.8863494E3,7.8517194E2,2.1011775E3,1.6642867E2,6.187432E2,1.5311268E3,5.700506E2,1.02196724E2,6.423193E1,6.838855E1,5.503547E2,8.0933386E2,7.217929E2,4.3473718E2,1.3531342E2],"tree_param":{"num_deleted":"0","num_feature":"42","num_nodes":"15","size_leaf_vector":"1"}},{"base_weights":[2.699802E-2,-6.5348303E-1,1.4670345E-1,-1.1846667E-2,-1.0581999E0,3.240979E-1,-1.4954855E-1,2.8931706E-3,-1.3746593E-2,-1.8095924E-2,-3.673895E-3,2.5291818E-3,8.555265E-3,-6.2578428E-3,7.7390653E-4],"categories":[],"categories_nodes":[],"categories_segments":[],"categories_sizes":[],"default_left":[0,0,0,0,0,0,0,0,0,0,0,0,0,0,0],"id":55,"left_children":[1,3,5,7,9,11,13,-1,-1,-1,-1,-1,-1,-1,-1],"loss_changes":[2.400104E2,1.13148056E2,1.3236044E2,3.4572037E1,3.417099E1,6.0385376E1,5.262487E1,0E0,0E0,0E0,0E0,0E0,0E0,0E0,0E0],"parents":[2147483647,0,0,1,1,2,2,3,3,4,4,5,5,6,6],"right_children":[2,4,6,8,10,12,14,-1,-1,-1,-1,-1,-1,-1,-1],"split_conditions":[1.656E3,1.7E1,4E0,2.1E1,9.749279E-1,1.7E0,2.978E3,2.8931706E-3,-1.3746593E-2,-1.8095924E-2,-3.673895E-3,2.5291818E-3,8.555265E-3,-6.2578428E-3,7.7390653E-4],"split_indices":[18,25,7,40,12,26,18,0,0,0,0,0,0,0,0],"split_type":[0,0,0,0,0,0,0,0,0,0,0,0,0,0,0],"sum_hessian":[2.9477957E3,4.3786792E2,2.5099277E3,1.7145425E2,2.6641364E2,1.5720917E3,9.37836E2,1.4050523E2,3.0949026E1,2.1833453E2,4.8079113E1,9.897194E2,5.823722E2,3.9867084E2,5.3916516E2],"tree_param":{"num_deleted":"0","num_feature":"42","num_nodes":"15","size_leaf_vector":"1"}},{"base_weights":[1.6823867E-2,-1.1518629E0,8.370129E-2,-1.9053558E-2,-2.8199723E-1,-9.717745E-2,3.9437565E-1,2.0042656E-2,-1.6612073E-2,4.582842E-4,-4.432022E-3,6.333364E-3,-1.2204012E-2],"categories":[],"categories_nodes":[],"categories_segments":[],"categories_sizes":[],"default_left":[0,0,0,0,0,0,0,0,0,0,0,0,0],"id":56,"left_children":[1,3,5,-1,7,9,11,-1,-1,-1,-1,-1,-1],"loss_changes":[2.2899428E2,1.6526535E1,1.5698834E2,0E0,4.007316E1,4.6197754E1,4.4211563E1,0E0,0E0,0E0,0E0,0E0,0E0],"parents":[2147483647,0,0,1,1,2,2,4,4,5,5,6,6],"right_children":[2,4,6,-1,8,10,12,-1,-1,-1,-1,-1,-1],"split_conditions":[1.1E1,7E1,9.2379E0,-1.9053558E-2,7.2E1,4E0,9.7E1,2.0042656E-2,-1.6612073E-2,4.582842E-4,-4.432022E-3,6.333364E-3,-1.2204012E-2],"split_indices":[1,35,4,0,35,7,34,0,0,0,0,0,0],"split_type":[0,0,0,0,0,0,0,0,0,0,0,0,0],"sum_hessian":[2.9393635E3,1.5593378E2,2.7834297E3,1.3221483E2,2.3718939E1,1.7580479E3,1.0253818E3,7.0740924E0,1.6644848E1,1.0757739E3,6.822739E2,9.994604E2,2.5921478E1],"tree_param":{"num_deleted":"0","num_feature":"42","num_nodes":"13","size_leaf_vector":"1"}},{"base_weights":[-5.8959345E-3,-9.9838024E-1,5.2134607E-2,-1.8588167E-2,-5.6433654E-1,-8.515556E-2,2.976428E-1,-1.7924713E-2,4.0197038E-4,-6.533673E-3,3.0998598E-4,3.175708E-3,1.2094755E-2],"categories":[],"categories_nodes":[],"categories_segments":[],"categories_sizes":[],"default_left":[0,0,0,0,0,0,0,0,0,0,0,0,0],"id":57,"left_children":[1,3,5,-1,7,9,11,-1,-1,-1,-1,-1,-1],"loss_changes":[1.671638E2,1.4325211E1,9.21159E1,0E0,2.701598E1,6.67898E1,4.0575897E1,0E0,0E0,0E0,0E0,0E0,0E0],"parents":[2147483647,0,0,1,1,2,2,4,4,5,5,6,6],"right_children":[2,4,6,-1,8,10,12,-1,-1,-1,-1,-1,-1],"split_conditions":[1.1E1,3.4E1,9.2379E0,-1.8588167E-2,4.3388373E-1,9E0,3E0,-1.7924713E-2,4.0197038E-4,-6.533673E-3,3.0998598E-4,3.175708E-3,1.2094755E-2],"split_indices":[1,35,4,0,12,35,21,0,0,0,0,0,0],"split_type":[0,0,0,0,0,0,0,0,0,0,0,0,0],"sum_hessian":[2.8791882E3,1.5780363E2,2.7213845E3,9.383382E1,6.3969826E1,1.7435261E3,9.778584E2,3.0075888E1,3.3893936E1,3.996325E2,1.3438936E3,8.4950183E2,1.2835657E2],"tree_param":{"num_deleted":"0","num_feature":"42","num_nodes":"13","size_leaf_vector":"1"}},{"base_weights":[3.0468341E-3,-1.0592589E0,6.364047E-2,-1.121405E0,2.6869474E-2,-1.01688005E-1,3.4265986E-1,-1.754543E-2,-5.3756917E-3,-1.0147808E-2,1.5075769E-2,-4.264316E-3,9.978387E-4,-1.924555E-2,5.5203014E-3],"categories":[],"categories_nodes":[],"categories_segments":[],"categories_sizes":[],"default_left":[0,0,0,0,0,0,0,0,0,0,0,0,0,0,0],"id":58,"left_children":[1,3,5,7,9,11,13,-1,-1,-1,-1,-1,-1,-1,-1],"loss_changes":[1.8400641E2,1.1707291E1,1.25904335E2,4.6732483E0,9.212118E0,5.4476807E1,5.2831352E1,0E0,0E0,0E0,0E0,0E0,0E0,0E0,0E0],"parents":[2147483647,0,0,1,1,2,2,3,3,4,4,5,5,6,6],"right_children":[2,4,6,8,10,12,14,-1,-1,-1,-1,-1,-1,-1,-1],"split_conditions":[8.542E2,7.51E2,9.2379E0,3.4E2,2.4E0,8E-1,1.3E1,-1.754543E-2,-5.3756917E-3,-1.0147808E-2,1.5075769E-2,-4.264316E-3,9.978387E-4,-1.924555E-2,5.5203014E-3],"split_indices":[18,24,4,8,26,26,8,0,0,0,0,0,0,0,0],"split_type":[0,0,0,0,0,0,0,0,0,0,0,0,0,0,0],"sum_hessian":[2.8706125E3,1.5161848E2,2.718994E3,1.4430571E2,7.312773E0,1.7058539E3,1.01314014E3,1.2976628E2,1.4539419E1,4.065501E0,3.2472718E0,8.1215717E2,8.936967E2,1.6367096E1,9.96773E2],"tree_param":{"num_deleted":"0","num_feature":"42","num_nodes":"15","size_leaf_vector":"1"}},{"base_weights":[1.6191624E-2,-2.297902E-1,3.2580972E-1,-1.0645133E0,-1.3563626E-1,6.28532E-2,5.308104E-1,-1.0654532E-2,-1.8630998E-2,-1.233525E-3,-1.5295318E-2,-9.777093E-3,4.169653E-3,1.0847365E-2,3.6682307E-3],"categories":[],"categories_nodes":[],"categories_segments":[],"categories_sizes":[],"default_left":[0,0,0,0,0,0,0,0,0,0,0,0,0,0,0],"id":59,"left_children":[1,3,5,7,9,11,13,-1,-1,-1,-1,-1,-1,-1,-1],"loss_changes":[2.2295006E2,1.2628712E2,6.918788E1,6.529251E0,6.7339096E1,9.1497925E1,4.031006E1,0E0,0E0,0E0,0E0,0E0,0E0,0E0,0E0],"parents":[2147483647,0,0,1,1,2,2,3,3,4,4,5,5,6,6],"right_children":[2,4,6,8,10,12,14,-1,-1,-1,-1,-1,-1,-1,-1],"split_conditions":[3E0,1.1E1,5E-1,1.02E2,5.6632586E0,4.52E1,2.1E1,-1.0654532E-2,-1.8630998E-2,-1.233525E-3,-1.5295318E-2,-9.777093E-3,4.169653E-3,1.0847365E-2,3.6682307E-3],"split_indices":[22,1,10,24,27,3,40,0,0,0,0,0,0,0,0],"split_type":[0,0,0,0,0,0,0,0,0,0,0,0,0,0,0],"sum_hessian":[2.9208594E3,1.6260626E3,1.2947968E3,1.6093044E2,1.4651322E3,5.710787E2,7.23718E2,6.5428764E1,9.550166E1,1.388956E3,7.617612E1,1.3037102E2,4.4070767E2,4.1510315E2,3.086149E2],"tree_param":{"num_deleted":"0","num_feature":"42","num_nodes":"15","size_leaf_vector":"1"}},{"base_weights":[-1.0554248E-2,6.715302E-2,-9.495264E-1,-3.1174336E-2,4.345632E-1,-1.1850059E0,-6.126734E-1,1.6527175E-3,-3.7090837E-3,6.8520266E-3,-1.896246E-2,-1.88052E-2,-5.1326435E-3,-1.2925288E-2,1.3928787E-2],"categories":[],"categories_nodes":[],"categories_segments":[],"categories_sizes":[],"default_left":[0,0,0,0,0,0,0,0,0,0,0,0,0,0,0],"id":60,"left_children":[1,3,5,7,9,11,13,-1,-1,-1,-1,-1,-1,-1,-1],"loss_changes":[2.1415034E2,9.793305E1,1.392244E1,6.731488E1,2.9935532E1,6.581955E0,4.2874718E1,0E0,0E0,0E0,0E0,0E0,0E0,0E0,0E0],"parents":[2147483647,0,0,1,1,2,2,3,3,4,4,5,5,6,6],"right_children":[2,4,6,8,10,12,14,-1,-1,-1,-1,-1,-1,-1,-1],"split_conditions":[5.2E1,3.4904E1,4.4877E0,4E0,1.4E1,7E1,1.08E2,1.6527175E-3,-3.7090837E-3,6.8520266E-3,-1.896246E-2,-1.88052E-2,-5.1326435E-3,-1.2925288E-2,1.3928787E-2],"split_indices":[24,0,0,7,28,35,24,0,0,0,0,0,0,0,0],"split_type":[0,0,0,0,0,0,0,0,0,0,0,0,0,0,0],"sum_hessian":[2.9166492E3,2.6948335E3,2.2181581E2,2.125358E3,5.6947546E2,1.2478494E2,9.7030876E1,1.2855947E3,8.397632E2,5.622614E2,7.2140284E0,1.103218E2,1.4463143E1,8.457071E1,1.2460164E1],"tree_param":{"num_deleted":"0","num_feature":"42","num_nodes":"15","size_leaf_vector":"1"}},{"base_weights":[9.252861E-3,-5.983761E-1,1.22815885E-1,-1.0505689E0,-3.5437673E-1,1.5510922E-2,5.8823407E-1,-1.7339438E-2,-4.414586E-3,-1.8467154E-2,-3.5323768E-3,-1.8784766E-3,4.271727E-3,1.1910563E-2,2.5719253E-3],"categories":[],"categories_nodes":[],"categories_segments":[],"categories_sizes":[],"default_left":[0,0,0,0,0,0,0,0,0,0,0,0,0,0,0],"id":61,"left_children":[1,3,5,7,9,11,13,-1,-1,-1,-1,-1,-1,-1,-1],"loss_changes":[1.9974E2,4.7727158E1,1.2149293E2,1.2112656E1,2.864922E1,7.825475E1,3.9904007E1,0E0,0E0,0E0,0E0,0E0,0E0,0E0,0E0],"parents":[2147483647,0,0,1,1,2,2,3,3,4,4,5,5,6,6],"right_children":[2,4,6,8,10,12,14,-1,-1,-1,-1,-1,-1,-1,-1],"split_conditions":[1.05349754E2,8E0,2E0,7E1,3.008935E0,1.7E0,1.68E2,-1.7339438E-2,-4.414586E-3,-1.8467154E-2,-3.5323768E-3,-1.8784766E-3,4.271727E-3,1.1910563E-2,2.5719253E-3],"split_indices":[39,2,21,35,29,26,8,0,0,0,0,0,0,0,0],"split_type":[0,0,0,0,0,0,0,0,0,0,0,0,0,0,0],"sum_hessian":[2.8969817E3,4.5289603E2,2.4440857E3,1.541422E2,2.9875385E2,1.9902756E3,4.5381006E2,1.297079E2,2.4434298E1,2.9945902E1,2.6880792E2,1.3065409E3,6.8373486E2,2.934493E2,1.6036075E2],"tree_param":{"num_deleted":"0","num_feature":"42","num_nodes":"15","size_leaf_vector":"1"}},{"base_weights":[2.2242995E-2,-1.6681094E-1,3.7239745E-1,-1.0447286E0,-8.7646805E-2,2.5877392E-1,7.646963E-1,-1.7229814E-2,-4.9819145E-3,-4.992693E-3,1.0082413E-3,1.0709657E-3,8.515779E-3,1.3888664E-2,2.7478633E-3],"categories":[],"categories_nodes":[],"categories_segments":[],"categories_sizes":[],"default_left":[0,0,0,0,0,0,0,0,0,0,0,0,0,0,0],"id":62,"left_children":[1,3,5,7,9,11,13,-1,-1,-1,-1,-1,-1,-1,-1],"loss_changes":[1.9386153E2,1.3038391E2,4.415155E1,1.0826874E1,6.858397E1,4.6757378E1,2.1498322E1,0E0,0E0,0E0,0E0,0E0,0E0,0E0,0E0],"parents":[2147483647,0,0,1,1,2,2,3,3,4,4,5,5,6,6],"right_children":[2,4,6,8,10,12,14,-1,-1,-1,-1,-1,-1,-1,-1],"split_conditions":[9.2379E0,8.542E2,2.025E3,7E1,0E0,1.6E1,5E1,-1.7229814E-2,-4.9819145E-3,-4.992693E-3,1.0082413E-3,1.0709657E-3,8.515779E-3,1.3888664E-2,2.7478633E-3],"split_indices":[4,18,5,35,12,37,34,0,0,0,0,0,0,0,0],"split_type":[0,0,0,0,0,0,0,0,0,0,0,0,0,0,0],"sum_hessian":[2.9200476E3,1.8950441E3,1.0250035E3,1.5298195E2,1.7420621E3,8.003223E2,2.2468126E2,1.2754968E2,2.5432266E1,6.697224E2,1.0723397E3,5.091787E2,2.9114362E2,1.6942938E2,5.525188E1],"tree_param":{"num_deleted":"0","num_feature":"42","num_nodes":"15","size_leaf_vector":"1"}},{"base_weights":[-8.350521E-3,-1.1066383E0,5.3020466E-2,-2.7355227E-1,-1.726098E-2,-4.224213E-2,5.23878E-1,-1.4520951E-2,1.5112441E-2,-3.187141E-3,2.1664284E-3,4.8450143E-3,1.3100487E-2],"categories":[],"categories_nodes":[],"categories_segments":[],"categories_sizes":[],"default_left":[0,0,0,0,0,0,0,0,0,0,0,0,0],"id":63,"left_children":[1,3,5,7,-1,9,11,-1,-1,-1,-1,-1,-1],"loss_changes":[1.9322234E2,5.546768E0,1.21605194E2,1.6657362E1,0E0,7.388161E1,3.0350891E1,0E0,0E0,0E0,0E0,0E0,0E0],"parents":[2147483647,0,0,1,1,2,2,3,3,5,5,6,6],"right_children":[2,4,6,8,-1,10,12,-1,-1,-1,-1,-1,-1],"split_conditions":[1.1E1,1.4E1,2E0,1.3E1,-1.726098E-2,4.3388373E-1,9E-1,-1.4520951E-2,1.5112441E-2,-3.187141E-3,2.1664284E-3,4.8450143E-3,1.3100487E-2],"split_indices":[1,25,21,25,0,12,38,0,0,0,0,0,0],"split_type":[0,0,0,0,0,0,0,0,0,0,0,0,0],"sum_hessian":[2.8444053E3,1.4917143E2,2.695234E3,1.2722518E1,1.3644891E2,2.2416777E3,4.5355615E2,9.179311E0,3.5432067E0,1.1710231E3,1.0706545E3,3.0022516E2,1.5333101E2],"tree_param":{"num_deleted":"0","num_feature":"42","num_nodes":"13","size_leaf_vector":"1"}},{"base_weights":[1.4913677E-2,-1.100093E0,7.4482836E-2,-1.8426098E-2,-2.4760102E-1,-3.654197E-2,4.7639933E-1,2.0572122E-2,-1.6227951E-2,-1.9937758E-3,5.816806E-3,7.546786E-3,-2.0079214E-2],"categories":[],"categories_nodes":[],"categories_segments":[],"categories_sizes":[],"default_left":[0,0,0,0,0,0,0,0,0,0,0,0,0],"id":64,"left_children":[1,3,5,-1,7,9,11,-1,-1,-1,-1,-1,-1],"loss_changes":[1.9104364E2,1.6008835E1,1.23120316E2,0E0,3.9962135E1,9.125668E1,3.928215E1,0E0,0E0,0E0,0E0,0E0,0E0],"parents":[2147483647,0,0,1,1,2,2,4,4,5,5,6,6],"right_children":[2,4,6,-1,8,10,12,-1,-1,-1,-1,-1,-1],"split_conditions":[1.1E1,7E1,3.4904E1,-1.8426098E-2,7.2E1,1.3000001E0,1.4E1,2.0572122E-2,-1.6227951E-2,-1.9937758E-3,5.816806E-3,7.546786E-3,-2.0079214E-2],"split_indices":[1,35,0,0,35,38,28,0,0,0,0,0,0],"split_type":[0,0,0,0,0,0,0,0,0,0,0,0,0],"sum_hessian":[2.8877798E3,1.43223E2,2.744557E3,1.1982322E2,2.339978E1,2.150163E3,5.9439374E2,6.988227E0,1.6411552E1,1.7532839E3,3.9687927E2,5.8568695E2,8.706786E0],"tree_param":{"num_deleted":"0","num_feature":"42","num_nodes":"13","size_leaf_vector":"1"}},{"base_weights":[3.2117866E-2,-9.483543E-1,8.6526655E-2,-1.7977415E-2,-5.3231657E-1,2.871348E-3,4.1077688E-1,1.7285168E-2,-1.0123211E-2,-2.7638488E-3,2.8981557E-3,6.4561805E-3,-1.8431433E-2],"categories":[],"categories_nodes":[],"categories_segments":[],"categories_sizes":[],"default_left":[0,0,0,0,0,0,0,0,0,0,0,0,0],"id":65,"left_children":[1,3,5,-1,7,9,11,-1,-1,-1,-1,-1,-1],"loss_changes":[1.5596902E2,1.36267395E1,7.512693E1,0E0,1.8984314E1,8.1836235E1,2.576484E1,0E0,0E0,0E0,0E0,0E0,0E0],"parents":[2147483647,0,0,1,1,2,2,4,4,5,5,6,6],"right_children":[2,4,6,-1,8,10,12,-1,-1,-1,-1,-1,-1],"split_conditions":[8.542E2,3.4E1,8.8693E3,-1.7977415E-2,3.5E1,8.370001E0,6.1326995E0,1.7285168E-2,-1.0123211E-2,-2.7638488E-3,2.8981557E-3,6.4561805E-3,-1.8431433E-2],"split_indices":[18,35,18,0,35,37,27,0,0,0,0,0,0],"split_type":[0,0,0,0,0,0,0,0,0,0,0,0,0],"sum_hessian":[2.935204E3,1.5101457E2,2.7841895E3,8.694418E1,6.407039E1,2.217996E3,5.661933E2,3.2906773E0,6.077971E1,1.1158397E3,1.1021565E3,5.597389E2,6.45443E0],"tree_param":{"num_deleted":"0","num_feature":"42","num_nodes":"13","size_leaf_vector":"1"}},{"base_weights":[-2.8889073E-2,-1.0862782E0,2.6343403E-2,-1.8274445E-2,-1.6070971E-1,-4.4612244E-2,4.1022593E-1,2.3052009E-2,-1.5889153E-2,-5.7259784E-3,6.740716E-4,2.1133255E-3,1.0679827E-2],"categories":[],"categories_nodes":[],"categories_segments":[],"categories_sizes":[],"default_left":[0,0,0,0,0,0,0,0,0,0,0,0,0],"id":66,"left_children":[1,3,5,-1,7,9,11,-1,-1,-1,-1,-1,-1],"loss_changes":[1.676784E2,1.8000595E1,7.426185E1,0E0,4.1862274E1,7.1342224E1,3.438041E1,0E0,0E0,0E0,0E0,0E0,0E0],"parents":[2147483647,0,0,1,1,2,2,4,4,5,5,6,6],"right_children":[2,4,6,-1,8,10,12,-1,-1,-1,-1,-1,-1],"split_conditions":[1.1E1,7E1,2E0,-1.8274445E-2,7.2E1,8E0,1E0,2.3052009E-2,-1.5889153E-2,-5.7259784E-3,6.740716E-4,2.1133255E-3,1.0679827E-2],"split_indices":[1,35,21,0,35,35,15,0,0,0,0,0,0],"split_type":[0,0,0,0,0,0,0,0,0,0,0,0,0],"sum_hessian":[2.8469995E3,1.3994646E2,2.7070532E3,1.1840189E2,2.1544569E1,2.2842146E3,4.2283856E2,6.425218E0,1.511935E1,4.7633215E2,1.8078824E3,2.3231761E2,1.9052097E2],"tree_param":{"num_deleted":"0","num_feature":"42","num_nodes":"13","size_leaf_vector":"1"}},{"base_weights":[-0E0,-1.0090888E0,5.469475E-2,-1.071495E0,-0E0,-4.1012723E-2,3.904675E-1,-1.686815E-2,-4.0854737E-3,-1.0577867E-2,1.51830595E-2,-2.5347378E-3,3.0114008E-3,-1.7544716E-3,8.359091E-3],"categories":[],"categories_nodes":[],"categories_segments":[],"categories_sizes":[],"default_left":[0,0,0,0,0,0,0,0,0,0,0,0,0,0,0],"id":67,"left_children":[1,3,5,7,9,11,13,-1,-1,-1,-1,-1,-1,-1,-1],"loss_changes":[1.5961108E2,1.01549835E1,8.827634E1,5.6141357E0,9.911493E0,6.82239E1,5.5293022E1,0E0,0E0,0E0,0E0,0E0,0E0,0E0,0E0],"parents":[2147483647,0,0,1,1,2,2,3,3,4,4,5,5,6,6],"right_children":[2,4,6,8,10,12,14,-1,-1,-1,-1,-1,-1,-1,-1],"split_conditions":[1.1E1,7.5E2,8E-1,3.4E2,2.4E0,1.01967E1,2.024E3,-1.686815E-2,-4.0854737E-3,-1.0577867E-2,1.51830595E-2,-2.5347378E-3,3.0114008E-3,-1.7544716E-3,8.359091E-3],"split_indices":[1,25,38,8,26,0,5,0,0,0,0,0,0,0,0],"split_type":[0,0,0,0,0,0,0,0,0,0,0,0,0,0,0],"sum_hessian":[2.8771086E3,1.4614236E2,2.7309663E3,1.3816849E2,7.9738865E0,2.1243777E3,6.065885E2,1.244139E2,1.3754579E1,4.737988E0,3.2358987E0,1.3887552E3,7.3562244E2,1.5437486E2,4.5221365E2],"tree_param":{"num_deleted":"0","num_feature":"42","num_nodes":"15","size_leaf_vector":"1"}},{"base_weights":[1.6908925E-2,9.2059545E-2,-8.558355E-1,-1.5608998E-1,2.4244285E-1,-2.2765242E-2,-7.200695E-1,-5.056039E-3,4.0796297E-4,2.4141995E-3,1.0326667E-2,-1.644273E-2,-3.1209772E-3],"categories":[],"categories_nodes":[],"categories_segments":[],"categories_sizes":[],"default_left":[0,0,0,0,0,0,0,0,0,0,0,0,0],"id":68,"left_children":[1,3,5,7,9,-1,11,-1,-1,-1,-1,-1,-1],"loss_changes":[1.9052602E2,1.0047504E2,1.6079361E1,3.5091743E1,5.9211266E1,0E0,3.76868E1,0E0,0E0,0E0,0E0,0E0,0E0],"parents":[2147483647,0,0,1,1,2,2,3,3,4,4,6,6],"right_children":[2,4,6,8,10,-1,12,-1,-1,-1,-1,-1,-1],"split_conditions":[4.9E1,0E0,5.9E1,2.978E3,2.6E0,-2.2765242E-2,1.1E1,-5.056039E-3,4.0796297E-4,2.4141995E-3,1.0326667E-2,-1.644273E-2,-3.1209772E-3],"split_indices":[24,12,24,18,38,0,1,0,0,0,0,0,0],"split_type":[0,0,0,0,0,0,0,0,0,0,0,0,0],"sum_hessian":[2.912253E3,2.6846638E3,2.2758905E2,1.01019946E3,1.6744644E3,3.1794575E1,1.9579448E2,5.0316132E2,5.0703815E2,1.4333622E3,2.4110217E2,1.07327194E2,8.846728E1],"tree_param":{"num_deleted":"0","num_feature":"42","num_nodes":"13","size_leaf_vector":"1"}},{"base_weights":[-1.1723744E-2,-3.1912586E-1,1.868043E-1,-6.66382E-1,-1.1162285E-1,-2.9206257E-2,3.8038155E-1,-8.0887815E-3,-1.7322807E-2,4.357802E-3,-5.4110214E-3,-3.1966867E-3,4.6237474E-3,7.5125997E-3,5.1424786E-4],"categories":[],"categories_nodes":[],"categories_segments":[],"categories_sizes":[],"default_left":[0,0,0,0,0,0,0,0,0,0,0,0,0,0,0],"id":69,"left_children":[1,3,5,7,9,11,13,-1,-1,-1,-1,-1,-1,-1,-1],"loss_changes":[1.7485915E2,8.004283E1,7.3066505E1,2.1527771E1,7.4024704E1,5.276493E1,4.02368E1,0E0,0E0,0E0,0E0,0E0,0E0,0E0,0E0],"parents":[2147483647,0,0,1,1,2,2,3,3,4,4,5,5,6,6],"right_children":[2,4,6,8,10,12,14,-1,-1,-1,-1,-1,-1,-1,-1],"split_conditions":[6.5046E-2,0E0,7.42E0,4.8872285E0,1.14E2,1.83703E-1,2.2E1,-8.0887815E-3,-1.7322807E-2,4.357802E-3,-5.4110214E-3,-3.1966867E-3,4.6237474E-3,7.5125997E-3,5.1424786E-4],"split_indices":[36,12,37,27,8,36,34,0,0,0,0,0,0,0,0],"split_type":[0,0,0,0,0,0,0,0,0,0,0,0,0,0,0],"sum_hessian":[2.857719E3,1.1229672E3,1.7347517E3,4.1589377E2,7.070734E2,8.1817755E2,9.165741E2,3.4346573E2,7.2428055E1,2.7059363E2,4.364798E2,5.315442E2,2.8663342E2,6.64518E2,2.5205609E2],"tree_param":{"num_deleted":"0","num_feature":"42","num_nodes":"15","size_leaf_vector":"1"}},{"base_weights":[1.4456263E-2,-1.0707074E0,6.963565E-2,-1.8146547E-2,-2.5527352E-1,-5.6351904E-2,2.9471946E-1,-1.4550494E-2,6.6796783E-3,1.1671981E-3,-3.9888E-3,3.239025E-3,1.1517757E-2],"categories":[],"categories_nodes":[],"categories_segments":[],"categories_sizes":[],"default_left":[0,0,0,0,0,0,0,0,0,0,0,0,0],"id":70,"left_children":[1,3,5,-1,7,9,11,-1,-1,-1,-1,-1,-1],"loss_changes":[1.727875E2,1.5637634E1,7.869257E1,0E0,1.5806659E1,5.1601242E1,3.481938E1,0E0,0E0,0E0,0E0,0E0,0E0],"parents":[2147483647,0,0,1,1,2,2,4,4,5,5,6,6],"right_children":[2,4,6,-1,8,10,12,-1,-1,-1,-1,-1,-1],"split_conditions":[4.4317E-2,9.749279E-1,9.2379E0,-1.8146547E-2,1.001E1,4E0,3E0,-1.4550494E-2,6.6796783E-3,1.1671981E-3,-3.9888E-3,3.239025E-3,1.1517757E-2],"split_indices":[36,12,4,0,37,7,21,0,0,0,0,0,0],"split_type":[0,0,0,0,0,0,0,0,0,0,0,0,0],"sum_hessian":[2.8985066E3,1.3698146E2,2.7615251E3,1.1237918E2,2.460228E1,1.7685662E3,9.92959E2,1.2383641E1,1.2218638E1,1.0807842E3,6.87782E2,8.6507794E2,1.2788104E2],"tree_param":{"num_deleted":"0","num_feature":"42","num_nodes":"13","size_leaf_vector":"1"}},{"base_weights":[2.4869533E-2,-1.7129868E-1,2.7110335E-1,-5.852218E-1,-3.347194E-2,1.3080445E-1,6.099412E-1,-1.1649818E-2,-3.9473227E-3,3.1597236E-5,-1.6315745E-2,-3.6214855E-3,4.8846016E-3,1.0323861E-2,-1.32518085E-2],"categories":[],"categories_nodes":[],"categories_segments":[],"categories_sizes":[],"default_left":[0,0,0,0,0,0,0,0,0,0,0,0,0,0,0],"id":71,"left_children":[1,3,5,7,9,11,13,-1,-1,-1,-1,-1,-1,-1,-1],"loss_changes":[1.3930598E2,9.0628204E1,5.9826843E1,2.410112E1,4.730048E1,6.892806E1,5.1698883E1,0E0,0E0,0E0,0E0,0E0,0E0,0E0,0E0],"parents":[2147483647,0,0,1,1,2,2,3,3,4,4,5,5,6,6],"right_children":[2,4,6,8,10,12,14,-1,-1,-1,-1,-1,-1,-1,-1],"split_conditions":[3E0,1.656E3,1.0000001E0,4E0,9.9E1,6.841E3,1.38E2,-1.1649818E-2,-3.9473227E-3,3.1597236E-5,-1.6315745E-2,-3.6214855E-3,4.8846016E-3,1.0323861E-2,-1.32518085E-2],"split_indices":[22,18,38,40,34,19,8,0,0,0,0,0,0,0,0],"split_type":[0,0,0,0,0,0,0,0,0,0,0,0,0,0,0],"sum_hessian":[2.8766296E3,1.5989987E3,1.2776311E3,3.9531705E2,1.2036815E3,9.083747E2,3.6925638E2,2.3614062E2,1.5917644E2,1.1664684E3,3.7213196E1,3.1337408E2,5.950006E2,3.5052545E2,1.8730944E1],"tree_param":{"num_deleted":"0","num_feature":"42","num_nodes":"15","size_leaf_vector":"1"}},{"base_weights":[1.8548168E-2,1.02253176E-1,-7.827726E-1,5.047283E-3,4.4045013E-1,-1.1065146E0,-5.390565E-1,-4.1270778E-3,1.2945909E-3,8.607033E-3,-2.248688E-3,-1.778163E-2,-2.517049E-3,-1.0078409E-2,1.3390421E-2],"categories":[],"categories_nodes":[],"categories_segments":[],"categories_sizes":[],"default_left":[0,0,0,0,0,0,0,0,0,0,0,0,0,0,0],"id":72,"left_children":[1,3,5,7,9,11,13,-1,-1,-1,-1,-1,-1,-1,-1],"loss_changes":[1.9554698E2,8.663622E1,1.8367935E1,4.8445553E1,5.0605835E1,8.443405E0,3.5537693E1,0E0,0E0,0E0,0E0,0E0,0E0,0E0,0E0],"parents":[2147483647,0,0,1,1,2,2,3,3,4,4,5,5,6,6],"right_children":[2,4,6,8,10,12,14,-1,-1,-1,-1,-1,-1,-1,-1],"split_conditions":[4.1E1,3.4904E1,1.1E1,8E0,1E0,1E0,1.08E2,-4.1270778E-3,1.2945909E-3,8.607033E-3,-2.248688E-3,-1.778163E-2,-2.517049E-3,-1.0078409E-2,1.3390421E-2],"split_indices":[24,0,1,35,9,10,24,0,0,0,0,0,0,0,0],"split_type":[0,0,0,0,0,0,0,0,0,0,0,0,0,0,0],"sum_hessian":[2.9210432E3,2.648069E3,2.7297406E2,2.0614685E3,5.866006E2,1.1135554E2,1.6161853E2,4.5950214E2,1.6019664E3,4.742511E2,1.1234948E2,9.899822E1,1.2357316E1,1.4892836E2,1.2690164E1],"tree_param":{"num_deleted":"0","num_feature":"42","num_nodes":"15","size_leaf_vector":"1"}},{"base_weights":[2.2916112E-2,9.987763E-2,-6.740666E-1,-1.18570484E-1,2.3212157E-1,6.243323E-1,-7.2273153E-1,-2.0849803E-3,1.4639461E-2,1.5970669E-3,7.440434E-3,-8.339449E-3,1.6781885E-2,-1.3340661E-2,-3.364844E-3],"categories":[],"categories_nodes":[],"categories_segments":[],"categories_sizes":[],"default_left":[0,0,0,0,0,0,0,0,0,0,0,0,0,0,0],"id":73,"left_children":[1,3,5,7,9,11,13,-1,-1,-1,-1,-1,-1,-1,-1],"loss_changes":[1.533612E2,7.4910904E1,1.9220901E1,2.3994362E1,5.3622734E1,8.893679E0,2.2952301E1,0E0,0E0,0E0,0E0,0E0,0E0,0E0,0E0],"parents":[2147483647,0,0,1,1,2,2,3,3,4,4,5,5,6,6],"right_children":[2,4,6,8,10,12,14,-1,-1,-1,-1,-1,-1,-1,-1],"split_conditions":[4.1E1,0E0,2.6843E0,2.56167E1,2.3000002E0,1E0,1.2E1,-2.0849803E-3,1.4639461E-2,1.5970669E-3,7.440434E-3,-8.339449E-3,1.6781885E-2,-1.3340661E-2,-3.364844E-3],"split_indices":[24,12,0,23,26,9,2,0,0,0,0,0,0,0,0],"split_type":[0,0,0,0,0,0,0,0,0,0,0,0,0,0,0],"sum_hessian":[2.8651782E3,2.5836924E3,2.8148572E2,9.712128E2,1.6124797E3,8.23975E0,2.7324597E2,9.549245E2,1.628833E1,1.1133173E3,4.9916245E2,1.7481103E0,6.4916396E0,1.9673157E2,7.6514404E1],"tree_param":{"num_deleted":"0","num_feature":"42","num_nodes":"15","size_leaf_vector":"1"}},{"base_weights":[1.15712555E-2,8.222775E-2,-7.034571E-1,-2.0572927E-2,4.146147E-1,-1.0222517E0,-3.502978E-1,-5.699991E-3,9.023732E-4,2.9760224E-3,1.3272072E-2,-8.673561E-3,-1.7948676E-2,-2.4100866E-3,-2.1278564E-2],"categories":[],"categories_nodes":[],"categories_segments":[],"categories_sizes":[],"default_left":[0,0,0,0,0,0,0,0,0,0,0,0,0,0,0],"id":74,"left_children":[1,3,5,7,9,11,13,-1,-1,-1,-1,-1,-1,-1,-1],"loss_changes":[1.4522636E2,9.031348E1,2.6629204E1,6.044967E1,6.27071E1,7.34169E0,2.3756702E1,0E0,0E0,0E0,0E0,0E0,0E0,0E0,0E0],"parents":[2147483647,0,0,1,1,2,2,3,3,4,4,5,5,6,6],"right_children":[2,4,6,8,10,12,14,-1,-1,-1,-1,-1,-1,-1,-1],"split_conditions":[4.4E1,8E-1,1.206E3,8E0,2E0,1.01E2,2.318E1,-5.699991E-3,9.023732E-4,2.9760224E-3,1.3272072E-2,-8.673561E-3,-1.7948676E-2,-2.4100866E-3,-2.1278564E-2],"split_indices":[25,38,19,35,21,25,37,0,0,0,0,0,0,0,0],"split_type":[0,0,0,0,0,0,0,0,0,0,0,0,0,0,0],"sum_hessian":[2.8827527E3,2.6270027E3,2.5575015E2,2.0057285E3,6.2127405E2,1.3018883E2,1.25561325E2,3.670942E2,1.6386343E3,4.3582056E2,1.8545352E2,4.5188145E1,8.500069E1,1.1060362E2,1.4957709E1],"tree_param":{"num_deleted":"0","num_feature":"42","num_nodes":"15","size_leaf_vector":"1"}},{"base_weights":[1.6037416E-2,-9.695952E-1,6.6908225E-2,-1.0370371E0,8.0909744E-2,3.744677E-3,4.0364993E-1,-8.897417E-3,-1.7795758E-2,-9.391953E-3,1.5789138E-2,-1.9398599E-3,1.9884217E-3,-2.1911464E-3,7.968768E-3],"categories":[],"categories_nodes":[],"categories_segments":[],"categories_sizes":[],"default_left":[0,0,0,0,0,0,0,0,0,0,0,0,0,0,0],"id":75,"left_children":[1,3,5,7,9,11,13,-1,-1,-1,-1,-1,-1,-1,-1],"loss_changes":[1.4396288E2,1.126091E1,5.80276E1,5.901016E0,9.253652E0,4.1159924E1,3.313922E1,0E0,0E0,0E0,0E0,0E0,0E0,0E0,0E0],"parents":[2147483647,0,0,1,1,2,2,3,3,4,4,5,5,6,6],"right_children":[2,4,6,8,10,12,14,-1,-1,-1,-1,-1,-1,-1,-1],"split_conditions":[1.1E1,7.5E2,2E0,-2.2252093E-1,2.4E0,7.37E0,3.4712744E0,-8.897417E-3,-1.7795758E-2,-9.391953E-3,1.5789138E-2,-1.9398599E-3,1.9884217E-3,-2.1911464E-3,7.968768E-3],"split_indices":[1,25,21,13,26,37,29,0,0,0,0,0,0,0,0],"split_type":[0,0,0,0,0,0,0,0,0,0,0,0,0,0,0],"sum_hessian":[2.8854106E3,1.382538E2,2.7471567E3,1.3094296E2,7.310843E0,2.318238E3,4.2891885E2,4.184095E1,8.9102005E1,4.1155553E0,3.1952877E0,1.136642E3,1.181596E3,8.3299164E1,3.456197E2],"tree_param":{"num_deleted":"0","num_feature":"42","num_nodes":"15","size_leaf_vector":"1"}},{"base_weights":[5.543991E-3,8.338182E-2,-6.399883E-1,2.236591E-1,-1.4693335E-1,9.6436155E-1,-7.3434675E-1,1.8181441E-3,8.257237E-3,-1.0406608E-2,-1.1948973E-4,1.7635696E-2,1.8641771E-3,-1.4865411E-2,-6.410409E-3],"categories":[],"categories_nodes":[],"categories_segments":[],"categories_sizes":[],"default_left":[0,0,0,0,0,0,0,0,0,0,0,0,0,0,0],"id":76,"left_children":[1,3,5,7,9,11,13,-1,-1,-1,-1,-1,-1,-1,-1],"loss_changes":[1.4338113E2,8.284314E1,4.8018394E1,5.2856827E1,7.415708E1,1.5209961E0,2.1171692E1,0E0,0E0,0E0,0E0,0E0,0E0,0E0,0E0],"parents":[2147483647,0,0,1,1,2,2,3,3,4,4,5,5,6,6],"right_children":[2,4,6,8,10,12,14,-1,-1,-1,-1,-1,-1,-1,-1],"split_conditions":[3.9E1,4E0,2.6843E0,3.4904E1,8E0,4.4056616E0,4.882E0,1.8181441E-3,8.257237E-3,-1.0406608E-2,-1.1948973E-4,1.7635696E-2,1.8641771E-3,-1.4865411E-2,-6.410409E-3],"split_indices":[24,7,0,0,35,29,0,0,0,0,0,0,0,0,0],"split_type":[0,0,0,0,0,0,0,0,0,0,0,0,0,0,0],"sum_hessian":[2.86059E3,2.5563228E3,3.0426736E2,1.5917574E3,9.6456525E2,1.4924908E1,2.8934247E2,1.2306432E3,3.611143E2,1.883941E2,7.7617114E2,9.796886E0,5.1280217E0,1.463164E2,1.4302605E2],"tree_param":{"num_deleted":"0","num_feature":"42","num_nodes":"15","size_leaf_vector":"1"}},{"base_weights":[-1.7880797E-2,-1.0374086E0,3.306524E-2,-1.6384508E-2,-2.3468307E-1,-4.6149675E-2,4.30169E-1,-1.2434582E-2,6.9690845E-3,-2.7600876E-3,1.328094E-3,2.086791E-3,1.2429645E-2],"categories":[],"categories_nodes":[],"categories_segments":[],"categories_sizes":[],"default_left":[0,0,0,0,0,0,0,0,0,0,0,0,0],"id":77,"left_children":[1,3,5,-1,7,9,11,-1,-1,-1,-1,-1,-1],"loss_changes":[1.4924152E2,5.8382416E0,8.5910255E1,0E0,8.289061E0,4.358813E1,5.265944E1,0E0,0E0,0E0,0E0,0E0,0E0],"parents":[2147483647,0,0,1,1,2,2,4,4,5,5,6,6],"right_children":[2,4,6,-1,8,10,12,-1,-1,-1,-1,-1,-1],"split_conditions":[1.008E3,1E0,2E0,-1.6384508E-2,2.025E3,8E-1,5E-1,-1.2434582E-2,6.9690845E-3,-2.7600876E-3,1.328094E-3,2.086791E-3,1.2429645E-2],"split_indices":[19,10,21,0,5,26,38,0,0,0,0,0,0],"split_type":[0,0,0,0,0,0,0,0,0,0,0,0,0],"sum_hessian":[2.8474333E3,1.3418442E2,2.713249E3,1.2082323E2,1.3361182E1,2.261572E3,4.5167685E2,7.7664466E0,5.5947356E0,1.1149673E3,1.1466049E3,2.6923795E2,1.8243889E2],"tree_param":{"num_deleted":"0","num_feature":"42","num_nodes":"13","size_leaf_vector":"1"}},{"base_weights":[2.332403E-2,8.987012E-2,-6.7151785E-1,1.3896301E-3,4.03724E-1,-8.539988E-1,-3.2958165E-2,-1.4687718E-3,3.1302345E-3,7.4954904E-3,2.3356166E-4,-1.8541634E-2,-6.2550325E-3,1.0693486E-2,-9.184577E-3],"categories":[],"categories_nodes":[],"categories_segments":[],"categories_sizes":[],"default_left":[0,0,0,0,0,0,0,0,0,0,0,0,0,0,0],"id":78,"left_children":[1,3,5,7,9,11,13,-1,-1,-1,-1,-1,-1,-1,-1],"loss_changes":[1.3182611E2,7.217248E1,2.7946205E1,4.3688396E1,2.253904E1,3.0022629E1,2.7563398E1,0E0,0E0,0E0,0E0,0E0,0E0,0E0,0E0],"parents":[2147483647,0,0,1,1,2,2,3,3,4,4,5,5,6,6],"right_children":[2,4,6,8,10,12,14,-1,-1,-1,-1,-1,-1,-1,-1],"split_conditions":[4.4E1,8.8693E3,2.9056E3,1.9000002E0,5E0,1E0,3.51141E0,-1.4687718E-3,3.1302345E-3,7.4954904E-3,2.3356166E-4,-1.8541634E-2,-6.2550325E-3,1.0693486E-2,-9.184577E-3],"split_indices":[24,18,18,26,7,31,27,0,0,0,0,0,0,0,0],"split_type":[0,0,0,0,0,0,0,0,0,0,0,0,0,0,0],"sum_hessian":[2.8590762E3,2.6127026E3,2.4637354E2,2.0429156E3,5.697871E2,1.8958017E2,5.679336E1,1.3787043E3,6.642113E2,4.4619724E2,1.235899E2,9.402628E1,9.555389E1,2.3764511E1,3.302885E1],"tree_param":{"num_deleted":"0","num_feature":"42","num_nodes":"15","size_leaf_vector":"1"}},{"base_weights":[5.0308857E-2,1.2812877E-1,-7.2701794E-1,2.7106407E-1,-1.06960766E-1,-1.091192E0,-4.5280132E-1,7.2754E-3,9.828832E-4,-4.780044E-3,1.4094535E-3,-1.7688846E-2,-0E0,-1.4332451E-2,-5.241958E-4],"categories":[],"categories_nodes":[],"categories_segments":[],"categories_sizes":[],"default_left":[0,0,0,0,0,0,0,0,0,0,0,0,0,0,0],"id":79,"left_children":[1,3,5,7,9,11,13,-1,-1,-1,-1,-1,-1,-1,-1],"loss_changes":[1.7670015E2,8.981506E1,2.3522202E1,7.4684296E1,4.45607E1,1.4268753E1,3.2893494E1,0E0,0E0,0E0,0E0,0E0,0E0,0E0,0E0],"parents":[2147483647,0,0,1,1,2,2,3,3,4,4,5,5,6,6],"right_children":[2,4,6,8,10,12,14,-1,-1,-1,-1,-1,-1,-1,-1],"split_conditions":[4.1E1,4E0,3.1784E0,6E0,2.978E3,3.4E2,5.9E1,7.2754E-3,9.828832E-4,-4.780044E-3,1.4094535E-3,-1.7688846E-2,-0E0,-1.4332451E-2,-5.241958E-4],"split_indices":[24,7,0,25,18,8,24,0,0,0,0,0,0,0,0],"split_type":[0,0,0,0,0,0,0,0,0,0,0,0,0,0,0],"sum_hessian":[2.9255837E3,2.662611E3,2.6297272E2,1.6585566E3,1.00405444E3,1.07913445E2,1.5505928E2,7.90815E2,8.6774164E2,4.8658395E2,5.174705E2,9.890087E1,9.012573E0,6.642461E1,8.8634674E1],"tree_param":{"num_deleted":"0","num_feature":"42","num_nodes":"15","size_leaf_vector":"1"}},{"base_weights":[1.0255375E-2,-1.0280229E0,6.0438313E-2,-1.768435E-2,-1.2948455E-1,-7.0738435E-2,2.8429702E-1,-1.4711024E-2,1.995871E-2,2.9636445E-3,-3.2638405E-3,3.0051903E-3,1.1615511E-2],"categories":[],"categories_nodes":[],"categories_segments":[],"categories_sizes":[],"default_left":[0,0,0,0,0,0,0,0,0,0,0,0,0],"id":80,"left_children":[1,3,5,-1,7,9,11,-1,-1,-1,-1,-1,-1],"loss_changes":[1.4912137E2,1.8316238E1,8.105448E1,0E0,3.5167553E1,7.095208E1,3.9835983E1,0E0,0E0,0E0,0E0,0E0,0E0],"parents":[2147483647,0,0,1,1,2,2,4,4,5,5,6,6],"right_children":[2,4,6,-1,8,10,12,-1,-1,-1,-1,-1,-1],"split_conditions":[1.008E3,9.749279E-1,9.2924E-2,-1.768435E-2,6.6E1,1.12E2,3E0,-1.4711024E-2,1.995871E-2,2.9636445E-3,-3.2638405E-3,3.0051903E-3,1.1615511E-2],"split_indices":[19,12,36,0,35,8,21,0,0,0,0,0,0],"split_type":[0,0,0,0,0,0,0,0,0,0,0,0,0],"sum_hessian":[2.8770847E3,1.2930704E2,2.7477778E3,1.0692236E2,2.2384666E1,1.7305092E3,1.0172687E3,1.5126949E1,7.257716E0,6.1395795E2,1.1165511E3,8.817277E2,1.3554099E2],"tree_param":{"num_deleted":"0","num_feature":"42","num_nodes":"13","size_leaf_vector":"1"}},{"base_weights":[2.6459957E-2,9.345832E-2,-7.085674E-1,-3.870709E-2,3.105071E-1,-8.0473894E-1,1.6111405E-1,3.6446222E-3,-3.056603E-3,2.939602E-3,1.02749495E-2,-2.073872E-2,-7.518705E-3,-1.3209475E-2,1.2827785E-2],"categories":[],"categories_nodes":[],"categories_segments":[],"categories_sizes":[],"default_left":[0,0,0,0,0,0,0,0,0,0,0,0,0,0,0],"id":81,"left_children":[1,3,5,7,9,11,13,-1,-1,-1,-1,-1,-1,-1,-1],"loss_changes":[1.4114151E2,7.606405E1,2.1059204E1,7.9005226E1,4.1693375E1,3.4493866E1,2.0535128E1,0E0,0E0,0E0,0E0,0E0,0E0,0E0,0E0],"parents":[2147483647,0,0,1,1,2,2,3,3,4,4,5,5,6,6],"right_children":[2,4,6,8,10,12,14,-1,-1,-1,-1,-1,-1,-1,-1],"split_conditions":[4.5E1,9.2924E-2,2.025E3,1.14E2,2.025E3,1.55E2,4.3388373E-1,3.6446222E-3,-3.056603E-3,2.939602E-3,1.02749495E-2,-2.073872E-2,-7.518705E-3,-1.3209475E-2,1.2827785E-2],"split_indices":[24,36,5,8,5,8,12,0,0,0,0,0,0,0,0],"split_type":[0,0,0,0,0,0,0,0,0,0,0,0,0,0,0],"sum_hessian":[2.8739756E3,2.6373462E3,2.3662943E2,1.6373213E3,1.00002484E3,2.1439677E2,2.223265E1,6.043706E2,1.0329507E3,7.814256E2,2.185992E2,6.620323E1,1.4819354E2,8.017842E0,1.4214808E1],"tree_param":{"num_deleted":"0","num_feature":"42","num_nodes":"15","size_leaf_vector":"1"}},{"base_weights":[-5.3031737E-5,-1.0133424E0,4.8114862E-2,-1.0911642E0,-1.486933E-1,-2.687829E-2,3.4477055E-1,-0E0,-1.7449504E-2,2.3611562E-2,-1.3549268E-2,2.5773507E-3,-2.1157996E-3,5.530678E-3,-1.9403107E-2],"categories":[],"categories_nodes":[],"categories_segments":[],"categories_sizes":[],"default_left":[0,0,0,0,0,0,0,0,0,0,0,0,0,0,0],"id":82,"left_children":[1,3,5,7,9,11,13,-1,-1,-1,-1,-1,-1,-1,-1],"loss_changes":[1.4062827E2,6.999298E0,6.1077446E1,1.0550461E1,2.3165815E1,5.1155174E1,2.78321E1,0E0,0E0,0E0,0E0,0E0,0E0,0E0,0E0],"parents":[2147483647,0,0,1,1,2,2,3,3,4,4,5,5,6,6],"right_children":[2,4,6,8,10,12,14,-1,-1,-1,-1,-1,-1,-1,-1],"split_conditions":[1.1E1,3.4E2,3.4904E1,1.4E1,3.41E2,1.17E2,5.8694124E0,-0E0,-1.7449504E-2,2.3611562E-2,-1.3549268E-2,2.5773507E-3,-2.1157996E-3,5.530678E-3,-1.9403107E-2],"split_indices":[1,8,0,25,8,8,27,0,0,0,0,0,0,0,0],"split_type":[0,0,0,0,0,0,0,0,0,0,0,0,0,0,0],"sum_hessian":[2.8540293E3,1.2822266E2,2.7258066E3,1.1583157E2,1.2391084E1,2.174646E3,5.511607E2,1.0049957E1,1.0578162E2,2.4935634E0,9.89752E0,7.926333E2,1.3820127E3,5.439802E2,7.180522E0],"tree_param":{"num_deleted":"0","num_feature":"42","num_nodes":"15","size_leaf_vector":"1"}},{"base_weights":[3.6236573E-2,-1.1079592E0,8.9234404E-2,-1.7454514E-2,-5.1095563E-1,2.9221886E-1,-3.1176703E-2,-1.5271165E-2,1.7495595E-2,