{"learner":{"attributes":{"scikit_learn":"{\"_estimator_type\": \"classifier\"}"},"feature_names":["hour","month","dow","precipitation_sum","wind_speed_10m_max","wind_gusts_10m_max","et0_fao_evapotranspiration","heavy_rain_day","high_wind_day","is_public_holiday","is_long_weekend","days_to_next_holiday","days_since_holiday","day_of_week","day_of_year","year","is_weekend","month_sin","month_cos","dow_sin","dow_cos","hour_sin","hour_cos","season_long_dry","season_long_rains","season_short_dry","season_short_rains","max_demand_kva","affected_customers","feeder_id","total_length_km","n_secondary_subs","n_switches","avg_segment_m","bbox_area_km2","events_last_7d","events_last_30d","days_since_last","feeder_event_share","storm_index","rain_season_interaction","demand_load_factor"],"feature_types":["int","int","int","float","float","float","float","int","int","int","int","int","int","int","int","int","int","float","float","float","float","float","float","int","int","int","int","float","int","int","float","int","int","float","float","int","int","float","float","float","float","float"],"gradient_booster":{"model":{"cats":{"enc":[],"feature_segments":[],"sorted_idx":[]},"gbtree_model_param":{"num_parallel_tree":"1","num_trees":"1131"},"iteration_indptr":[0,3,6,9,12,15,18,21,24,27,30,33,36,39,42,45,48,51,54,57,60,63,66,69,72,75,78,81,84,87,90,93,96,99,102,105,108,111,114,117,120,123,126,129,132,135,138,141,144,147,150,153,156,159,162,165,168,171,174,177,180,183,186,189,192,195,198,201,204,207,210,213,216,219,222,225,228,231,234,237,240,243,246,249,252,255,258,261,264,267,270,273,276,279,282,285,288,291,294,297,300,303,306,309,312,315,318,321,324,327,330,333,336,339,342,345,348,351,354,357,360,363,366,369,372,375,378,381,384,387,390,393,396,399,402,405,408,411,414,417,420,423,426,429,432,435,438,441,444,447,450,453,456,459,462,465,468,471,474,477,480,483,486,489,492,495,498,501,504,507,510,513,516,519,522,525,528,531,534,537,540,543,546,549,552,555,558,561,564,567,570,573,576,579,582,585,588,591,594,597,600,603,606,609,612,615,618,621,624,627,630,633,636,639,642,645,648,651,654,657,660,663,666,669,672,675,678,681,684,687,690,693,696,699,702,705,708,711,714,717,720,723,726,729,732,735,738,741,744,747,750,753,756,759,762,765,768,771,774,777,780,783,786,789,792,795,798,801,804,807,810,813,816,819,822,825,828,831,834,837,840,843,846,849,852,855,858,861,864,867,870,873,876,879,882,885,888,891,894,897,900,903,906,909,912,915,918,921,924,927,930,933,936,939,942,945,948,951,954,957,960,963,966,969,972,975,978,981,984,987,990,993,996,999,1002,1005,1008,1011,1014,1017,1020,1023,1026,1029,1032,1035,1038,1041,1044,1047,1050,1053,1056,1059,1062,1065,1068,1071,1074,1077,1080,1083,1086,1089,1092,1095,1098,1101,1104,1107,1110,1113,1116,1119,1122,1125,1128,1131],"tree_info":[0,1,2,0,1,2,0,1,2,0,1,2,0,1,2,0,1,2,0,1,2,0,1,2,0,1,2,0,1,2,0,1,2,0,1,2,0,1,2,0,1,2,0,1,2,0,1,2,0,1,2,0,1,2,0,1,2,0,1,2,0,1,2,0,1,2,0,1,2,0,1,2,0,1,2,0,1,2,0,1,2,0,1,2,0,1,2,0,1,2,0,1,2,0,1,2,0,1,2,0,1,2,0,1,2,0,1,2,0,1,2,0,1,2,0,1,2,0,1,2,0,1,2,0,1,2,0,1,2,0,1,2,0,1,2,0,1,2,0,1,2,0,1,2,0,1,2,0,1,2,0,1,2,0,1,2,0,1,2,0,1,2,0,1,2,0,1,2,0,1,2,0,1,2,0,1,2,0,1,2,0,1,2,0,1,2,0,1,2,0,1,2,0,1,2,0,1,2,0,1,2,0,1,2,0,1,2,0,1,2,0,1,2,0,1,2,0,1,2,0,1,2,0,1,2,0,1,2,0,1,2,0,1,2,0,1,2,0,1,2,0,1,2,0,1,2,0,1,2,0,1,2,0,1,2,0,1,2,0,1,2,0,1,2,0,1,2,0,1,2,0,1,2,0,1,2,0,1,2,0,1,2,0,1,2,0,1,2,0,1,2,0,1,2,0,1,2,0,1,2,0,1,2,0,1,2,0,1,2,0,1,2,0,1,2,0,1,2,0,1,2,0,1,2,0,1,2,0,1,2,0,1,2,0,1,2,0,1,2,0,1,2,0,1,2,0,1,2,0,1,2,0,1,2,0,1,2,0,1,2,0,1,2,0,1,2,0,1,2,0,1,2,0,1,2,0,1,2,0,1,2,0,1,2,0,1,2,0,1,2,0,1,2,0,1,2,0,1,2,0,1,2,0,1,2,0,1,2,0,1,2,0,1,2,0,1,2,0,1,2,0,1,2,0,1,2,0,1,2,0,1,2,0,1,2,0,1,2,0,1,2,0,1,2,0,1,2,0,1,2,0,1,2,0,1,2,0,1,2,0,1,2,0,1,2,0,1,2,0,1,2,0,1,2,0,1,2,0,1,2,0,1,2,0,1,2,0,1,2,0,1,2,0,1,2,0,1,2,0,1,2,0,1,2,0,1,2,0,1,2,0,1,2,0,1,2,0,1,2,0,1,2,0,1,2,0,1,2,0,1,2,0,1,2,0,1,2,0,1,2,0,1,2,0,1,2,0,1,2,0,1,2,0,1,2,0,1,2,0,1,2,0,1,2,0,1,2,0,1,2,0,1,2,0,1,2,0,1,2,0,1,2,0,1,2,0,1,2,0,1,2,0,1,2,0,1,2,0,1,2,0,1,2,0,1,2,0,1,2,0,1,2,0,1,2,0,1,2,0,1,2,0,1,2,0,1,2,0,1,2,0,1,2,0,1,2,0,1,2,0,1,2,0,1,2,0,1,2,0,1,2,0,1,2,0,1,2,0,1,2,0,1,2,0,1,2,0,1,2,0,1,2,0,1,2,0,1,2,0,1,2,0,1,2,0,1,2,0,1,2,0,1,2,0,1,2,0,1,2,0,1,2,0,1,2,0,1,2,0,1,2,0,1,2,0,1,2,0,1,2,0,1,2,0,1,2,0,1,2,0,1,2,0,1,2,0,1,2,0,1,2,0,1,2,0,1,2,0,1,2,0,1,2,0,1,2,0,1,2,0,1,2,0,1,2,0,1,2,0,1,2,0,1,2,0,1,2,0,1,2,0,1,2,0,1,2,0,1,2,0,1,2,0,1,2,0,1,2,0,1,2,0,1,2,0,1,2,0,1,2,0,1,2,0,1,2,0,1,2,0,1,2,0,1,2,0,1,2,0,1,2,0,1,2,0,1,2,0,1,2,0,1,2,0,1,2,0,1,2,0,1,2,0,1,2,0,1,2,0,1,2,0,1,2,0,1,2,0,1,2,0,1,2,0,1,2,0,1,2,0,1,2,0,1,2,0,1,2,0,1,2,0,1,2,0,1,2,0,1,2,0,1,2,0,1,2,0,1,2,0,1,2,0,1,2,0,1,2,0,1,2,0,1,2,0,1,2,0,1,2,0,1,2,0,1,2,0,1,2,0,1,2,0,1,2,0,1,2,0,1,2,0,1,2,0,1,2,0,1,2,0,1,2,0,1,2,0,1,2,0,1,2,0,1,2,0,1,2,0,1,2,0,1,2,0,1,2,0,1,2,0,1,2,0,1,2,0,1,2,0,1,2,0,1,2,0,1,2,0,1,2,0,1,2,0,1,2,0,1,2,0,1,2,0,1,2,0,1,2,0,1,2,0,1,2,0,1,2,0,1,2,0,1,2,0,1,2,0,1,2,0,1,2,0,1,2,0,1,2,0,1,2,0,1,2,0,1,2,0,1,2,0,1,2,0,1,2,0,1,2,0,1,2,0,1,2,0,1,2,0,1,2,0,1,2,0,1,2,0,1,2,0,1,2,0,1,2,0,1,2,0,1,2,0,1,2,0,1,2,0,1,2,0,1,2,0,1,2,0,1,2],"trees":[{"base_weights":[-8.2244986E-4,3.315995E-1,-7.333E-2,3.5297845E-3,6.0720396E-1,-1.7898744E-1,1.560338E-1,1.8438863E-2,1.1975224E-1,1.8150046E-2,-4.2001564E-2,1.1785456E-1,1.4331819E-2,1.5478058E-1,-2.9218953E-2,3.0961528E-1,-1.344789E-1,7.396559E-2,-2.6430802E-2,-0E0,7.4616455E-2,-0E0,-5.489912E-2,-3.87086E-2,2.6972266E-2],"categories":[],"categories_nodes":[],"categories_segments":[],"categories_sizes":[],"default_left":[0,0,0,0,0,0,0,0,0,0,0,0,0,0,0,0,0,0,0,0,0,0,0,0,0],"id":0,"left_children":[1,3,5,-1,7,9,11,-1,-1,13,-1,-1,15,17,-1,19,21,-1,23,-1,-1,-1,-1,-1,-1],"loss_changes":[5.044554E0,2.8568316E0,4.3265862E0,0E0,2.051115E0,3.5356586E0,5.4472446E0,0E0,0E0,1.7353024E0,0E0,0E0,2.281533E0,2.8287694E0,0E0,1.5493373E0,1.2866203E0,0E0,1.7194388E0,0E0,0E0,0E0,0E0,0E0,0E0],"parents":[2147483647,0,0,1,1,2,2,4,4,5,5,6,6,9,9,12,12,13,13,15,15,16,16,18,18],"right_children":[2,4,6,-1,8,10,12,-1,-1,14,-1,-1,16,18,-1,20,22,-1,24,-1,-1,-1,-1,-1,-1],"split_conditions":[9E0,1.6E1,4E0,3.5297845E-3,4.52E1,4.105924E0,2.393E3,1.8438863E-2,1.1975224E-1,3.6E1,-4.2001564E-2,1.1785456E-1,4.4877E0,2.024E3,-2.9218953E-2,3.8832977E0,8E0,7.396559E-2,3.5903554E0,-0E0,7.4616455E-2,-0E0,-5.489912E-2,-3.87086E-2,2.6972266E-2],"split_indices":[0,12,2,0,33,6,28,0,0,12,0,0,30,15,0,4,36,0,6,0,0,0,0,0,0],"split_type":[0,0,0,0,0,0,0,0,0,0,0,0,0,0,0,0,0,0,0,0,0,0,0,0,0],"sum_hessian":[2.0984386E2,3.5491573E1,1.7435228E2,1.8442646E1,1.7048927E1,1.2077919E2,5.3573093E1,8.266563E0,8.782363E0,4.9897278E1,7.088191E1,6.6361866E0,4.693691E1,3.3258102E1,1.6639175E1,1.5950779E1,3.098613E1,9.713723E0,2.354438E1,7.6794024E0,8.271377E0,2.202586E1,8.960271E0,1.1455956E1,1.2088425E1],"tree_param":{"num_deleted":"0","num_feature":"42","num_nodes":"25","size_leaf_vector":"1"}},{"base_weights":[1.3663822E-2,1.4783733E-1,-7.5417615E-2,-3.239248E-2,4.3729615E-1,-2.9016522E-1,3.4790105E-1,5.8095485E-1,-4.704078E-2,-4.1230083E-1,2.1057589E-2,2.091209E-2,1.3387804E-1,1.3468564E-3,6.786275E-1,-0E0,-5.0610554E-1,2.247442E-1,-5.7124287E-2,4.0759865E-2,8.5316265E-1,-8.0560684E-2,-1.8342806E-2,-4.134924E-2,7.391528E-2,1.2825553E-1,3.9652504E-2],"categories":[],"categories_nodes":[],"categories_segments":[],"categories_sizes":[],"default_left":[0,0,0,0,0,0,0,0,0,0,0,0,0,0,0,0,0,0,0,0,0,0,0,0,0,0,0],"id":1,"left_children":[1,3,-1,5,7,9,11,13,-1,15,-1,17,-1,-1,19,-1,21,23,-1,-1,25,-1,-1,-1,-1,-1,-1],"loss_changes":[1.5273866E1,8.507582E0,0E0,9.881376E0,7.564418E0,3.5546775E0,8.418759E0,2.7198524E0,0E0,1.8572226E0,0E0,2.8172853E0,0E0,0E0,1.9926472E0,0E0,1.1275396E0,4.431986E0,0E0,0E0,9.7107315E-1,0E0,0E0,0E0,0E0,0E0,0E0],"parents":[2147483647,0,0,1,1,3,3,4,4,5,5,6,6,7,7,9,9,11,11,14,14,16,16,17,17,20,20],"right_children":[2,4,-1,6,8,10,12,14,-1,16,-1,18,-1,-1,20,-1,22,24,-1,-1,26,-1,-1,-1,-1,-1,-1],"split_conditions":[5E-1,1.01967E1,-7.5417615E-2,2.5881904E-1,8.660254E-1,2.1E1,4.633276E0,3.3093057E0,-4.704078E-2,4.155E1,2.1057589E-2,9E0,1.3387804E-1,1.3468564E-3,2.6802E4,-0E0,8.660254E-1,5E0,-5.7124287E-2,4.0759865E-2,6.7E1,-8.0560684E-2,-1.8342806E-2,-4.134924E-2,7.391528E-2,1.2825553E-1,3.9652504E-2],"split_indices":[22,30,0,21,21,37,6,6,0,33,0,1,0,0,41,0,18,37,0,0,12,0,0,0,0,0,0],"split_type":[0,0,0,0,0,0,0,0,0,0,0,0,0,0,0,0,0,0,0,0,0,0,0,0,0,0,0],"sum_hessian":[1.9184941E2,1.5784029E2,3.4009136E1,9.742638E1,6.04139E1,5.8919613E1,3.8506763E1,5.1990196E1,8.423702E0,4.714555E1,1.1774065E1,2.7522827E1,1.0983938E1,8.458885E0,4.353131E1,9.20271E0,3.794284E1,2.0228138E1,7.294689E0,1.6298748E1,2.7232565E1,2.7574938E1,1.0367902E1,7.406545E0,1.2821592E1,2.0530346E1,6.7022185E0],"tree_param":{"num_deleted":"0","num_feature":"42","num_nodes":"27","size_leaf_vector":"1"}},{"base_weights":[-0E0,1.5048495E-1,-3.281824E-1,5.8710384E-1,-2.6179869E-2,-4.1861042E-1,3.9941873E-3,7.8716433E-1,-4.196707E-2,-1.3845943E-1,3.244012E-1,-4.8605943E-1,-5.2183014E-3,1.2772335E-1,3.3682E-1,-2.5369093E-1,2.3855174E-1,9.4835065E-2,-0E0,-7.636552E-2,-1.530107E-2,-1.4483026E-3,8.582961E-2,3.508774E-2,-5.226235E-1,-4.4424552E-2,8.799975E-2,3.9769135E-2,-4.196707E-2,6.5620735E-2,-2.64367E-1,-8.064252E-2,-8.254609E-3,1.7270966E-2,-6.338733E-2],"categories":[],"categories_nodes":[],"categories_segments":[],"categories_sizes":[],"default_left":[0,0,0,0,0,0,0,0,0,0,0,0,0,0,0,0,0,0,0,0,0,0,0,0,0,0,0,0,0,0,0,0,0,0,0],"id":2,"left_children":[1,3,5,7,9,11,-1,13,-1,15,17,19,-1,-1,21,23,25,-1,27,-1,-1,-1,-1,29,31,-1,-1,-1,-1,-1,33,-1,-1,-1,-1],"loss_changes":[1.0450679E1,1.1550812E1,2.3187976E0,8.415899E0,4.1587567E0,1.1397352E0,0E0,1.9374733E0,0E0,3.672793E0,3.3970532E0,1.195427E0,0E0,0E0,1.7894415E0,5.2209272E0,5.347116E0,0E0,1.6733532E0,0E0,0E0,0E0,0E0,4.7847342E0,1.1148329E0,0E0,0E0,0E0,0E0,0E0,1.9920639E0,0E0,0E0,0E0,0E0],"parents":[2147483647,0,0,1,1,2,2,3,3,4,4,5,5,7,7,9,9,10,10,11,11,14,14,15,15,16,16,18,18,23,23,24,24,30,30],"right_children":[2,4,6,8,10,12,-1,14,-1,16,18,20,-1,-1,22,24,26,-1,28,-1,-1,-1,-1,30,32,-1,-1,-1,-1,-1,34,-1,-1,-1,-1],"split_conditions":[3.4904E1,2E0,5E0,4.5E1,1.19E1,6.7E1,3.9941873E-3,4.1593266E0,-4.196707E-2,6.2E1,1.26E1,4.988275E0,-5.2183014E-3,1.2772335E-1,5E0,1.1E1,2.2E1,9.4835065E-2,1.38E0,-7.636552E-2,-1.530107E-2,-1.4483026E-3,8.582961E-2,8.7E0,7.1E1,-4.4424552E-2,8.799975E-2,3.9769135E-2,-4.196707E-2,6.5620735E-2,2E0,-8.064252E-2,-8.254609E-3,1.7270966E-2,-6.338733E-2],"split_indices":[30,37,13,11,5,12,0,4,0,11,5,6,0,0,4,11,12,0,39,0,0,0,0,39,12,0,0,0,0,0,36,0,0,0,0],"split_type":[0,0,0,0,0,0,0,0,0,0,0,0,0,0,0,0,0,0,0,0,0,0,0,0,0,0,0,0,0,0,0,0,0,0,0],"sum_hessian":[2.09261E2,1.4482707E2,6.443393E1,4.1158794E1,1.03668274E2,5.207702E1,1.2356915E1,3.4259415E1,6.89938E0,8.016345E1,2.3504826E1,4.291961E1,9.157407E0,2.2175335E1,1.208408E1,6.2622334E1,1.7541117E1,9.821738E0,1.3683087E1,3.243603E1,1.048358E1,6.0037036E0,6.0803766E0,3.0251856E1,3.237048E1,7.2941947E0,1.02469225E1,6.783707E0,6.89938E0,1.1886922E1,1.8364935E1,2.5779615E1,6.5908637E0,6.1608663E0,1.2204068E1],"tree_param":{"num_deleted":"0","num_feature":"42","num_nodes":"35","size_leaf_vector":"1"}},{"base_weights":[-5.207014E-2,-1.1500124E-1,6.805913E-2,-1.9867924E-1,7.245911E-2,2.804905E-2,-2.2561517E-1,4.4212237E-1,-1.6769238E-1,6.860751E-2,-2.656491E-1,-0E0,7.208572E-1,-2.9770583E-1,2.814104E-2,-2.2287665E-2,4.692647E-2,-4.459105E-1,-1.8173535E-1,1.384251E-1,2.7055066E-2,-5.3280387E-2,1.6944633E-3,-0E0,-7.434982E-2,-4.2177532E-2,1.1760666E-1,5.697879E-2,-5.3984765E-3],"categories":[],"categories_nodes":[],"categories_segments":[],"categories_sizes":[],"default_left":[0,0,0,0,0,0,0,0,0,0,0,0,0,0,0,0,0,0,0,0,0,0,0,0,0,0,0,0,0],"id":3,"left_children":[1,3,-1,5,7,-1,9,11,13,15,17,-1,19,21,-1,-1,-1,23,25,-1,-1,-1,-1,-1,-1,-1,27,-1,-1],"loss_changes":[7.7815247E0,3.186508E0,0E0,1.6351748E0,5.662763E0,0E0,1.6662073E0,2.9131217E0,2.0186715E0,1.2898642E0,1.3994141E0,0E0,1.7229571E0,1.1575127E0,0E0,0E0,0E0,1.8464832E0,3.6974769E0,0E0,0E0,0E0,0E0,0E0,0E0,0E0,1.5625784E0,0E0,0E0],"parents":[2147483647,0,0,1,1,3,3,4,4,6,6,7,7,8,8,9,9,10,10,12,12,13,13,17,17,18,18,26,26],"right_children":[2,4,-1,6,8,-1,10,12,14,16,18,-1,20,22,-1,-1,-1,24,26,-1,-1,-1,-1,-1,-1,-1,28,-1,-1],"split_conditions":[8.660254E-1,4E0,6.805913E-2,7.5E0,9.6564E3,2.804905E-2,4E0,9.1E0,5.2E1,3E0,-8.660254E-1,-0E0,4.8282E3,1.95E1,2.814104E-2,-2.2287665E-2,4.692647E-2,5.9794E3,1.45E2,1.384251E-1,2.7055066E-2,-5.3280387E-2,1.6944633E-3,-0E0,-7.434982E-2,-4.2177532E-2,-2.5881904E-1,5.697879E-2,-5.3984765E-3],"split_indices":[21,2,0,5,41,0,12,5,12,29,21,0,41,39,0,0,0,41,31,0,0,0,0,0,0,0,21,0,0],"split_type":[0,0,0,0,0,0,0,0,0,0,0,0,0,0,0,0,0,0,0,0,0,0,0,0,0,0,0,0,0],"sum_hessian":[2.1623946E2,1.9664702E2,1.959244E1,1.3730171E2,5.9345295E1,6.788665E0,1.3051305E2,2.3413307E1,3.5931988E1,1.4330689E1,1.16182365E2,1.0106233E1,1.3307075E1,2.7853313E1,8.078675E0,7.5246453E0,6.806044E0,3.3020145E1,8.316222E1,6.487203E0,6.819871E0,2.1162586E1,6.690726E0,7.496085E0,2.5524061E1,5.748488E1,2.5677338E1,8.354719E0,1.7322618E1],"tree_param":{"num_deleted":"0","num_feature":"42","num_nodes":"29","size_leaf_vector":"1"}},{"base_weights":[-4.3220617E-2,7.204527E-2,-5.0847375E-1,-6.710994E-2,5.219802E-1,-7.777016E-2,-0E0,2.960893E-1,-3.5124868E-1,1.8318626E-1,7.839128E-1,1.2616181E-1,1.099641E-1,-4.0867597E-1,1.821799E-2,-1.7988112E-2,3.591879E-1,1.24487564E-1,2.8404338E-2,-3.0354721E-2,3.9356282E-1,-5.1667446E-1,-3.6476217E-2,8.003627E-2,5.738826E-4,8.1133716E-2,-1.4479718E-2,-2.1325919E-1,-8.3078444E-2,3.4038592E-2,-5.6652598E-2,-6.115765E-2,7.5972388E-3],"categories":[],"categories_nodes":[],"categories_segments":[],"categories_sizes":[],"default_left":[0,0,0,0,0,0,0,0,0,0,0,0,0,0,0,0,0,0,0,0,0,0,0,0,0,0,0,0,0,0,0,0,0],"id":4,"left_children":[1,3,5,7,9,-1,-1,11,13,15,17,19,-1,21,-1,-1,23,-1,-1,-1,25,27,29,-1,-1,-1,-1,31,-1,-1,-1,-1,-1],"loss_changes":[1.1806853E1,1.1122592E1,1.8805704E0,1.4004672E1,3.094205E0,0E0,0E0,4.8812985E0,2.3552904E0,1.3696064E0,1.2892828E0,4.7732763E0,0E0,2.5502548E0,0E0,0E0,1.0911366E0,0E0,0E0,0E0,3.5440502E0,1.3079786E0,2.4114907E0,0E0,0E0,0E0,0E0,1.4584519E0,0E0,0E0,0E0,0E0,0E0],"parents":[2147483647,0,0,1,1,2,2,3,3,4,4,7,7,8,8,9,9,10,10,11,11,13,13,16,16,20,20,21,21,22,22,27,27],"right_children":[2,4,6,8,10,-1,-1,12,14,16,18,20,-1,22,-1,-1,24,-1,-1,-1,26,28,30,-1,-1,-1,-1,32,-1,-1,-1,-1,-1],"split_conditions":[5E-1,2.9056E4,5.0823193E0,1.2E1,1.6E1,-7.777016E-2,-0E0,5.1206975E0,3.3331E4,8.2E-1,8E0,2.024E3,1.099641E-1,5.4E1,1.821799E-2,-1.7988112E-2,1.104E1,1.24487564E-1,2.8404338E-2,-3.0354721E-2,5E0,1E1,3E0,8.003627E-2,5.738826E-4,8.1133716E-2,-1.4479718E-2,2E0,-8.3078444E-2,3.4038592E-2,-5.6652598E-2,-6.115765E-2,7.5972388E-3],"split_indices":[22,41,6,0,0,0,0,6,28,39,1,15,0,11,0,0,39,0,0,0,13,11,13,0,0,0,0,29,0,0,0,0,0],"split_type":[0,0,0,0,0,0,0,0,0,0,0,0,0,0,0,0,0,0,0,0,0,0,0,0,0,0,0,0,0,0,0,0,0],"sum_hessian":[2.1405147E2,1.7208977E2,4.19617E1,1.3193915E2,4.015062E1,3.5767235E1,6.1944647E0,5.7286438E1,7.465271E1,1.94604E1,2.069022E1,4.581667E1,1.1469767E1,6.7788025E1,6.864689E0,6.266486E0,1.3193913E1,1.4584566E1,6.105654E0,1.9092915E1,2.6723757E1,5.1208633E1,1.6579388E1,6.348507E0,6.845406E0,1.8729017E1,7.9947395E0,1.651376E1,3.4694874E1,9.27467E0,7.304719E0,8.618833E0,7.894928E0],"tree_param":{"num_deleted":"0","num_feature":"42","num_nodes":"33","size_leaf_vector":"1"}},{"base_weights":[-4.091494E-3,1.4967635E-1,-5.25765E-1,2.6414222E-1,-1.529918E-1,-4.1143973E-3,-7.754074E-2,5.308097E-1,1.0833603E-1,4.8069503E-2,-2.9971927E-1,6.1238635E-1,6.3912906E-3,3.83809E-1,-1.4877883E-1,4.4719134E-2,-6.267425E-2,6.926645E-3,7.359025E-1,-4.0709782E-2,5.670314E-1,-4.2141068E-1,2.1770102E-1,3.4384795E-2,1.2099821E-1,2.6020047E-1,1.2792787E-1,-8.271925E-2,-1.0818511E-3,8.0938235E-2,-2.2170957E-2,-4.3895753E-4,8.087052E-2],"categories":[],"categories_nodes":[],"categories_segments":[],"categories_sizes":[],"default_left":[0,0,0,0,0,0,0,0,0,0,0,0,0,0,0,0,0,0,0,0,0,0,0,0,0,0,0,0,0,0,0,0,0],"id":5,"left_children":[1,3,5,7,9,-1,-1,11,13,-1,15,17,-1,19,21,-1,-1,-1,23,-1,25,27,29,-1,-1,31,-1,-1,-1,-1,-1,-1,-1],"loss_changes":[1.6527916E1,5.561E0,1.244978E0,4.4572535E0,3.4719443E0,0E0,0E0,1.3167744E0,5.5838513E0,0E0,4.3699923E0,2.0109987E0,0E0,5.2393475E0,4.231036E0,0E0,0E0,0E0,1.5472431E0,0E0,2.9690056E0,1.827066E0,3.0738976E0,0E0,0E0,2.1828866E0,0E0,0E0,0E0,0E0,0E0,0E0,0E0],"parents":[2147483647,0,0,1,1,2,2,3,3,4,4,7,7,8,8,10,10,11,11,13,13,14,14,18,18,20,20,21,21,22,22,25,25],"right_children":[2,4,6,8,10,-1,-1,12,14,-1,16,18,-1,20,22,-1,-1,-1,24,-1,26,28,30,-1,-1,32,-1,-1,-1,-1,-1,-1,-1],"split_conditions":[3.54772E4,4.709567E0,3.1894777E0,1.26E2,1E0,-4.1143973E-3,-7.754074E-2,2.4141E4,8.9E0,4.8069503E-2,1.656E3,4.155E1,6.3912906E-3,1.5E1,9.6564E3,4.4719134E-2,-6.267425E-2,6.926645E-3,9.6E0,-4.0709782E-2,1.6E1,2.978E3,1.6170213E-1,3.4384795E-2,1.2099821E-1,2.16E2,1.2792787E-1,-8.271925E-2,-1.0818511E-3,8.0938235E-2,-2.2170957E-2,-4.3895753E-4,8.087052E-2],"split_indices":[41,6,6,14,2,0,0,41,5,0,41,33,0,12,41,0,0,0,5,0,0,27,38,0,0,14,0,0,0,0,0,0,0],"split_type":[0,0,0,0,0,0,0,0,0,0,0,0,0,0,0,0,0,0,0,0,0,0,0,0,0,0,0,0,0,0,0,0,0],"sum_hessian":[2.007264E2,1.5543805E2,4.528834E1,1.1386897E2,4.156908E1,6.2685223E0,3.9019817E1,3.9510693E1,7.435828E1,7.9956408E0,3.357344E1,3.270116E1,6.8095303E0,3.6196945E1,3.8161335E1,6.476623E0,2.7096817E1,6.9329214E0,2.5768238E1,6.8650303E0,2.9331913E1,2.2331114E1,1.5830223E1,9.057339E0,1.67109E1,1.8935919E1,1.0395994E1,1.3592481E1,8.738632E0,7.758736E0,8.071486E0,1.1272448E1,7.663471E0],"tree_param":{"num_deleted":"0","num_feature":"42","num_nodes":"33","size_leaf_vector":"1"}},{"base_weights":[-1.2558722E-2,5.708214E-1,-5.926798E-2,1.2532169E-2,1.1292422E-1,-1.0423185E-1,7.472154E-2,-1.9664527E-1,7.1142E-2,-3.6576327E-2,-3.343519E-1,-3.4267977E-2,4.602694E-1,2.6523846E-1,-2.2797655E-1,7.246972E-4,-5.603986E-2,1.7373495E-1,-1.628062E-1,9.158826E-2,7.1317833E-3,-6.564244E-3,7.3265694E-2,2.6486639E-2,-5.298603E-2,-1.2083124E-2,7.716316E-2,-4.1109946E-2,5.471548E-3],"categories":[],"categories_nodes":[],"categories_segments":[],"categories_sizes":[],"default_left":[0,0,0,0,0,0,0,0,0,0,0,0,0,0,0,0,0,0,0,0,0,0,0,0,0,0,0,0,0],"id":6,"left_children":[1,3,5,-1,-1,7,-1,9,11,13,15,17,19,21,23,-1,-1,25,27,-1,-1,-1,-1,-1,-1,-1,-1,-1,-1],"loss_changes":[5.7015214E0,1.6136441E0,5.597063E0,0E0,0E0,3.1403756E0,0E0,2.60995E0,2.8652616E0,3.6446252E0,2.2510543E0,1.4406097E0,1.0713224E0,2.4536088E0,3.196851E0,0E0,0E0,2.4497414E0,1.1831268E0,0E0,0E0,0E0,0E0,0E0,0E0,0E0,0E0,0E0,0E0],"parents":[2147483647,0,0,1,1,2,2,5,5,7,7,8,8,9,9,10,10,11,11,12,12,13,13,14,14,17,17,18,18],"right_children":[2,4,6,-1,-1,8,-1,10,12,14,16,18,20,22,24,-1,-1,26,28,-1,-1,-1,-1,-1,-1,-1,-1,-1,-1],"split_conditions":[2.8080707E0,7.9E0,1E0,1.2532169E-2,1.1292422E-1,1.7E0,7.472154E-2,9.6564E3,5E0,4.3388373E-1,-5E-1,2.8350002E1,4E0,3E0,9.5E0,7.246972E-4,-5.603986E-2,2.2999997E0,4.8282E3,9.158826E-2,7.1317833E-3,-6.564244E-3,7.3265694E-2,2.6486639E-2,-5.298603E-2,-1.2083124E-2,7.716316E-2,-4.1109946E-2,5.471548E-3],"split_indices":[6,5,9,0,0,3,0,41,2,19,17,39,29,29,5,0,0,3,27,0,0,0,0,0,0,0,0,0,0],"split_type":[0,0,0,0,0,0,0,0,0,0,0,0,0,0,0,0,0,0,0,0,0,0,0,0,0,0,0,0,0],"sum_hessian":[2.1247173E2,1.3665787E1,1.9880594E2,6.5714946E0,7.0942917E0,1.8748842E2,1.1317512E1,1.24079765E2,6.3408657E1,5.970894E1,6.437083E1,5.0389107E1,1.3019551E1,2.2126656E1,3.7582283E1,1.3269129E1,5.11017E1,1.786593E1,3.2523174E1,6.808858E0,6.210693E0,1.073828E1,1.1388376E1,1.0200603E1,2.7381681E1,1.1159128E1,6.7068033E0,1.9273727E1,1.3249449E1],"tree_param":{"num_deleted":"0","num_feature":"42","num_nodes":"29","size_leaf_vector":"1"}},{"base_weights":[-6.548886E-2,-1.16840504E-1,1.0907201E-1,-8.417399E-2,-4.725121E-2,2.8941202E-1,-2.040603E-1,-1.4606087E-2,4.466872E-1,-3.4103858E-1,1.4607897E-1,1.7142865E-1,6.881849E-1,-1.3761832E-1,-6.5736465E-2,5.48179E-1,-2.8016612E-1,-1.3847429E-2,5.430524E-2,1.1186738E-1,2.5852254E-2,-2.2347432E-1,3.1170623E-2,5.7155397E-3,9.912051E-2,-0E0,-6.3801005E-2,1.5007996E-3,-6.0177274E-2],"categories":[],"categories_nodes":[],"categories_segments":[],"categories_sizes":[],"default_left":[0,0,0,0,0,0,0,0,0,0,0,0,0,0,0,0,0,0,0,0,0,0,0,0,0,0,0,0,0],"id":7,"left_children":[1,3,-1,-1,5,7,9,-1,11,13,15,17,19,21,-1,23,25,-1,-1,-1,-1,27,-1,-1,-1,-1,-1,-1,-1],"loss_changes":[9.418678E0,6.8931584E0,0E0,0E0,9.413214E0,3.7578907E0,6.040282E0,0E0,2.2118692E0,2.5413027E0,6.3587914E0,1.7032702E0,9.713783E-1,1.469182E0,0E0,1.6246228E0,1.1414297E0,0E0,0E0,0E0,0E0,2.20409E0,0E0,0E0,0E0,0E0,0E0,0E0,0E0],"parents":[2147483647,0,0,1,1,4,4,5,5,6,6,8,8,9,9,10,10,11,11,12,12,13,13,15,15,16,16,21,21],"right_children":[2,4,-1,-1,6,8,10,-1,12,14,16,18,20,22,-1,24,26,-1,-1,-1,-1,28,-1,-1,-1,-1,-1,-1,-1],"split_conditions":[9.75623E4,7E0,1.0907201E-1,-8.417399E-2,1.2E1,4E0,8.8693E3,-1.4606087E-2,2.6E1,7.52E0,-8.660254E-1,2.024E3,1.7000002E0,4E-1,-6.5736465E-2,2.024E3,1.6E1,-1.3847429E-2,5.430524E-2,1.1186738E-1,2.5852254E-2,3E0,3.1170623E-2,5.7155397E-3,9.912051E-2,-0E0,-6.3801005E-2,1.5007996E-3,-6.0177274E-2],"split_indices":[41,0,0,0,0,37,27,0,12,39,21,15,3,3,0,15,12,0,0,0,0,2,0,0,0,0,0,0,0],"split_type":[0,0,0,0,0,0,0,0,0,0,0,0,0,0,0,0,0,0,0,0,0,0,0,0,0,0,0,0,0],"sum_hessian":[2.0497743E2,1.9573955E2,9.2378845E0,2.0568167E1,1.7517139E2,5.440859E1,1.20762794E2,1.4792892E1,3.96157E1,8.7625824E1,3.3136967E1,2.0674402E1,1.8941296E1,4.108196E1,4.654387E1,1.7254095E1,1.5882873E1,9.378169E0,1.1296232E1,1.262771E1,6.3135858E0,3.484831E1,6.233651E0,6.1876855E0,1.1066409E1,6.9670534E0,8.915819E0,1.7459951E1,1.7388355E1],"tree_param":{"num_deleted":"0","num_feature":"42","num_nodes":"29","size_leaf_vector":"1"}},{"base_weights":[-3.0111844E-2,9.542819E-2,-3.5089776E-1,-2.6417494E-2,4.896573E-1,3.585491E-2,-4.5418903E-1,1.19817935E-1,-3.2328373E-1,8.935704E-2,-3.702413E-2,-7.035163E-2,-2.4712568E-3,3.8482982E-1,-4.584155E-2,-4.8233816E-1,3.5646223E-2,-5.1546087E-3,8.844414E-2,-2.1614137E-1,5.689885E-2,-8.548169E-2,-0E0,9.116664E-3,-4.099343E-1,-8.032898E-2,-1.3865876E-2],"categories":[],"categories_nodes":[],"categories_segments":[],"categories_sizes":[],"default_left":[0,0,0,0,0,0,0,0,0,0,0,0,0,0,0,0,0,0,0,0,0,0,0,0,0,0,0],"id":8,"left_children":[1,3,5,7,9,-1,11,13,15,-1,-1,-1,-1,17,19,21,-1,-1,-1,23,-1,-1,-1,-1,25,-1,-1],"loss_changes":[8.380133E0,7.275635E0,4.072108E0,5.071892E0,5.7532225E0,0E0,1.6081343E0,3.5170927E0,3.983777E0,0E0,0E0,0E0,0E0,4.0298033E0,3.9798102E0,2.3426085E0,0E0,0E0,0E0,2.2288976E0,0E0,0E0,0E0,0E0,1.0309856E0,0E0,0E0],"parents":[2147483647,0,0,1,1,2,2,3,3,4,4,6,6,7,7,8,8,13,13,14,14,15,15,19,19,24,24],"right_children":[2,4,6,8,10,-1,12,14,16,-1,-1,-1,-1,18,20,22,-1,-1,-1,24,-1,-1,-1,-1,26,-1,-1],"split_conditions":[6E0,2E0,2.8017852E0,5E-1,4.633276E0,3.585491E-2,5E0,3.7273936E0,5E0,8.935704E-2,-3.702413E-2,-7.035163E-2,-2.4712568E-3,3.1894777E0,4.9193497E0,1E0,3.5646223E-2,-5.1546087E-3,8.844414E-2,2E0,5.689885E-2,-8.548169E-2,-0E0,9.116664E-3,3E0,-8.032898E-2,-1.3865876E-2],"split_indices":[29,35,4,21,6,0,13,6,13,0,0,0,0,6,4,26,0,0,0,29,0,0,0,0,13,0,0],"split_type":[0,0,0,0,0,0,0,0,0,0,0,0,0,0,0,0,0,0,0,0,0,0,0,0,0,0,0],"sum_hessian":[2.0240575E2,1.4550906E2,5.6896675E1,1.11673996E2,3.383507E1,7.1363454E0,4.976033E1,7.466033E1,3.7013664E1,2.7679108E1,6.155963E0,4.078692E1,8.973411E0,2.8707747E1,4.5952583E1,2.9980167E1,7.033497E0,1.1722576E1,1.6985168E1,3.5218983E1,1.0733599E1,2.1151888E1,8.82828E0,1.3895138E1,2.1323847E1,1.0971925E1,1.0351922E1],"tree_param":{"num_deleted":"0","num_feature":"42","num_nodes":"27","size_leaf_vector":"1"}},{"base_weights":[-7.83819E-3,-3.201676E-2,5.6721345E-2,-1.3921967E-1,6.6904716E-2,-2.4718072E-1,8.429352E-4,3.217033E-1,-8.839546E-2,-6.171651E-2,-9.184765E-2,-6.66209E-2,4.9125474E-2,4.4990543E-1,-1.1124876E-2,3.9741803E-2,-1.7186694E-1,3.0297946E-2,-2.437143E-1,1.1276389E-2,-2.9764513E-2,9.299896E-2,1.16296336E-1,-4.1873265E-2,-0E0,-0E0,-5.0578497E-2,-2.7235625E-2,6.360848E-2,1.760778E-1,-3.67543E-2,-5.1096333E-3,6.706866E-2],"categories":[],"categories_nodes":[],"categories_segments":[],"categories_sizes":[],"default_left":[0,0,0,0,0,0,0,0,0,0,0,0,0,0,0,0,0,0,0,0,0,0,0,0,0,0,0,0,0,0,0,0,0],"id":9,"left_children":[1,3,-1,5,7,9,11,13,15,-1,17,19,-1,21,-1,-1,23,-1,25,-1,-1,-1,27,-1,29,-1,-1,-1,-1,31,-1,-1,-1],"loss_changes":[2.122067E0,2.1972198E0,0E0,1.6051507E0,4.2918005E0,1.7164316E0,1.2635309E0,2.3472142E0,2.1859343E0,0E0,1.9373776E0,1.0088036E0,0E0,2.3183422E0,0E0,0E0,1.532855E0,0E0,9.519751E-1,0E0,0E0,0E0,2.2949278E0,0E0,1.3576839E0,0E0,0E0,0E0,0E0,1.5245798E0,0E0,0E0,0E0],"parents":[2147483647,0,0,1,1,3,3,4,4,5,5,6,6,7,7,8,8,10,10,11,11,13,13,16,16,18,18,22,22,24,24,29,29],"right_children":[2,4,-1,6,8,10,12,14,16,-1,18,20,-1,22,-1,-1,24,-1,26,-1,-1,-1,28,-1,30,-1,-1,-1,-1,32,-1,-1,-1],"split_conditions":[9.659258E-1,3E0,5.6721345E-2,2E1,7.8196E3,2E0,2.47E2,5.2434316E0,3.275668E0,-6.171651E-2,9.4E0,6.4E1,4.9125474E-2,2E1,-1.1124876E-2,3.9741803E-2,4.253528E0,3.0297946E-2,2.978E3,1.1276389E-2,-2.9764513E-2,9.299896E-2,3.6024501E0,-4.1873265E-2,5E0,-0E0,-5.0578497E-2,-2.7235625E-2,6.360848E-2,5E0,-3.67543E-2,-5.1096333E-3,6.706866E-2],"split_indices":[21,2,0,11,41,37,14,6,4,0,5,14,0,37,0,0,4,0,27,0,0,0,6,0,37,0,0,0,0,2,0,0,0],"split_type":[0,0,0,0,0,0,0,0,0,0,0,0,0,0,0,0,0,0,0,0,0,0,0,0,0,0,0,0,0,0,0,0,0],"sum_hessian":[2.0978053E2,2.0124258E2,8.537951E0,9.8095535E1,1.0314705E2,5.6178795E1,4.191674E1,3.9277752E1,6.3869297E1,2.0563643E1,3.561515E1,3.5867985E1,6.048756E0,3.04346E1,8.843152E0,9.600781E0,5.4268517E1,1.0291162E1,2.532399E1,1.7566322E1,1.8301662E1,1.536563E1,1.5068972E1,2.953212E1,2.4736397E1,9.858856E0,1.5465135E1,7.8773785E0,7.1915927E0,1.6379631E1,8.356767E0,1.0233612E1,6.146018E0],"tree_param":{"num_deleted":"0","num_feature":"42","num_nodes":"33","size_leaf_vector":"1"}},{"base_weights":[6.0502416E-3,1.400169E-1,-7.212982E-2,3.8783753E-4,4.9614298E-1,9.531598E-2,-3.3446097E-1,1.2940997E-1,6.8437564E-1,1.955804E-1,-4.4676825E-2,1.671224E-3,-6.1933048E-2,6.3071884E-2,-1.3978607E-2,3.1011611E-2,1.1735072E-1,3.2646084E-1,-2.8409314E-1,5.351186E-3,6.1357886E-1,-7.618718E-2,9.695045E-3,-2.9592883E-2,5.7761632E-2,9.737279E-2,2.9681673E-2],"categories":[],"categories_nodes":[],"categories_segments":[],"categories_sizes":[],"default_left":[0,0,0,0,0,0,0,0,0,0,0,0,0,0,0,0,0,0,0,0,0,0,0,0,0,0,0],"id":10,"left_children":[1,3,-1,5,7,9,11,13,15,17,-1,-1,-1,-1,-1,-1,-1,19,21,23,25,-1,-1,-1,-1,-1,-1],"loss_changes":[1.5912225E1,8.481219E0,0E0,4.028039E0,2.8675709E0,4.5138373E0,1.5115952E0,1.8322535E0,2.0922413E0,5.495782E0,0E0,0E0,0E0,0E0,0E0,0E0,0E0,6.022752E0,2.231244E0,3.7230375E0,1.0845318E0,0E0,0E0,0E0,0E0,0E0,0E0],"parents":[2147483647,0,0,1,1,3,3,4,4,5,5,6,6,7,7,8,8,9,9,17,17,18,18,19,19,20,20],"right_children":[2,4,-1,6,8,10,12,14,16,18,-1,-1,-1,-1,-1,-1,-1,20,22,24,26,-1,-1,-1,-1,-1,-1],"split_conditions":[5E-1,3.54772E4,-7.212982E-2,1E0,2.024E3,1.9000003E0,8.9E0,2E0,-1.8369701E-16,1.1E1,-4.4676825E-2,1.671224E-3,-6.1933048E-2,6.3071884E-2,-1.3978607E-2,3.1011611E-2,1.1735072E-1,9.4E0,3.41E2,6.234898E-1,9.2379E0,-7.618718E-2,9.695045E-3,-2.9592883E-2,5.7761632E-2,9.737279E-2,2.9681673E-2],"split_indices":[22,41,0,16,15,40,5,37,22,1,0,0,0,0,0,0,0,5,14,20,34,0,0,0,0,0,0],"split_type":[0,0,0,0,0,0,0,0,0,0,0,0,0,0,0,0,0,0,0,0,0,0,0,0,0,0,0],"sum_hessian":[2.1222351E2,1.7262967E2,3.9593838E1,1.26059E2,4.6570667E1,1.0009772E2,2.5961277E1,1.7503149E1,2.9067518E1,8.288738E1,1.721034E1,7.0307465E0,1.893053E1,6.9476814E0,1.0555469E1,1.1062864E1,1.8004654E1,6.61936E1,1.6693775E1,3.273158E1,3.3462025E1,9.113838E0,7.579938E0,2.1360764E1,1.1370816E1,2.3161404E1,1.0300619E1],"tree_param":{"num_deleted":"0","num_feature":"42","num_nodes":"27","size_leaf_vector":"1"}},{"base_weights":[1.187695E-2,-7.699592E-2,5.467897E-1,9.587465E-2,-2.824508E-1,1.6537704E-2,9.598871E-2,3.1274647E-1,-3.7001628E-1,-7.5297974E-2,-1.2487396E-1,5.182592E-2,6.908821E-1,-7.216814E-2,-4.3968935E-3,7.2059E-2,-3.3995903E-1,-1.4303021E-1,5.635716E-2,8.373265E-3,1.13651454E-1,6.42097E-2,-1.1858614E-1,-0E0,-4.75809E-1,-3.822196E-1,4.778269E-2,1.9597374E-2,-5.4781377E-2,-6.6207484E-3,-8.174721E-2,-8.047343E-2,1.8816338E-3],"categories":[],"categories_nodes":[],"categories_segments":[],"categories_sizes":[],"default_left":[0,0,0,0,0,0,0,0,0,0,0,0,0,0,0,0,0,0,0,0,0,0,0,0,0,0,0,0,0,0,0,0,0],"id":11,"left_children":[1,3,5,7,9,-1,-1,11,13,-1,15,17,19,-1,-1,21,23,25,-1,-1,-1,-1,27,-1,29,31,-1,-1,-1,-1,-1,-1,-1],"loss_changes":[1.0319812E1,6.601161E0,1.9168339E0,1.0227664E1,3.5008302E0,0E0,0E0,6.4943314E0,1.6708946E0,0E0,2.6113048E0,3.424692E0,2.575469E0,0E0,0E0,2.7044392E0,1.4447067E0,3.819731E0,0E0,0E0,0E0,0E0,1.976666E0,0E0,1.0139084E0,2.2025986E0,0E0,0E0,0E0,0E0,0E0,0E0,0E0],"parents":[2147483647,0,0,1,1,2,2,3,3,4,4,7,7,8,8,10,10,11,11,12,12,15,15,16,16,17,17,22,22,24,24,25,25],"right_children":[2,4,6,8,10,-1,-1,12,14,-1,16,18,20,-1,-1,22,24,26,-1,-1,-1,-1,28,-1,30,32,-1,-1,-1,-1,-1,-1,-1],"split_conditions":[7.0710677E-1,9.2379E0,5E0,4.579953E0,-8.660254E-1,1.6537704E-2,9.598871E-2,8.7168E3,5.5463614E0,-7.5297974E-2,2E1,1.6E1,1.2E1,-7.216814E-2,-4.3968935E-3,6E-1,3E0,4E0,5.635716E-2,8.373265E-3,1.13651454E-1,6.42097E-2,3.8907402E0,-0E0,-8.660254E-1,3.5E0,4.778269E-2,1.9597374E-2,-5.4781377E-2,-6.6207484E-3,-8.174721E-2,-8.047343E-2,1.8816338E-3],"split_indices":[22,34,1,6,21,0,0,41,6,0,12,0,0,0,0,3,1,2,0,0,0,0,6,0,22,3,0,0,0,0,0,0,0],"split_type":[0,0,0,0,0,0,0,0,0,0,0,0,0,0,0,0,0,0,0,0,0,0,0,0,0,0,0,0,0,0,0,0,0],"sum_hessian":[2.0993935E2,1.8071477E2,2.9224579E1,9.7638016E1,8.307675E1,1.0462267E1,1.8762312E1,6.758487E1,3.0053144E1,2.6656374E1,5.642038E1,4.1785038E1,2.5799831E1,1.8103024E1,1.1950121E1,2.9136385E1,2.7283995E1,2.7620127E1,1.4164911E1,6.6436443E0,1.9156187E1,8.897257E0,2.0239128E1,7.8426065E0,1.944139E1,1.9580511E1,8.039615E0,1.0462804E1,9.776325E0,6.2817225E0,1.3159666E1,1.2370852E1,7.2096586E0],"tree_param":{"num_deleted":"0","num_feature":"42","num_nodes":"33","size_leaf_vector":"1"}},{"base_weights":[-4.3082405E-2,-7.072716E-2,5.467261E-2,-9.837882E-2,4.0540803E-2,-6.7307353E-3,-1.7835513E-1,2.6371917E-1,-1.2669756E-1,-4.2202193E-2,-4.7509138E-2,-0E0,6.360148E-2,-2.6391238E-1,1.4561678E-2,1.0462646E-1,-4.1595887E-2,-3.2370742E-2,3.3978093E-2,-4.7815558E-2,9.667412E-3,-1.06549524E-1,5.9768762E-2,6.668193E-2,-1.3565632E-3,1.7459758E-2,-3.208828E-2,2.2163706E-2,-2.4073757E-2],"categories":[],"categories_nodes":[],"categories_segments":[],"categories_sizes":[],"default_left":[0,0,0,0,0,0,0,0,0,0,0,0,0,0,0,0,0,0,0,0,0,0,0,0,0,0,0,0,0],"id":12,"left_children":[1,3,-1,5,-1,7,9,11,13,-1,15,17,-1,19,21,23,-1,-1,-1,-1,-1,25,-1,-1,27,-1,-1,-1,-1],"loss_changes":[2.5884378E0,2.0770001E0,0E0,1.3126531E0,0E0,2.9977698E0,1.6807284E0,1.6102868E0,1.3827384E0,0E0,2.3975284E0,1.0449235E0,0E0,1.3459303E0,1.974153E0,1.7190063E0,0E0,0E0,0E0,0E0,0E0,9.775336E-1,0E0,0E0,9.6658635E-1,0E0,0E0,0E0,0E0],"parents":[2147483647,0,0,1,1,3,3,5,5,6,6,7,7,8,8,10,10,11,11,13,13,14,14,15,15,21,21,24,24],"right_children":[2,4,-1,6,-1,8,10,12,14,-1,16,18,-1,20,22,24,-1,-1,-1,-1,-1,26,-1,-1,28,-1,-1,-1,-1],"split_conditions":[9.659258E-1,1E0,5.467261E-2,9.6564E3,4.0540803E-2,-5E-1,2.4141E4,6.24E0,3E0,-4.2202193E-2,7.09544E4,3.1E1,6.360148E-2,5.956E3,2.6400003E1,8.4E-1,-4.1595887E-2,-3.2370742E-2,3.3978093E-2,-4.7815558E-2,9.667412E-3,1.13E0,5.9768762E-2,6.668193E-2,4E0,1.7459758E-2,-3.208828E-2,2.2163706E-2,-2.4073757E-2],"split_indices":[21,9,0,41,0,21,41,39,2,0,41,11,0,41,39,39,0,0,0,0,0,39,0,0,37,0,0,0,0],"split_type":[0,0,0,0,0,0,0,0,0,0,0,0,0,0,0,0,0,0,0,0,0,0,0,0,0,0,0,0,0],"sum_hessian":[2.0822565E2,1.9861917E2,9.606472E0,1.8730449E2,1.1314684E1,9.041752E1,9.688697E1,2.6146406E1,6.427111E1,4.3610588E1,5.3276386E1,1.2802092E1,1.3344316E1,3.3200535E1,3.1070572E1,3.383574E1,1.9440645E1,6.529815E0,6.272276E0,2.635229E1,6.8482475E0,2.4747387E1,6.3231864E0,6.391372E0,2.7444366E1,8.05004E0,1.6697346E1,1.3159719E1,1.4284648E1],"tree_param":{"num_deleted":"0","num_feature":"42","num_nodes":"29","size_leaf_vector":"1"}},{"base_weights":[-2.7674104E-3,-5.8509365E-2,6.2704414E-2,-2.1156499E-1,8.125853E-2,-2.8229794E-1,1.6473846E-1,-5.5198364E-2,3.714936E-1,-0E0,-4.8612285E-2,-1.2968979E-2,5.6349024E-2,-2.1109512E-1,3.7638313E-1,7.212982E-2,3.6427034E-3,-5.0315168E-2,3.255443E-2,1.8811566E-1,-3.573608E-1,8.633536E-2,-0E0,5.93372E-2,-1.0020595E-2,-6.1427865E-2,-0E0],"categories":[],"categories_nodes":[],"categories_segments":[],"categories_sizes":[],"default_left":[0,0,0,0,0,0,0,0,0,0,0,0,0,0,0,0,0,0,0,0,0,0,0,0,0,0,0],"id":13,"left_children":[1,3,-1,5,7,9,11,13,15,17,-1,-1,-1,19,21,-1,-1,-1,-1,23,25,-1,-1,-1,-1,-1,-1],"loss_changes":[5.3832307E0,4.0609713E0,0E0,2.5395875E0,4.008446E0,1.8962722E0,1.2208693E0,4.5702934E0,1.725121E0,2.141954E0,0E0,0E0,0E0,3.1532176E0,1.8982289E0,0E0,0E0,0E0,0E0,1.1899931E0,1.4381857E0,0E0,0E0,0E0,0E0,0E0,0E0],"parents":[2147483647,0,0,1,1,3,3,4,4,5,5,6,6,7,7,8,8,9,9,13,13,14,14,19,19,20,20],"right_children":[2,4,-1,6,8,10,12,14,16,18,-1,-1,-1,20,22,-1,-1,-1,-1,24,26,-1,-1,-1,-1,-1,-1],"split_conditions":[7.98237E4,4.3388373E-1,6.2704414E-2,6.4E1,4.709567E0,8E0,7.9E0,2.32448E4,9.2379E0,3.7976E0,-4.8612285E-2,-1.2968979E-2,5.6349024E-2,4E0,-8.660254E-1,7.212982E-2,3.6427034E-3,-5.0315168E-2,3.255443E-2,4.271E3,4.06E1,8.633536E-2,-0E0,5.93372E-2,-1.0020595E-2,-6.1427865E-2,-0E0],"split_indices":[41,19,0,11,6,12,5,41,34,34,0,0,0,39,21,0,0,0,0,41,39,0,0,0,0,0,0],"split_type":[0,0,0,0,0,0,0,0,0,0,0,0,0,0,0,0,0,0,0,0,0,0,0,0,0,0,0],"sum_hessian":[2.0331062E2,1.8429471E2,1.9015907E1,8.884287E1,9.5451836E1,7.601787E1,1.2825004E1,6.500286E1,3.0448973E1,1.8811357E1,5.7206512E1,6.256006E0,6.568998E0,4.907286E1,1.5930002E1,1.8616022E1,1.1832951E1,7.18232E0,1.1629038E1,1.2318233E1,3.6754627E1,8.403683E0,7.526319E0,6.260293E0,6.05794E0,2.7237906E1,9.516722E0],"tree_param":{"num_deleted":"0","num_feature":"42","num_nodes":"27","size_leaf_vector":"1"}},{"base_weights":[9.033444E-3,4.73984E-1,-4.328438E-2,1.0734183E-2,8.97337E-2,1.0763421E-1,-2.2313415E-1,-2.1676724E-1,2.8602278E-1,2.644555E-2,-2.9045174E-1,3.3055574E-2,-3.6424294E-1,-3.6599915E-2,4.127596E-1,-1.3420774E-1,-6.807767E-2,-8.057013E-2,5.0680465E-3,-0E0,5.118798E-1,-2.7545846E-1,1.9213125E-1,6.5997615E-6,7.8256905E-2,-6.783438E-2,-0E0,8.1902765E-2,-3.1005481E-2,-4.2297784E-2,4.186407E-2],"categories":[],"categories_nodes":[],"categories_segments":[],"categories_sizes":[],"default_left":[0,0,0,0,0,0,0,0,0,0,0,0,0,0,0,0,0,0,0,0,0,0,0,0,0,0,0,0,0,0,0],"id":14,"left_children":[1,3,5,-1,-1,7,9,11,13,-1,15,-1,17,-1,19,21,-1,-1,-1,-1,23,25,27,-1,-1,-1,29,-1,-1,-1,-1],"loss_changes":[5.050713E0,1.3396144E0,4.974187E0,0E0,0E0,5.804192E0,2.5363474E0,2.6246467E0,4.8895416E0,0E0,2.2634344E0,0E0,3.077572E0,0E0,2.2343855E0,2.305475E0,0E0,0E0,0E0,0E0,1.6626949E0,2.4830196E0,3.0960684E0,0E0,0E0,0E0,1.9529089E0,0E0,0E0,0E0,0E0],"parents":[2147483647,0,0,1,1,2,2,5,5,6,6,7,7,8,8,10,10,12,12,14,14,15,15,20,20,21,21,22,22,26,26],"right_children":[2,4,6,-1,-1,8,10,12,14,-1,16,-1,18,-1,20,22,-1,-1,-1,-1,24,26,28,-1,-1,-1,30,-1,-1,-1,-1],"split_conditions":[6E0,3E0,1.6170213E-1,1.0734183E-2,8.97337E-2,1.2E1,2E0,2E0,4.4877E0,2.644555E-2,1.584E1,3.3055574E-2,2.3E1,-3.6599915E-2,3E-1,8E0,-6.807767E-2,-8.057013E-2,5.0680465E-3,-0E0,1E0,4.11E0,9.2E0,6.5997615E-6,7.8256905E-2,-6.783438E-2,1E1,8.1902765E-2,-3.1005481E-2,-4.2297784E-2,4.186407E-2],"split_indices":[0,29,38,0,0,0,36,37,30,0,39,0,37,0,3,36,0,0,0,0,37,39,5,0,0,0,11,0,0,0,0],"split_type":[0,0,0,0,0,0,0,0,0,0,0,0,0,0,0,0,0,0,0,0,0,0,0,0,0,0,0,0,0,0,0],"sum_hessian":[1.975618E2,1.9278698E1,1.782831E2,8.218435E0,1.1060263E1,9.616433E1,8.2118774E1,3.3219444E1,6.2944885E1,9.971172E0,7.21476E1,7.026757E0,2.6192688E1,1.0587502E1,5.2357384E1,4.5510616E1,2.6636982E1,1.6182402E1,1.0010285E1,1.0406598E1,4.1950783E1,3.2777187E1,1.273343E1,6.842332E0,3.510845E1,1.7325438E1,1.545175E1,6.382693E0,6.3507376E0,7.1209846E0,8.330765E0],"tree_param":{"num_deleted":"0","num_feature":"42","num_nodes":"31","size_leaf_vector":"1"}},{"base_weights":[-0E0,4.020462E-1,-6.7878455E-2,1.00459136E-1,2.1760222E-1,-1.3501061E-1,7.709957E-2,-1.0696853E-2,4.0898663E-1,2.6616974E-2,-1.7505905E-1,5.723831E-2,-2.4005555E-2,9.055461E-2,-0E0,-2.1817598E-2,-2.7336493E-1,-1.3737884E-1,2.5306864E-2,-2.0353012E-2,1.2406538E-1,-4.671569E-2,-7.171103E-3,-3.543577E-2,9.121519E-3,4.8842523E-2,-1.3441835E-2],"categories":[],"categories_nodes":[],"categories_segments":[],"categories_sizes":[],"default_left":[0,0,0,0,0,0,0,0,0,0,0,0,0,0,0,0,0,0,0,0,0,0,0,0,0,0,0],"id":15,"left_children":[1,3,5,-1,7,9,11,-1,13,-1,15,-1,17,-1,-1,19,21,23,-1,-1,25,-1,-1,-1,-1,-1,-1],"loss_changes":[5.539822E0,1.2929244E0,1.7320825E0,0E0,1.4804531E0,1.6927624E0,2.1492543E0,0E0,1.4853222E0,0E0,1.538517E0,0E0,1.0886875E0,0E0,0E0,9.51907E-1,9.928665E-1,9.501116E-1,0E0,0E0,1.3996117E0,0E0,0E0,0E0,0E0,0E0,0E0],"parents":[2147483647,0,0,1,1,2,2,4,4,5,5,6,6,8,8,10,10,12,12,15,15,16,16,17,17,20,20],"right_children":[2,4,6,-1,8,10,12,-1,14,-1,16,-1,18,-1,-1,20,22,24,-1,-1,26,-1,-1,-1,-1,-1,-1],"split_conditions":[8E0,1E1,1.96E1,1.00459136E-1,1.8E1,-8.660254E-1,2.8350002E1,-1.0696853E-2,4E1,2.6616974E-2,3E-1,5.723831E-2,1.2E1,9.055461E-2,-0E0,3E0,1.01967E1,6.4E0,2.5306864E-2,-2.0353012E-2,-2.5881904E-1,-4.671569E-2,-7.171103E-3,-3.543577E-2,9.121519E-3,4.8842523E-2,-1.3441835E-2],"split_indices":[0,11,39,0,11,17,39,0,11,0,3,0,32,0,0,2,30,3,0,0,21,0,0,0,0,0,0],"split_type":[0,0,0,0,0,0,0,0,0,0,0,0,0,0,0,0,0,0,0,0,0,0,0,0,0,0,0],"sum_hessian":[1.9955437E2,2.7545132E1,1.7200923E2,6.688744E0,2.0856388E1,1.19463295E2,5.2545944E1,7.7517242E0,1.3104664E1,1.0879241E1,1.0858405E2,1.1086586E1,4.145936E1,6.569992E0,6.534672E0,4.4809254E1,6.37748E1,2.8816647E1,1.264271E1,2.4731897E1,2.0077356E1,4.419882E1,1.957598E1,1.8358305E1,1.0458343E1,9.845197E0,1.0232161E1],"tree_param":{"num_deleted":"0","num_feature":"42","num_nodes":"27","size_leaf_vector":"1"}},{"base_weights":[-1.226565E-3,8.595816E-2,-4.126839E-1,-4.5439932E-2,3.4935063E-1,-0E0,-6.638689E-2,-3.476366E-1,9.220593E-2,-7.222297E-3,4.177709E-1,-5.805927E-2,1.7290785E-3,2.947116E-1,-2.3827694E-1,9.127634E-2,2.426335E-1,1.5180033E-1,9.367616E-2,-0E0,-6.064795E-2,7.331342E-2,6.935068E-2,6.867325E-2,-2.2941293E-2,3.8842987E-2,-3.1964194E-2,-3.2811593E-2,1.6005225E-2],"categories":[],"categories_nodes":[],"categories_segments":[],"categories_sizes":[],"default_left":[0,0,0,0,0,0,0,0,0,0,0,0,0,0,0,0,0,0,0,0,0,0,0,0,0,0,0,0,0],"id":16,"left_children":[1,3,5,7,9,-1,-1,11,13,-1,15,-1,-1,17,19,-1,21,23,-1,-1,-1,25,-1,-1,27,-1,-1,-1,-1],"loss_changes":[7.2679515E0,5.8049912E0,1.2397776E0,4.71837E0,1.7187572E0,0E0,0E0,1.3928051E0,5.2260475E0,0E0,1.7044115E0,0E0,0E0,2.3855848E0,1.4820819E0,0E0,1.3155342E0,2.7564468E0,0E0,0E0,0E0,1.8323025E0,0E0,0E0,1.0128578E0,0E0,0E0,0E0,0E0],"parents":[2147483647,0,0,1,1,2,2,3,3,4,4,7,7,8,8,10,10,13,13,14,14,16,16,17,17,21,21,24,24],"right_children":[2,4,6,8,10,-1,-1,12,14,-1,16,-1,-1,18,20,-1,22,24,-1,-1,-1,26,-1,-1,28,-1,-1,-1,-1],"split_conditions":[5E-1,3.4904E1,2.023E3,3E0,3.1127985E0,-0E0,-6.638689E-2,4.76939E0,-5E-1,-7.222297E-3,3.522783E0,-5.805927E-2,1.7290785E-3,5E-1,4.52E1,9.127634E-2,1.61E1,2E0,9.367616E-2,-0E0,-6.064795E-2,8.660254E-1,6.935068E-2,6.867325E-2,2.4E1,3.8842987E-2,-3.1964194E-2,-3.2811593E-2,1.6005225E-2],"split_indices":[22,30,15,37,6,0,0,6,22,0,4,0,0,40,33,0,39,13,0,0,0,17,0,0,12,0,0,0,0],"split_type":[0,0,0,0,0,0,0,0,0,0,0,0,0,0,0,0,0,0,0,0,0,0,0,0,0,0,0,0,0],"sum_hessian":[1.9557716E2,1.6176901E2,3.380815E1,1.079336E2,5.3835415E1,7.0661316E0,2.6742018E1,3.3803707E1,7.41299E1,7.028172E0,4.6807243E1,2.7292461E1,6.5112443E0,4.6804478E1,2.732542E1,1.5210288E1,3.1596954E1,3.7390354E1,9.4141245E0,1.4428657E1,1.2896763E1,2.2087986E1,9.508968E0,1.1530722E1,2.5859632E1,1.3752382E1,8.335604E0,1.0604249E1,1.52553835E1],"tree_param":{"num_deleted":"0","num_feature":"42","num_nodes":"29","size_leaf_vector":"1"}},{"base_weights":[5.6539122E-2,1.7541105E-1,-2.347256E-1,9.871666E-2,3.887053E-1,4.7266014E-2,-4.667465E-1,1.667611E-1,-5.8272194E-2,7.832869E-2,-2.7151054E-2,2.960984E-1,-4.691397E-2,-8.028348E-2,-1.6325193E-2,3.5693973E-2,3.6216864E-1,-1.688133E-2,8.823819E-2,-4.899154E-2,5.5913594E-2,4.9208024E-1,-1.8464541E-2,-1.732535E-1,6.0485195E-2,-7.2193104E-3,8.431244E-2,-3.7050266E-2,4.5507576E-2],"categories":[],"categories_nodes":[],"categories_segments":[],"categories_sizes":[],"default_left":[0,0,0,0,0,0,0,0,0,0,0,0,0,0,0,0,0,0,0,0,0,0,0,0,0,0,0,0,0],"id":17,"left_children":[1,3,5,7,9,11,13,15,-1,-1,-1,17,-1,-1,-1,19,21,-1,-1,23,-1,25,-1,27,-1,-1,-1,-1,-1],"loss_changes":[7.249329E0,2.1921592E0,4.1315966E0,4.2261963E0,5.0380297E0,2.983158E0,1.2649097E0,2.4620967E0,0E0,0E0,0E0,3.3823276E0,0E0,0E0,0E0,2.3241725E0,2.8696165E0,0E0,0E0,3.4546332E0,0E0,2.986588E0,0E0,2.7216332E0,0E0,0E0,0E0,0E0,0E0],"parents":[2147483647,0,0,1,1,2,2,3,3,4,4,5,5,6,6,7,7,11,11,15,15,16,16,19,19,21,21,23,23],"right_children":[2,4,6,8,10,12,14,16,-1,-1,-1,18,-1,-1,-1,20,22,-1,-1,24,-1,26,-1,28,-1,-1,-1,-1,-1],"split_conditions":[6E0,3.36E1,5E-1,2.0240002E1,1.8E1,4.5E1,4E0,8.8693E3,-5.8272194E-2,7.832869E-2,-2.7151054E-2,6.20851E4,-4.691397E-2,-8.028348E-2,-1.6325193E-2,3.9E1,2.025E3,-1.688133E-2,8.823819E-2,4.976947E0,5.5913594E-2,9E0,-1.8464541E-2,8.5E1,6.0485195E-2,-7.2193104E-3,8.431244E-2,-3.7050266E-2,4.5507576E-2],"split_indices":[29,39,3,39,11,11,13,41,0,0,0,41,0,0,0,37,15,0,0,4,0,12,0,11,0,0,0,0,0],"split_type":[0,0,0,0,0,0,0,0,0,0,0,0,0,0,0,0,0,0,0,0,0,0,0,0,0,0,0,0,0],"sum_hessian":[2.0615305E2,1.4784033E2,5.8312725E1,1.1197346E2,3.5866875E1,2.6212044E1,3.210068E1,1.01221504E2,1.0751949E1,2.7050001E1,8.816872E0,1.7116163E1,9.0958805E0,2.0775293E1,1.1325389E1,6.3017075E1,3.820443E1,8.110356E0,9.005807E0,5.225109E1,1.0765984E1,3.0998589E1,7.205841E0,4.356102E1,8.690071E0,6.379211E0,2.4619377E1,3.7287193E1,6.2738276E0],"tree_param":{"num_deleted":"0","num_feature":"42","num_nodes":"29","size_leaf_vector":"1"}},{"base_weights":[-7.5291065E-3,-1.07545756E-1,1.8995549E-1,2.6943106E-2,-2.1986422E-1,-0E0,4.116909E-1,-1.5572949E-1,4.2162615E-1,2.6218807E-2,-2.67013E-1,-1.0983075E-1,5.8446847E-2,8.297047E-2,1.020962E-1,-3.7630904E-2,7.5159473E-3,9.46374E-2,8.890539E-3,-1.0532935E-1,-4.952554E-2,2.7652493E-2,-2.4839099E-1,5.7654668E-2,-2.087199E-2,-3.0576238E-1,1.8192567E-2,2.7727415E-3,-4.9187925E-2,-0E0,-6.0639374E-2],"categories":[],"categories_nodes":[],"categories_segments":[],"categories_sizes":[],"default_left":[0,0,0,0,0,0,0,0,0,0,0,0,0,0,0,0,0,0,0,0,0,0,0,0,0,0,0,0,0,0,0],"id":18,"left_children":[1,3,5,7,9,11,13,15,17,-1,19,21,-1,-1,23,-1,-1,-1,-1,25,-1,-1,27,-1,-1,29,-1,-1,-1,-1,-1],"loss_changes":[4.107909E0,2.204342E0,2.7874265E0,4.82453E0,1.6681604E0,2.136815E0,1.7330785E0,1.3541294E0,1.8746543E0,0E0,1.0278125E0,1.5636531E0,0E0,0E0,1.6246679E0,0E0,0E0,0E0,0E0,1.7556171E0,0E0,0E0,9.8660064E-1,0E0,0E0,1.0601633E0,0E0,0E0,0E0,0E0,0E0],"parents":[2147483647,0,0,1,1,2,2,3,3,4,4,5,5,6,6,7,7,8,8,10,10,11,11,14,14,19,19,22,22,25,25],"right_children":[2,4,6,8,10,12,14,16,18,-1,20,22,-1,-1,24,-1,-1,-1,-1,26,-1,-1,28,-1,-1,30,-1,-1,-1,-1,-1],"split_conditions":[4E0,3.956008E0,4.1303754E0,8.9E0,1.206E3,1.9749998E1,1E1,3.90832E0,9.6E0,2.6218807E-2,2.024E3,2E0,5.8446847E-2,8.297047E-2,1.17E1,-3.7630904E-2,7.5159473E-3,9.46374E-2,8.890539E-3,1.286E4,-4.952554E-2,2.7652493E-2,5E0,5.7654668E-2,-2.087199E-2,3.056E3,1.8192567E-2,2.7727415E-3,-4.9187925E-2,-0E0,-6.0639374E-2],"split_indices":[2,4,4,5,28,39,37,6,5,0,15,39,0,0,5,0,0,0,0,28,0,0,2,0,0,28,0,0,0,0,0],"split_type":[0,0,0,0,0,0,0,0,0,0,0,0,0,0,0,0,0,0,0,0,0,0,0,0,0,0,0,0,0,0,0],"sum_hessian":[2.0597165E2,1.3855367E2,6.7417984E1,6.2110874E1,7.6442795E1,3.8015194E1,2.9402788E1,4.2528008E1,1.9582867E1,6.317582E0,7.012521E1,3.1012707E1,7.0024877E0,1.5363461E1,1.4039327E1,2.706434E1,1.5463666E1,9.019164E0,1.0563704E1,3.127704E1,3.8848175E1,8.243609E0,2.2769098E1,6.240273E0,7.799054E0,1.7788696E1,1.3488344E1,6.774183E0,1.5994915E1,6.0355854E0,1.1753112E1],"tree_param":{"num_deleted":"0","num_feature":"42","num_nodes":"31","size_leaf_vector":"1"}},{"base_weights":[-2.1913908E-2,5.791872E-2,-4.464117E-1,-4.1453443E-2,3.5341612E-1,-7.355417E-2,-0E0,-2.0363037E-1,2.5374517E-1,5.498267E-1,-0E0,-2.809293E-1,2.699899E-2,-1.2315855E-1,5.2135795E-1,9.138095E-2,1.662997E-2,-2.8555185E-2,3.1743836E-2,-3.712992E-1,-0E0,4.2951275E-2,-2.4266277E-2,-5.2703187E-2,2.3130888E-2,8.6676165E-2,1.1063149E-2,-4.6229465E-3,-6.282245E-2,3.0521495E-2,-4.8689548E-2],"categories":[],"categories_nodes":[],"categories_segments":[],"categories_sizes":[],"default_left":[0,0,0,0,0,0,0,0,0,0,0,0,0,0,0,0,0,0,0,0,0,0,0,0,0,0,0,0,0,0,0],"id":19,"left_children":[1,3,5,7,9,-1,-1,11,13,15,17,19,21,23,25,-1,-1,-1,-1,27,29,-1,-1,-1,-1,-1,-1,-1,-1,-1,-1],"loss_changes":[7.010109E0,5.139936E0,1.5424047E0,6.1949887E0,3.1918492E0,0E0,0E0,1.6150177E0,4.8356714E0,1.3087482E0,9.8289126E-1,1.5119896E0,1.5337559E0,1.8506365E0,1.2837148E0,0E0,0E0,0E0,0E0,1.5044518E0,1.7908154E0,0E0,0E0,0E0,0E0,0E0,0E0,0E0,0E0,0E0,0E0],"parents":[2147483647,0,0,1,1,2,2,3,3,4,4,7,7,8,8,9,9,10,10,11,11,12,12,13,13,14,14,19,19,20,20],"right_children":[2,4,6,8,10,-1,-1,12,14,16,18,20,22,24,26,-1,-1,-1,-1,28,30,-1,-1,-1,-1,-1,-1,-1,-1,-1,-1],"split_conditions":[5E-1,3.37974E4,1.23E1,5E-1,-2.5881904E-1,-7.355417E-2,-0E0,1.286E4,1.7E1,2E2,7.818315E-1,5.4E1,8.934E3,4.490764E0,8.660254E-1,9.138095E-2,1.662997E-2,-2.8555185E-2,3.1743836E-2,3.5271113E0,3E0,4.2951275E-2,-2.4266277E-2,-5.2703187E-2,2.3130888E-2,8.6676165E-2,1.1063149E-2,-4.6229465E-3,-6.282245E-2,3.0521495E-2,-4.8689548E-2],"split_indices":[22,41,5,21,21,0,0,28,11,14,19,11,41,6,21,0,0,0,0,6,13,0,0,0,0,0,0,0,0,0,0],"split_type":[0,0,0,0,0,0,0,0,0,0,0,0,0,0,0,0,0,0,0,0,0,0,0,0,0,0,0,0,0,0,0],"sum_hessian":[1.9932582E2,1.6830118E2,3.1024633E1,1.2611507E2,4.2186115E1,2.3934204E1,7.0904293E0,8.2591965E1,4.35231E1,2.6947111E1,1.5239004E1,6.2816772E1,1.9775194E1,1.787294E1,2.5650162E1,1.848696E1,8.460151E0,8.6718645E0,6.5671396E0,4.616918E1,1.664759E1,8.5315895E0,1.1243605E1,9.611202E0,8.261738E0,1.8098574E1,7.5515885E0,1.2624997E1,3.3544186E1,1.0069596E1,6.577994E0],"tree_param":{"num_deleted":"0","num_feature":"42","num_nodes":"31","size_leaf_vector":"1"}},{"base_weights":[3.3774044E-2,-7.986895E-2,4.465789E-1,-6.584865E-2,-3.197886E-2,-0E0,7.175697E-2,1.2101069E-1,-1.5489426E-1,2.582652E-1,-2.0080483E-1,-4.628958E-1,-2.6699474E-2,7.569322E-2,1.0397417E-1,-0E0,-6.0623202E-2,-7.8599855E-2,-9.872246E-3,1.9736017E-1,-2.7087393E-1,-5.0209004E-2,2.814276E-1,4.731049E-2,-2.5090586E-2,-7.2588906E-2,-5.014472E-2,7.076276E-3,9.540754E-2,-3.5848066E-2,3.3190053E-2],"categories":[],"categories_nodes":[],"categories_segments":[],"categories_sizes":[],"default_left":[0,0,0,0,0,0,0,0,0,0,0,0,0,0,0,0,0,0,0,0,0,0,0,0,0,0,0,0,0,0,0],"id":20,"left_children":[1,3,5,-1,7,-1,-1,9,11,13,15,17,19,-1,21,-1,-1,-1,-1,23,25,-1,27,-1,-1,-1,29,-1,-1,-1,-1],"loss_changes":[1.0058483E1,3.1107793E0,2.2845116E0,0E0,2.8920567E0,0E0,0E0,3.074479E0,3.1889973E0,2.021026E0,8.92192E-1,9.439888E-1,3.5997498E0,0E0,3.2364373E0,0E0,0E0,0E0,0E0,2.302014E0,1.7118859E0,0E0,2.4464993E0,0E0,0E0,0E0,1.5272123E0,0E0,0E0,0E0,0E0],"parents":[2147483647,0,0,1,1,2,2,4,4,7,7,8,8,9,9,10,10,11,11,12,12,14,14,19,19,20,20,22,22,26,26],"right_children":[2,4,6,-1,8,-1,-1,10,12,14,16,18,20,-1,22,-1,-1,-1,-1,24,26,-1,28,-1,-1,-1,30,-1,-1,-1,-1],"split_conditions":[5E-1,3E0,1E0,-6.584865E-2,1.9E1,-0E0,7.175697E-2,3.3331E4,1.1E1,1E0,1.584E1,1.01967E1,4E1,7.569322E-2,3.7560656E0,-0E0,-6.0623202E-2,-7.8599855E-2,-9.872246E-3,4.965821E0,3.5E1,-5.0209004E-2,2.2E1,4.731049E-2,-2.5090586E-2,-7.2588906E-2,3E-1,7.076276E-3,9.540754E-2,-3.5848066E-2,3.3190053E-2],"split_indices":[22,11,37,0,11,0,0,28,0,37,39,30,31,0,6,0,0,0,0,6,11,0,37,0,0,0,3,0,0,0,0],"split_type":[0,0,0,0,0,0,0,0,0,0,0,0,0,0,0,0,0,0,0,0,0,0,0,0,0,0,0,0,0,0,0],"sum_hessian":[2.0828505E2,1.6371506E2,4.456998E1,1.415501E1,1.4956006E2,7.8017564E0,3.6768223E1,6.524881E1,8.431124E1,4.6822784E1,1.8426023E1,2.2536823E1,6.1774418E1,1.2879322E1,3.3943462E1,1.220455E1,6.2214727E0,1.5230338E1,7.306485E0,3.157101E1,3.0203407E1,7.9437094E0,2.5999754E1,2.3019306E1,8.551705E0,1.1316254E1,1.8887154E1,1.9100458E1,6.8992963E0,1.1710846E1,7.176307E0],"tree_param":{"num_deleted":"0","num_feature":"42","num_nodes":"31","size_leaf_vector":"1"}},{"base_weights":[5.8929678E-2,-7.403575E-2,2.0865235E-1,2.447082E-2,-4.3784354E-2,3.235808E-1,-2.5690395E-1,-3.9266307E-2,6.880494E-2,5.3112656E-1,1.5987732E-1,-5.9325125E-2,3.28689E-3,-1.1154594E-1,6.399095E-2,9.591885E-2,8.882775E-3,7.503824E-2,3.910835E-2,-4.2434916E-2,2.0413332E-2,-1.6016695E-1,3.370363E-1,-1.2605151E-2,3.4349263E-2,2.1156067E-2,-4.1485414E-2,8.148671E-2,-2.2020217E-3],"categories":[],"categories_nodes":[],"categories_segments":[],"categories_sizes":[],"default_left":[0,0,0,0,0,0,0,0,0,0,0,0,0,0,0,0,0,0,0,0,0,0,0,0,0,0,0,0,0],"id":21,"left_children":[1,3,5,7,-1,9,11,13,-1,15,17,-1,-1,19,-1,-1,-1,-1,21,-1,23,25,27,-1,-1,-1,-1,-1,-1],"loss_changes":[4.1916733E0,2.9305253E0,5.4695854E0,2.7675683E0,0E0,2.3304968E0,1.2809658E0,2.6867988E0,0E0,2.7409248E0,2.1520367E0,0E0,0E0,1.9516189E0,0E0,0E0,0E0,0E0,2.5583923E0,0E0,1.2537519E0,1.3833323E0,2.010066E0,0E0,0E0,0E0,0E0,0E0,0E0],"parents":[2147483647,0,0,1,1,2,2,3,3,5,5,6,6,7,7,9,9,10,10,13,13,18,18,20,20,21,21,22,22],"right_children":[2,4,6,8,-1,10,12,14,-1,16,18,-1,-1,20,-1,-1,-1,-1,22,-1,24,26,28,-1,-1,-1,-1,-1,-1],"split_conditions":[3E0,4.7E1,3E0,3.1E1,-4.3784354E-2,5.956E3,1.1000001E0,8.660254E-1,6.880494E-2,2.5E1,5E0,-5.9325125E-2,3.28689E-3,8.46E0,6.399095E-2,9.591885E-2,8.882775E-3,7.503824E-2,2.3E1,-4.2434916E-2,1.7E1,9.540001E0,1E0,-1.2605151E-2,3.4349263E-2,2.1156067E-2,-4.1485414E-2,8.148671E-2,-2.2020217E-3],"split_indices":[13,12,35,12,0,41,3,21,0,37,11,0,0,39,0,0,0,0,11,0,11,39,25,0,0,0,0,0,0],"split_type":[0,0,0,0,0,0,0,0,0,0,0,0,0,0,0,0,0,0,0,0,0,0,0,0,0,0,0,0,0],"sum_hessian":[2.0480537E2,1.0758892E2,9.721645E1,7.809053E1,2.9498388E1,7.9064415E1,1.8152035E1,7.0028046E1,8.062487E0,3.2073605E1,4.699081E1,1.0898036E1,7.2539997E0,6.345191E1,6.576136E0,2.1113453E1,1.0960153E1,8.428978E0,3.8561832E1,2.4482666E1,3.8969242E1,2.2825361E1,1.573647E1,2.5931496E1,1.3037745E1,6.634653E0,1.6190708E1,8.588808E0,7.1476626E0],"tree_param":{"num_deleted":"0","num_feature":"42","num_nodes":"29","size_leaf_vector":"1"}},{"base_weights":[3.3043243E-2,1.337915E-1,-3.9140937E-1,-6.45392E-3,4.0422875E-1,-6.366012E-2,-0E0,3.3198845E-1,-2.210192E-1,-2.9072603E-2,5.5165035E-1,-3.839254E-2,4.7810856E-1,7.567738E-4,-3.1856284E-1,4.6627086E-2,1.07058175E-1,6.180311E-1,-3.777504E-3,-2.7125804E-2,2.7847366E-2,-5.6668554E-2,1.3318623E-2,1.0091303E-1,3.1244685E-3],"categories":[],"categories_nodes":[],"categories_segments":[],"categories_sizes":[],"default_left":[0,0,0,0,0,0,0,0,0,0,0,0,0,0,0,0,0,0,0,0,0,0,0,0,0],"id":22,"left_children":[1,3,5,7,9,-1,-1,11,13,-1,15,-1,17,19,21,-1,-1,23,-1,-1,-1,-1,-1,-1,-1],"loss_changes":[8.108284E0,6.0516033E0,1.4865756E0,7.5777874E0,5.3285046E0,0E0,0E0,3.9731421E0,1.5261619E0,0E0,1.3564672E0,0E0,2.642187E0,9.744971E-1,2.407352E0,0E0,0E0,2.0879478E0,0E0,0E0,0E0,0E0,0E0,0E0,0E0],"parents":[2147483647,0,0,1,1,2,2,3,3,4,4,7,7,8,8,10,10,12,12,13,13,14,14,17,17],"right_children":[2,4,6,8,10,-1,-1,12,14,-1,16,-1,18,20,22,-1,-1,24,-1,-1,-1,-1,-1,-1,-1],"split_conditions":[5E-1,6E0,1.22E1,1.1E1,1E1,-6.366012E-2,-0E0,2.023E3,9E0,-2.9072603E-2,2E-1,-3.839254E-2,2.7000003E0,1.19E2,6.4E1,4.6627086E-2,1.07058175E-1,8.660254E-1,-3.777504E-3,-2.7125804E-2,2.7847366E-2,-5.6668554E-2,1.3318623E-2,1.0091303E-1,3.1244685E-3],"split_indices":[22,29,5,0,0,0,0,15,11,0,40,0,3,14,11,0,0,18,0,0,0,0,0,0,0],"split_type":[0,0,0,0,0,0,0,0,0,0,0,0,0,0,0,0,0,0,0,0,0,0,0,0,0],"sum_hessian":[1.8797899E2,1.5363234E2,3.434664E1,1.0137262E2,5.2259727E1,2.8050241E1,6.296398E0,3.8261017E1,6.31116E1,9.296911E0,4.296282E1,6.418461E0,3.1842556E1,1.8613508E1,4.449809E1,2.7872137E1,1.5090679E1,2.5243416E1,6.5991397E0,8.498483E0,1.0115026E1,3.572502E1,8.773067E0,1.9195433E1,6.047982E0],"tree_param":{"num_deleted":"0","num_feature":"42","num_nodes":"25","size_leaf_vector":"1"}},{"base_weights":[1.3293127E-2,9.704116E-2,-2.6413408E-1,2.4206363E-1,-1.633379E-1,-4.2224753E-1,-0E0,-1.617148E-1,3.142001E-1,4.858486E-2,-3.506351E-1,1.3584121E-2,-7.87127E-2,4.3020874E-2,-4.4008743E-2,1.6093157E-2,-6.993689E-2,3.9683655E-1,8.350687E-2,-4.667979E-1,-5.33874E-4,2.725088E-1,1.0228994E-1,7.7763885E-2,-1.0038213E-1,-1.9871453E-2,-8.036035E-2,-1.8314451E-2,4.709393E-1,-5.771413E-2,3.8717132E-2,8.1630506E-2,-2.7735683E-3],"categories":[],"categories_nodes":[],"categories_segments":[],"categories_sizes":[],"default_left":[0,0,0,0,0,0,0,0,0,0,0,0,0,0,0,0,0,0,0,0,0,0,0,0,0,0,0,0,0,0,0,0,0],"id":23,"left_children":[1,3,5,7,9,11,13,15,17,-1,19,-1,-1,-1,-1,-1,-1,21,23,25,-1,27,-1,-1,29,-1,-1,-1,31,-1,-1,-1,-1],"loss_changes":[4.750363E0,6.143172E0,1.9179528E0,3.1908612E0,5.9553337E0,3.0236268E0,2.3545895E0,1.9834796E0,1.4728746E0,0E0,1.5830703E0,0E0,0E0,0E0,0E0,0E0,0E0,2.2922153E0,2.8426661E0,1.0133691E0,0E0,4.514902E0,0E0,0E0,3.0990932E0,0E0,0E0,0E0,2.9540281E0,0E0,0E0,0E0,0E0],"parents":[2147483647,0,0,1,1,2,2,3,3,4,4,5,5,6,6,7,7,8,8,10,10,17,17,18,18,19,19,21,21,24,24,28,28],"right_children":[2,4,6,8,10,12,14,16,18,-1,20,-1,-1,-1,-1,-1,-1,22,24,26,-1,28,-1,-1,30,-1,-1,-1,32,-1,-1,-1,-1],"split_conditions":[2.9056E4,2.5881904E-1,8.660254E-1,3.2293E0,6E0,2.9E0,4.3931766E0,-7.0710677E-1,4.7072387E0,4.858486E-2,2.3E1,1.3584121E-2,-7.87127E-2,4.3020874E-2,-4.4008743E-2,1.6093157E-2,-6.993689E-2,4.401753E0,1.3E1,8.9E0,-5.33874E-4,5.9794E3,1.0228994E-1,7.7763885E-2,1.15E1,-1.9871453E-2,-8.036035E-2,-1.8314451E-2,2.3824E4,-5.771413E-2,3.8717132E-2,8.1630506E-2,-2.7735683E-3],"split_indices":[41,21,17,34,0,4,4,21,6,0,37,0,0,0,0,0,0,6,0,5,0,41,0,0,5,0,0,0,41,0,0,0,0],"split_type":[0,0,0,0,0,0,0,0,0,0,0,0,0,0,0,0,0,0,0,0,0,0,0,0,0,0,0,0,0,0,0,0,0],"sum_hessian":[2.0348987E2,1.5825478E2,4.5235092E1,1.026707E2,5.5584084E1,2.7378387E1,1.7856705E1,1.4421231E1,8.8249466E1,1.345802E1,4.2126064E1,6.5549517E0,2.0823437E1,8.888154E0,8.96855E0,8.2533245E0,6.1679068E0,6.2808395E1,2.5441074E1,3.025979E1,1.1866273E1,5.0458004E1,1.2350391E1,6.2585993E0,1.9182474E1,1.1536609E1,1.872318E1,1.5941608E1,3.4516396E1,1.0737394E1,8.44508E0,2.6642536E1,7.873859E0],"tree_param":{"num_deleted":"0","num_feature":"42","num_nodes":"33","size_leaf_vector":"1"}},{"base_weights":[9.846062E-3,-2.4737028E-2,2.927872E-1,-5.438147E-2,4.2044986E-2,-9.774931E-3,4.6220246E-1,-3.1708717E-1,-1.1127177E-2,8.605505E-2,5.185617E-3,-0E0,-5.7681613E-2,2.1629849E-1,-7.3657386E-2,-8.836523E-3,4.0120166E-2,-3.089072E-1,-0E0,-6.197297E-2,4.1937982E-4,-1.1622161E-1,1.525483E-1,2.7960446E-2,-2.535327E-2,3.9190922E-2,-1.3702963E-2],"categories":[],"categories_nodes":[],"categories_segments":[],"categories_sizes":[],"default_left":[0,0,0,0,0,0,0,0,0,0,0,0,0,0,0,0,0,0,0,0,0,0,0,0,0,0,0],"id":24,"left_children":[1,3,5,7,-1,-1,9,11,13,-1,-1,-1,-1,15,17,-1,-1,19,21,-1,-1,23,25,-1,-1,-1,-1],"loss_changes":[2.1076915E0,1.7891604E0,1.6734543E0,1.7991713E0,0E0,0E0,1.0830309E0,8.7317824E-1,2.093005E0,0E0,0E0,0E0,0E0,9.215859E-1,2.1598487E0,0E0,0E0,1.6838636E0,1.6710154E0,0E0,0E0,1.3865206E0,1.6909432E0,0E0,0E0,0E0,0E0],"parents":[2147483647,0,0,1,1,2,2,3,3,6,6,7,7,8,8,13,13,14,14,17,17,18,18,21,21,22,22],"right_children":[2,4,6,8,-1,-1,10,12,14,-1,-1,-1,-1,16,18,-1,-1,20,22,-1,-1,24,26,-1,-1,-1,-1],"split_conditions":[6.8E1,1.3E1,-8.660254E-1,5.6E1,4.2044986E-2,-9.774931E-3,7.0710677E-1,1.08E1,3E-1,8.605505E-2,5.185617E-3,-0E0,-5.7681613E-2,8E0,9.0000004E-1,-8.836523E-3,4.0120166E-2,6.123234E-17,6.234898E-1,-6.197297E-2,4.1937982E-4,4.155E1,1.1E1,2.7960446E-2,-2.535327E-2,3.9190922E-2,-1.3702963E-2],"split_indices":[11,5,21,14,0,0,21,5,3,0,0,0,0,12,3,0,0,22,20,0,0,33,5,0,0,0,0],"split_type":[0,0,0,0,0,0,0,0,0,0,0,0,0,0,0,0,0,0,0,0,0,0,0,0,0,0,0],"sum_hessian":[2.0179105E2,1.800455E2,2.1745552E1,1.6820654E2,1.1838963E1,6.4621544E0,1.5283397E1,2.0936825E1,1.4726971E2,9.187193E0,6.096204E0,6.376584E0,1.4560242E1,2.9493916E1,1.17775795E2,6.147884E0,2.3346031E1,2.7657774E1,9.011803E1,1.8363668E1,9.2941065E0,5.0325222E1,3.97928E1,7.9977694E0,4.2327454E1,2.6136806E1,1.3655995E1],"tree_param":{"num_deleted":"0","num_feature":"42","num_nodes":"27","size_leaf_vector":"1"}},{"base_weights":[-1.858266E-3,9.6168496E-2,-6.430613E-2,-4.6770364E-2,1.5267648E-1,8.632047E-3,3.0367762E-1,2.7765062E-1,-1.7822789E-1,3.6347312E-1,-8.589343E-3,5.3910337E-2,-2.2878157E-2,-2.7536258E-1,2.8522484E-2,4.671576E-1,-0E0,-3.8420382E-1,1.9316118E-2,1.324159E-2,7.487401E-2,-6.7635946E-2,5.120757E-4],"categories":[],"categories_nodes":[],"categories_segments":[],"categories_sizes":[],"default_left":[0,0,0,0,0,0,0,0,0,0,0,0,0,0,0,0,0,0,0,0,0,0,0],"id":25,"left_children":[1,3,-1,-1,5,7,9,11,13,15,-1,-1,-1,17,-1,19,-1,21,-1,-1,-1,-1,-1],"loss_changes":[9.451686E0,4.1412935E0,0E0,0E0,3.035969E0,4.021536E0,1.6926732E0,2.2230701E0,1.8948566E0,2.4274836E0,0E0,0E0,0E0,1.9606583E0,0E0,1.4620838E0,0E0,1.8203464E0,0E0,0E0,0E0,0E0,0E0],"parents":[2147483647,0,0,1,1,4,4,5,5,6,6,7,7,8,8,9,9,13,13,15,15,17,17],"right_children":[2,4,-1,-1,6,8,10,12,14,16,-1,-1,-1,18,-1,20,-1,22,-1,-1,-1,-1,-1],"split_conditions":[5E-1,-7.818315E-1,-6.430613E-2,-4.6770364E-2,4.8282E3,1.1E1,3.06E2,3.02E2,4.06E1,9.749279E-1,-8.589343E-3,5.3910337E-2,-2.2878157E-2,9.749279E-1,2.8522484E-2,7.7E-1,-0E0,2.73E2,1.9316118E-2,1.324159E-2,7.487401E-2,-6.7635946E-2,5.120757E-4],"split_indices":[22,19,0,0,27,0,14,14,39,19,0,0,0,19,0,39,0,14,0,0,0,0,0],"split_type":[0,0,0,0,0,0,0,0,0,0,0,0,0,0,0,0,0,0,0,0,0,0,0],"sum_hessian":[1.908035E2,1.5943083E2,3.1372663E1,1.5895855E1,1.4353499E2,7.572125E1,6.781373E1,3.1526777E1,4.4194473E1,5.9279182E1,8.534549E0,2.5131481E1,6.395296E0,3.6694763E1,7.499713E0,4.630883E1,1.297035E1,3.0030119E1,6.664642E0,1.1791248E1,3.4517582E1,2.2744947E1,7.285172E0],"tree_param":{"num_deleted":"0","num_feature":"42","num_nodes":"23","size_leaf_vector":"1"}},{"base_weights":[5.5262048E-2,-6.547808E-2,1.0860738E-1,2.7614948E-1,-5.459869E-2,1.0076082E-1,4.591678E-1,5.638902E-2,-3.8723052E-1,-6.881642E-2,2.1884722E-1,3.3080846E-3,6.029374E-1,2.4755524E-1,-1.9957438E-1,-7.491046E-2,3.7302643E-3,4.1640002E-1,-4.854733E-2,1.7168501E-2,9.500549E-2,4.0646207E-1,-1.0765766E-2,-4.032772E-1,2.2747267E-2,6.706865E-2,-0E0,8.4211165E-3,6.872944E-2,-7.2273605E-2,-1.8763929E-3],"categories":[],"categories_nodes":[],"categories_segments":[],"categories_sizes":[],"default_left":[0,0,0,0,0,0,0,0,0,0,0,0,0,0,0,0,0,0,0,0,0,0,0,0,0,0,0,0,0,0,0],"id":26,"left_children":[1,-1,3,5,7,9,11,13,15,-1,17,-1,19,21,23,-1,-1,25,-1,-1,-1,27,-1,29,-1,-1,-1,-1,-1,-1,-1],"loss_changes":[5.781698E0,0E0,5.091675E0,2.634149E0,3.5834103E0,3.7759442E0,2.4218216E0,3.5358813E0,2.0887756E0,0E0,5.3867483E0,0E0,1.3130798E0,2.3718908E0,2.4982867E0,0E0,0E0,1.2168074E0,0E0,0E0,0E0,8.901806E-1,0E0,9.5463324E-1,0E0,0E0,0E0,0E0,0E0,0E0,0E0],"parents":[2147483647,0,0,2,2,3,3,4,4,5,5,6,6,7,7,8,8,10,10,12,12,13,13,14,14,17,17,21,21,23,23],"right_children":[2,-1,4,6,8,10,12,14,16,-1,18,-1,20,22,24,-1,-1,26,-1,-1,-1,28,-1,30,-1,-1,-1,-1,-1,-1,-1],"split_conditions":[3E0,-6.547808E-2,1.9E1,1E1,5E-1,4.155E1,-7.0710677E-1,4E1,-1.8369701E-16,-6.881642E-2,2.9056E4,3.3080846E-3,4.4877E0,4E0,5E-1,-7.491046E-2,3.7302643E-3,4E0,-4.854733E-2,1.7168501E-2,9.500549E-2,4.968E3,-1.0765766E-2,4E0,2.2747267E-2,6.706865E-2,-0E0,8.4211165E-3,6.872944E-2,-7.2273605E-2,-1.8763929E-3],"split_indices":[11,0,11,11,21,33,22,31,22,0,41,0,30,13,22,0,0,13,0,0,0,41,0,13,0,0,0,0,0,0,0],"split_type":[0,0,0,0,0,0,0,0,0,0,0,0,0,0,0,0,0,0,0,0,0,0,0,0,0,0,0,0,0,0,0],"sum_hessian":[1.9558223E2,1.5237462E1,1.8034477E2,8.954602E1,9.079875E1,4.8202263E1,4.1343758E1,6.832063E1,2.2478117E1,6.1711583E0,4.2031105E1,1.147228E1,2.9871479E1,4.0003246E1,2.8317385E1,1.5770699E1,6.7074194E0,3.23497E1,9.681402E0,7.5001364E0,2.2371342E1,2.7497963E1,1.2505282E1,1.888689E1,9.430495E0,2.5529028E1,6.8206735E0,8.5565E0,1.8941462E1,1.2442092E1,6.444798E0],"tree_param":{"num_deleted":"0","num_feature":"42","num_nodes":"31","size_leaf_vector":"1"}},{"base_weights":[-3.828658E-2,-6.515289E-2,2.2135821E-1,-1.7946476E-2,-4.852742E-2,5.822611E-2,-1.9282809E-2,-1.04453884E-1,1.1474851E-1,-1.3945413E-1,2.9966498E-2,3.1754667E-1,-7.242909E-2,9.0628944E-2,-1.8337671E-1,1.5024999E-2,8.652851E-2,-5.1076286E-2,5.849717E-2,4.1427355E-2,-1.838649E-2,-2.2418918E-1,7.3707295E-3,-3.2754812E-2,3.952883E-2,5.1828597E-2,-2.0145165E-2,1.1519163E-2,-3.4847118E-2],"categories":[],"categories_nodes":[],"categories_segments":[],"categories_sizes":[],"default_left":[0,0,0,0,0,0,0,0,0,0,0,0,0,0,0,0,0,0,0,0,0,0,0,0,0,0,0,0,0],"id":27,"left_children":[1,3,5,7,-1,-1,-1,9,11,13,-1,15,17,19,21,23,-1,-1,25,-1,-1,27,-1,-1,-1,-1,-1,-1,-1],"loss_changes":[1.4644747E0,2.679033E0,1.8033504E0,2.0135937E0,0E0,0E0,0E0,1.2799428E0,2.7057166E0,1.0739633E0,0E0,3.2215254E0,1.6474385E0,9.6598065E-1,9.2586637E-1,1.6951759E0,0E0,0E0,2.0503395E0,0E0,0E0,1.0787349E0,0E0,0E0,0E0,0E0,0E0,0E0,0E0],"parents":[2147483647,0,0,1,1,2,2,3,3,7,7,8,8,9,9,11,11,12,12,13,13,14,14,15,15,18,18,21,21],"right_children":[2,4,6,8,-1,-1,-1,10,12,14,-1,16,18,20,22,24,-1,-1,26,-1,-1,28,-1,-1,-1,-1,-1,-1,-1],"split_conditions":[5.3733134E0,1.18E1,6.198387E0,9E0,-4.852742E-2,5.822611E-2,-1.9282809E-2,7.6E1,2.1E1,5E0,2.9966498E-2,-2.5881904E-1,3.275668E0,5E1,9.500001E0,2E0,8.652851E-2,-5.1076286E-2,4.3388373E-1,4.1427355E-2,-1.838649E-2,7.6E0,7.3707295E-3,-3.2754812E-2,3.952883E-2,5.1828597E-2,-2.0145165E-2,1.1519163E-2,-3.4847118E-2],"split_indices":[4,5,4,37,0,0,0,11,37,11,0,22,4,12,3,13,0,0,19,0,0,5,0,0,0,0,0,0,0],"split_type":[0,0,0,0,0,0,0,0,0,0,0,0,0,0,0,0,0,0,0,0,0,0,0,0,0,0,0,0,0],"sum_hessian":[2.13101E2,1.9566316E2,1.7437841E1,1.7213281E2,2.3530346E1,1.1296475E1,6.141366E0,1.06182205E2,6.595061E1,9.805558E1,8.126623E0,3.2046585E1,3.3904026E1,1.4013842E1,8.404174E1,1.8581112E1,1.3465473E1,9.748173E0,2.4155853E1,7.605957E0,6.407884E0,7.327513E1,1.0766605E1,9.074967E0,9.506145E0,9.445875E0,1.4709978E1,7.2626433E0,6.601249E1],"tree_param":{"num_deleted":"0","num_feature":"42","num_nodes":"29","size_leaf_vector":"1"}},{"base_weights":[-3.4264065E-2,-6.856461E-2,1.5952233E-2,2.3310553E-1,-8.949802E-2,3.3450615E-1,-4.192785E-2,-1.9141854E-1,6.760204E-2,7.044755E-2,5.1021904E-1,-8.21761E-2,-3.8759622E-1,-4.1269537E-2,5.115453E-2,1.4159981E-2,8.815459E-2,2.8950902E-2,-5.2903704E-2,-6.4245E-2,-0E0,-4.2640824E-2,1.6341232E-1,-2.319835E-2,6.21307E-2],"categories":[],"categories_nodes":[],"categories_segments":[],"categories_sizes":[],"default_left":[0,0,0,0,0,0,0,0,0,0,0,0,0,0,0,0,0,0,0,0,0,0,0,0,0],"id":28,"left_children":[1,-1,3,5,7,9,-1,11,-1,13,15,17,19,-1,-1,-1,-1,21,-1,-1,-1,-1,23,-1,-1],"loss_changes":[5.10803E0,0E0,4.263433E0,3.6263695E0,7.6133213E0,2.1810184E0,0E0,2.0528574E0,0E0,3.2200732E0,1.5732155E0,2.73789E0,1.2869501E0,0E0,0E0,0E0,0E0,2.618784E0,0E0,0E0,0E0,0E0,4.625527E0,0E0,0E0],"parents":[2147483647,0,0,2,2,3,3,4,4,5,5,7,7,9,9,10,10,11,11,12,12,17,17,22,22],"right_children":[2,-1,4,6,8,10,-1,12,-1,14,16,18,20,-1,-1,-1,-1,22,-1,-1,-1,-1,24,-1,-1],"split_conditions":[7E0,-6.856461E-2,1.2E1,4.43465E4,7.98237E4,9.5E0,-4.192785E-2,1E1,6.760204E-2,2.024E3,2.9056E3,1E0,2.6E2,-4.1269537E-2,5.115453E-2,1.4159981E-2,8.815459E-2,1.4E1,-5.2903704E-2,-6.4245E-2,-0E0,-4.2640824E-2,3.7826269E0,-2.319835E-2,6.21307E-2],"split_indices":[0,0,0,41,41,5,0,37,0,15,27,24,14,0,0,0,0,0,0,0,0,0,6,0,0],"split_type":[0,0,0,0,0,0,0,0,0,0,0,0,0,0,0,0,0,0,0,0,0,0,0,0,0],"sum_hessian":[1.9800903E2,1.7622395E1,1.8038663E2,5.9452366E1,1.20934265E2,5.141404E1,8.038323E0,1.0507237E2,1.5861896E1,2.2409029E1,2.900501E1,7.036438E1,3.4707996E1,9.628637E0,1.2780393E1,9.842141E0,1.916287E1,5.2579773E1,1.7784603E1,2.645589E1,8.252105E0,1.2997635E1,3.9582138E1,1.8647552E1,2.0934586E1],"tree_param":{"num_deleted":"0","num_feature":"42","num_nodes":"25","size_leaf_vector":"1"}},{"base_weights":[-1.9833762E-2,1.4763936E-1,-8.53982E-2,-1.6172712E-1,3.475019E-1,8.457812E-2,-1.837048E-1,3.1164216E-2,-4.79053E-2,6.3861735E-2,-4.533101E-3,2.221436E-1,-2.5346702E-1,4.620941E-2,-2.7153248E-1,3.7930357E-1,-4.098455E-2,-7.215513E-2,5.7858955E-3,-5.5536043E-2,4.491381E-2,-6.737327E-2,-1.538423E-1,6.820509E-2,2.6767717E-3,-4.641163E-2,3.3368584E-2,4.051271E-2,-7.092187E-2,2.3147594E-2,-2.7601272E-1,9.06538E-3,-4.143235E-1,-6.772939E-2,-4.7254446E-4],"categories":[],"categories_nodes":[],"categories_segments":[],"categories_sizes":[],"default_left":[0,0,0,0,0,0,0,0,0,0,0,0,0,0,0,0,0,0,0,0,0,0,0,0,0,0,0,0,0,0,0,0,0,0,0],"id":29,"left_children":[1,3,5,7,9,11,13,-1,-1,-1,-1,15,17,19,21,23,25,-1,-1,27,-1,-1,29,-1,-1,-1,-1,-1,-1,-1,31,-1,33,-1,-1],"loss_changes":[2.1857927E0,3.57468E0,2.504133E0,1.9940339E0,2.0521731E0,2.564435E0,2.0160122E0,0E0,0E0,0E0,0E0,1.795347E0,1.5979381E0,9.396095E-1,1.5912743E0,1.0788741E0,1.6287985E0,0E0,0E0,3.9571943E0,0E0,0E0,2.1647704E0,0E0,0E0,0E0,0E0,0E0,0E0,0E0,2.0187073E0,0E0,9.892645E-1,0E0,0E0],"parents":[2147483647,0,0,1,1,2,2,3,3,4,4,5,5,6,6,11,11,12,12,13,13,14,14,15,15,16,16,19,19,22,22,30,30,32,32],"right_children":[2,4,6,8,10,12,14,-1,-1,-1,-1,16,18,20,22,24,26,-1,-1,28,-1,-1,30,-1,-1,-1,-1,-1,-1,-1,32,-1,34,-1,-1],"split_conditions":[2E0,1.2E1,7E0,4E0,1.7E1,1E1,3.3136082E0,3.1164216E-2,-4.79053E-2,6.3861735E-2,-4.533101E-3,4.609772E0,8E0,8.5E1,9E0,1.6E1,3E1,-7.215513E-2,5.7858955E-3,3E0,4.491381E-2,-6.737327E-2,4.075E1,6.820509E-2,2.6767717E-3,-4.641163E-2,3.3368584E-2,4.051271E-2,-7.092187E-2,2.3147594E-2,1E0,9.06538E-3,8.660254E-1,-6.772939E-2,-4.7254446E-4],"split_indices":[29,0,32,0,37,37,4,0,0,0,0,4,1,11,11,0,11,0,0,37,0,0,33,0,0,0,0,0,0,0,37,0,18,0,0],"split_type":[0,0,0,0,0,0,0,0,0,0,0,0,0,0,0,0,0,0,0,0,0,0,0,0,0,0,0,0,0,0,0,0,0,0,0],"sum_hessian":[1.9743253E2,5.327398E1,1.4415855E2,2.028747E1,3.2986507E1,5.1482754E1,9.26758E1,6.108771E0,1.4178699E1,2.4558067E1,8.428442E0,3.78318E1,1.3650957E1,2.4640043E1,6.803576E1,2.4108938E1,1.372286E1,6.7315197E0,6.919438E0,1.8445282E1,6.1947613E0,1.9245026E1,4.879073E1,1.5985405E1,8.123532E0,7.126049E0,6.5968113E0,1.0448909E1,7.996374E0,1.21134205E1,3.667731E1,9.953184E0,2.6724125E1,2.0299194E1,6.424931E0],"tree_param":{"num_deleted":"0","num_feature":"42","num_nodes":"35","size_leaf_vector":"1"}},{"base_weights":[2.6532503E-2,2.1522684E-1,-6.299002E-2,-3.7730813E-2,3.664551E-1,-1.0013023E-1,4.319697E-2,8.063714E-2,-4.6581272E-2,9.311235E-2,2.032033E-1,-8.371154E-4,-2.2328907E-1,-2.9125728E-2,6.246558E-2,-1.7427826E-2,6.250916E-2,1.0059839E-1,-1.9318329E-1,-4.0762316E-2,1.5344913E-2,5.0093833E-2,-4.128445E-2,2.649633E-1,-1.00889765E-2,1.1849751E-3,-5.071573E-2,-3.487848E-2,4.775127E-1,2.1046998E-2,9.59938E-2],"categories":[],"categories_nodes":[],"categories_segments":[],"categories_sizes":[],"default_left":[0,0,0,0,0,0,0,0,0,0,0,0,0,0,0,0,0,0,0,0,0,0,0,0,0,0,0,0,0,0,0],"id":30,"left_children":[1,3,5,7,9,11,-1,13,-1,-1,15,17,19,-1,-1,21,-1,23,25,-1,-1,-1,-1,27,-1,-1,-1,-1,29,-1,-1],"loss_changes":[3.4338043E0,2.6609995E0,1.9303234E0,1.1029146E0,1.7568655E0,1.4441414E0,0E0,2.5494225E0,0E0,0E0,2.1095312E0,1.4904448E0,1.7480519E0,0E0,0E0,2.3871934E0,0E0,1.4947884E0,1.2087762E0,0E0,0E0,0E0,0E0,3.2618928E0,0E0,0E0,0E0,0E0,1.0491095E0,0E0,0E0],"parents":[2147483647,0,0,1,1,2,2,3,3,4,4,5,5,7,7,10,10,11,11,12,12,15,15,17,17,18,18,23,23,28,28],"right_children":[2,4,6,8,10,12,-1,14,-1,-1,16,18,20,-1,-1,22,-1,24,26,-1,-1,-1,-1,28,-1,-1,-1,-1,30,-1,-1],"split_conditions":[0E0,3.6935558E0,1E0,3.2E1,2.9056E3,1.05E1,4.319697E-2,1.2E1,-4.6581272E-2,9.311235E-2,1.4E1,2.5881904E-1,5.5828595E0,-2.9125728E-2,6.246558E-2,1E1,6.250916E-2,2.024E3,9.2379E0,-4.0762316E-2,1.5344913E-2,5.0093833E-2,-4.128445E-2,2E0,-1.00889765E-2,1.1849751E-3,-5.071573E-2,-3.487848E-2,4E1,2.1046998E-2,9.59938E-2],"split_indices":[19,6,9,12,27,5,0,12,0,0,0,22,6,0,0,11,0,15,34,0,0,0,0,37,0,0,0,0,31,0,0],"split_type":[0,0,0,0,0,0,0,0,0,0,0,0,0,0,0,0,0,0,0,0,0,0,0,0,0,0,0,0,0,0,0],"sum_hessian":[1.966161E2,6.3845005E1,1.327711E2,2.343558E1,4.0409428E1,1.2338713E2,9.383975E0,1.7149614E1,6.2859645E0,1.0354216E1,3.0055212E1,7.102785E1,5.2359283E1,9.605398E0,7.5442166E0,1.676791E1,1.3287302E1,4.5750027E1,2.5277819E1,4.2681988E1,9.677295E0,6.3891063E0,1.0378804E1,2.4423073E1,2.1326954E1,1.2210426E1,1.3067392E1,6.3396926E0,1.808338E1,1.0003577E1,8.0798025E0],"tree_param":{"num_deleted":"0","num_feature":"42","num_nodes":"31","size_leaf_vector":"1"}},{"base_weights":[2.916546E-2,1.15951315E-1,-6.066185E-2,5.1337603E-2,3.690054E-1,2.8411108E-1,-5.5607215E-2,6.1221236E-1,6.557419E-2,5.2085828E-2,4.955963E-1,4.9808312E-2,-1.1027675E-1,1.0583629E-2,1.1248191E-1,4.4935007E-2,-1.8450808E-2,-2.2311138E-2,3.516378E-2,8.850361E-2,2.3337295E-3,4.2890783E-2,-2.2681704E-1,-1.7100546E-1,4.2690296E-2,-3.835159E-1,8.817949E-2,-5.5630345E-2,1.7756617E-2,-6.7344636E-2,-1.4886533E-2,-1.8150808E-2,5.3119328E-2],"categories":[],"categories_nodes":[],"categories_segments":[],"categories_sizes":[],"default_left":[0,0,0,0,0,0,0,0,0,0,0,0,0,0,0,0,0,0,0,0,0,0,0,0,0,0,0,0,0,0,0,0,0],"id":31,"left_children":[1,3,-1,5,7,9,11,13,15,17,19,-1,21,-1,-1,-1,-1,-1,-1,-1,-1,23,25,27,-1,29,31,-1,-1,-1,-1,-1,-1],"loss_changes":[8.188982E0,2.5193598E0,0E0,3.4892993E0,2.0499263E0,1.9069185E0,2.1884294E0,1.7310576E0,1.1361971E0,1.2631274E0,1.5923891E0,0E0,1.6045263E0,0E0,0E0,0E0,0E0,0E0,0E0,0E0,0E0,2.3801353E0,2.6393082E0,1.8647076E0,0E0,8.6499023E-1,1.4370962E0,0E0,0E0,0E0,0E0,0E0,0E0],"parents":[2147483647,0,0,1,1,3,3,4,4,5,5,6,6,7,7,8,8,9,9,10,10,12,12,21,21,22,22,23,23,25,25,26,26],"right_children":[2,4,-1,6,8,10,12,14,16,18,20,-1,22,-1,-1,-1,-1,-1,-1,-1,-1,24,26,28,-1,30,32,-1,-1,-1,-1,-1,-1],"split_conditions":[5E-1,5.1206975E0,-6.066185E-2,-5E-1,3.8E1,9.2379E0,-9.659258E-1,1.9549E3,2.8E1,4.9E1,6.4E1,4.9808312E-2,-7.0710677E-1,1.0583629E-2,1.1248191E-1,4.4935007E-2,-1.8450808E-2,-2.2311138E-2,3.516378E-2,8.850361E-2,2.3337295E-3,2.5881904E-1,6.6E1,1.692E1,4.2690296E-2,2.3824E4,-5E-1,-5.5630345E-2,1.7756617E-2,-6.7344636E-2,-1.4886533E-2,-1.8150808E-2,5.3119328E-2],"split_indices":[22,6,0,18,12,34,21,41,11,11,11,0,22,0,0,0,0,0,0,0,0,21,12,39,0,41,21,0,0,0,0,0,0],"split_type":[0,0,0,0,0,0,0,0,0,0,0,0,0,0,0,0,0,0,0,0,0,0,0,0,0,0,0,0,0,0,0,0,0],"sum_hessian":[1.9110313E2,1.6423883E2,2.68643E1,1.337414E2,3.0497446E1,4.2308178E1,9.143321E1,1.5224088E1,1.5273357E1,2.2094578E1,2.0213598E1,8.243172E0,8.319004E1,6.0422263E0,9.181861E0,6.813997E0,8.459361E0,1.0199208E1,1.189537E1,1.359059E1,6.6230097E0,3.5006313E1,4.8183727E1,1.9545383E1,1.546093E1,3.2733665E1,1.545006E1,1.1018917E1,8.526466E0,2.0071798E1,1.2661868E1,8.882158E0,6.567901E0],"tree_param":{"num_deleted":"0","num_feature":"42","num_nodes":"33","size_leaf_vector":"1"}},{"base_weights":[4.486495E-2,-1.456656E-1,9.439736E-2,4.8441596E-2,-6.3809745E-2,1.709793E-1,-1.261989E-1,6.656455E-2,-1.3392825E-1,-5.4910693E-2,2.9131937E-1,4.300679E-2,-2.4880621E-1,-6.688953E-2,1.7060768E-2,7.155054E-2,-3.1778193E-1,3.1580914E-2,4.0191227E-1,4.2180517E-3,-6.0104147E-2,1.3639226E-2,-6.687918E-2,3.9826896E-2,-7.0580006E-2,6.3484795E-2,-5.733247E-3,-3.924559E-2,5.8090355E-2],"categories":[],"categories_nodes":[],"categories_segments":[],"categories_sizes":[],"default_left":[0,0,0,0,0,0,0,0,0,0,0,0,0,0,0,0,0,0,0,0,0,0,0,0,0,0,0,0,0],"id":32,"left_children":[1,3,5,7,-1,9,11,-1,13,15,17,-1,19,-1,-1,-1,21,23,25,27,-1,-1,-1,-1,-1,-1,-1,-1,-1],"loss_changes":[1.8527821E0,2.8219273E0,2.7263107E0,2.4445467E0,0E0,3.364952E0,2.3667827E0,0E0,2.1931472E0,6.828315E0,2.088635E0,0E0,1.9535491E0,0E0,0E0,0E0,2.7340817E0,4.3255515E0,2.1933165E0,2.4325E0,0E0,0E0,0E0,0E0,0E0,0E0,0E0,0E0,0E0],"parents":[2147483647,0,0,1,1,2,2,3,3,5,5,6,6,8,8,9,9,10,10,12,12,16,16,17,17,18,18,19,19],"right_children":[2,4,6,8,-1,10,12,-1,14,16,18,-1,20,-1,-1,-1,22,24,26,28,-1,-1,-1,-1,-1,-1,-1,-1,-1],"split_conditions":[4.155E1,1.9000002E0,3.54772E4,3.224903E0,-6.3809745E-2,1.2E1,3.0647519E0,6.656455E-2,4.661545E0,6E0,0E0,4.300679E-2,4.04E0,-6.688953E-2,1.7060768E-2,7.155054E-2,6E0,4.1303754E0,2.7E0,8E0,-6.0104147E-2,1.3639226E-2,-6.687918E-2,3.9826896E-2,-7.0580006E-2,6.3484795E-2,-5.733247E-3,-3.924559E-2,5.8090355E-2],"split_indices":[33,3,41,4,0,0,6,0,4,0,19,0,39,0,0,0,11,4,40,36,0,0,0,0,0,0,0,0,0],"split_type":[0,0,0,0,0,0,0,0,0,0,0,0,0,0,0,0,0,0,0,0,0,0,0,0,0,0,0,0,0],"sum_hessian":[1.9405156E2,3.7728405E1,1.5632315E2,2.4284359E1,1.3444047E1,1.176279E2,3.869525E1,6.6068835E0,1.7677475E1,4.010991E1,7.751799E1,6.931138E0,3.1764114E1,7.2117805E0,1.0465695E1,1.1190831E1,2.8919077E1,2.4867584E1,5.2650402E1,1.4334354E1,1.742976E1,8.672818E0,2.024626E1,1.7847609E1,7.019977E0,4.5073807E1,7.576598E0,8.288741E0,6.045613E0],"tree_param":{"num_deleted":"0","num_feature":"42","num_nodes":"29","size_leaf_vector":"1"}},{"base_weights":[-0E0,1.2132298E-1,-9.238316E-2,-2.2078678E-1,2.7356884E-1,2.9016148E-2,-2.1409857E-1,-4.3780167E-2,1.9597437E-3,4.7215053E-1,1.0723278E-1,-8.624556E-2,2.7550247E-1,-3.7918095E-2,8.169682E-3,7.4865283E-3,8.13433E-2,-6.407061E-4,6.912844E-2,1.9529797E-2,-2.2220777E-1,8.4330834E-2,-0E0,1.0805119E-1,-4.5646127E-2,7.0514088E-3,-4.8567686E-2,-8.185386E-2,7.281622E-2,-3.77013E-2,2.0232106E-2],"categories":[],"categories_nodes":[],"categories_segments":[],"categories_sizes":[],"default_left":[0,0,0,0,0,0,0,0,0,0,0,0,0,0,0,0,0,0,0,0,0,0,0,0,0,0,0,0,0,0,0],"id":33,"left_children":[1,3,5,7,9,11,13,-1,-1,15,17,19,21,-1,-1,-1,-1,23,-1,-1,25,-1,-1,27,-1,-1,-1,29,-1,-1,-1],"loss_changes":[2.319199E0,4.854986E0,1.7843021E0,8.804624E-1,1.8142843E0,1.7528708E0,1.3465705E0,0E0,0E0,1.3809566E0,1.94017E0,1.3517507E0,2.235314E0,0E0,0E0,0E0,0E0,1.3505887E0,0E0,0E0,1.2517095E0,0E0,0E0,2.3466825E0,0E0,0E0,0E0,1.0114188E0,0E0,0E0,0E0],"parents":[2147483647,0,0,1,1,2,2,3,3,4,4,5,5,6,6,9,9,10,10,11,11,12,12,17,17,20,20,23,23,27,27],"right_children":[2,4,6,8,10,12,14,-1,-1,16,18,20,22,-1,-1,-1,-1,24,-1,-1,26,-1,-1,28,-1,-1,-1,30,-1,-1,-1],"split_conditions":[2.024E3,2E0,7.6361E0,4.43465E4,3.940812E0,1.9000002E1,1.9E2,-4.3780167E-2,1.9597437E-3,-8.660254E-1,1.26E1,4.8282E3,1.11E2,-3.7918095E-2,8.169682E-3,7.4865283E-3,8.13433E-2,1.15E1,6.912844E-2,1.9529797E-2,2E0,8.4330834E-2,-0E0,1.01967E1,-4.5646127E-2,7.0514088E-3,-4.8567686E-2,1.02E1,7.281622E-2,-3.77013E-2,2.0232106E-2],"split_indices":[15,37,30,41,4,39,14,0,0,21,5,41,14,0,0,0,0,5,0,0,37,0,0,30,0,0,0,5,0,0,0],"split_type":[0,0,0,0,0,0,0,0,0,0,0,0,0,0,0,0,0,0,0,0,0,0,0,0,0,0,0,0,0,0,0],"sum_hessian":[2.0241779E2,8.8993385E1,1.1342441E2,2.6384174E1,6.2609215E1,5.5882137E1,5.7542267E1,1.8444805E1,7.9393682E0,2.5999342E1,3.660987E1,3.7800484E1,1.8081656E1,4.6304306E1,1.1237961E1,8.154199E0,1.7845144E1,2.9803495E1,6.8063755E0,1.2754235E1,2.5046247E1,7.286182E0,1.0795473E1,2.2786432E1,7.0170646E0,8.229193E0,1.6817055E1,1.6404669E1,6.3817635E0,9.434275E0,6.970393E0],"tree_param":{"num_deleted":"0","num_feature":"42","num_nodes":"31","size_leaf_vector":"1"}},{"base_weights":[-9.15142E-3,1.6636543E-1,-9.8781385E-2,3.006157E-1,-7.2407066E-3,-2.1563895E-1,1.6087237E-1,4.1084468E-1,-4.905024E-3,-4.018806E-1,5.642909E-2,2.8537744E-1,-3.887547E-2,-0E0,7.047277E-2,-1.711039E-2,-6.387268E-2,6.800789E-2,-6.823034E-2,4.0325257E-1,-2.6004752E-3,-2.5249846E-2,2.836534E-2,7.662477E-2,1.4451751E-2],"categories":[],"categories_nodes":[],"categories_segments":[],"categories_sizes":[],"default_left":[0,0,0,0,0,0,0,0,0,0,0,0,0,0,0,0,0,0,0,0,0,0,0,0,0],"id":34,"left_children":[1,3,5,7,-1,9,11,13,-1,15,17,19,-1,-1,-1,-1,-1,-1,21,23,-1,-1,-1,-1,-1],"loss_changes":[2.9842203E0,2.0054908E0,3.966381E0,1.6889563E0,0E0,4.735807E0,2.406697E0,1.468061E0,0E0,9.069147E-1,2.3838522E0,1.3408644E0,0E0,0E0,0E0,0E0,0E0,0E0,1.1347731E0,9.2456055E-1,0E0,0E0,0E0,0E0,0E0],"parents":[2147483647,0,0,1,1,2,2,3,3,5,5,6,6,7,7,9,9,10,10,11,11,18,18,19,19],"right_children":[2,4,6,8,-1,10,12,14,-1,16,18,20,-1,-1,-1,-1,-1,-1,22,24,-1,-1,-1,-1,-1],"split_conditions":[1.3E1,2.4E0,5E-1,1E0,-7.2407066E-3,6E0,4.3999996E0,2.9056E3,-4.905024E-3,1E-1,-9.659258E-1,-5E-1,-3.887547E-2,-0E0,7.047277E-2,-1.711039E-2,-6.387268E-2,6.800789E-2,3E0,4E0,-2.6004752E-3,-2.5249846E-2,2.836534E-2,7.662477E-2,1.4451751E-2],"split_indices":[12,3,21,16,0,29,3,27,0,3,21,22,0,0,0,0,0,0,35,29,0,0,0,0,0],"split_type":[0,0,0,0,0,0,0,0,0,0,0,0,0,0,0,0,0,0,0,0,0,0,0,0,0],"sum_hessian":[1.8772015E2,6.1494637E1,1.2622552E2,3.8976963E1,2.2517673E1,8.8276596E1,3.794892E1,2.9960434E1,9.016528E0,5.2739758E1,3.553684E1,3.1010088E1,6.9388328E0,8.076037E0,2.1884396E1,1.4714718E1,3.802504E1,7.0173984E0,2.8519442E1,2.2867039E1,8.143048E0,2.1189823E1,7.329617E0,1.2245931E1,1.0621108E1],"tree_param":{"num_deleted":"0","num_feature":"42","num_nodes":"25","size_leaf_vector":"1"}},{"base_weights":[7.829764E-2,1.4825325E-1,-1.5417416E-1,-4.2510565E-2,1.8017004E-1,-5.6239594E-2,4.4344585E-2,1.2194024E-1,5.061278E-1,-1.7334732E-1,4.8266698E-2,1.9312568E-1,-1.1417528E-1,6.2537715E-3,9.259529E-2,1.7791178E-2,-6.875084E-2,-1.04265496E-1,2.5622016E-1,6.1932825E-2,-6.889961E-2,-6.816424E-2,2.7958162E-2,3.4094977E-1,5.4437343E-2,-4.5470886E-2,4.895602E-2,5.7795517E-2,-0E0,-2.9838316E-2,2.9797124E-2],"categories":[],"categories_nodes":[],"categories_segments":[],"categories_sizes":[],"default_left":[0,0,0,0,0,0,0,0,0,0,0,0,0,0,0,0,0,0,0,0,0,0,0,0,0,0,0,0,0,0,0],"id":35,"left_children":[1,3,5,-1,7,-1,9,11,13,15,-1,17,19,-1,-1,-1,-1,21,23,25,-1,-1,-1,27,29,-1,-1,-1,-1,-1,-1],"loss_changes":[3.2612352E0,2.377166E0,2.6570623E0,0E0,2.4324431E0,0E0,2.1007853E0,2.2165816E0,1.5413814E0,2.0877032E0,0E0,1.9833047E0,2.3672957E0,0E0,0E0,0E0,0E0,2.6475098E0,1.2535238E0,2.978932E0,0E0,0E0,0E0,1.7950606E0,1.4700623E0,0E0,0E0,0E0,0E0,0E0,0E0],"parents":[2147483647,0,0,1,1,2,2,4,4,6,6,7,7,8,8,9,9,11,11,12,12,17,17,18,18,19,19,23,23,24,24],"right_children":[2,4,6,-1,8,-1,10,12,14,16,-1,18,20,-1,-1,-1,-1,22,24,26,-1,-1,-1,28,30,-1,-1,-1,-1,-1,-1],"split_conditions":[4.7E1,3.2293E0,1.04E0,-4.2510565E-2,3.2E1,-5.6239594E-2,9.6E0,1.9E1,1E0,7.7E0,4.8266698E-2,3E0,2.5881904E-1,6.2537715E-3,9.259529E-2,1.7791178E-2,-6.875084E-2,1.01E1,9.000001E-1,4.3388373E-1,-6.889961E-2,-6.816424E-2,2.7958162E-2,8.8693E3,9E0,-4.5470886E-2,4.895602E-2,5.7795517E-2,-0E0,-2.9838316E-2,2.9797124E-2],"split_indices":[11,34,39,0,11,0,5,11,35,5,0,11,21,0,0,0,0,5,40,19,0,0,0,27,11,0,0,0,0,0,0],"split_type":[0,0,0,0,0,0,0,0,0,0,0,0,0,0,0,0,0,0,0,0,0,0,0,0,0,0,0,0,0,0,0],"sum_hessian":[1.9640799E2,1.5274023E2,4.3667747E1,7.8801594E0,1.4486008E2,1.8278246E1,2.5389503E1,1.2597185E2,1.888823E1,1.495917E1,1.0430334E1,9.828899E1,2.768286E1,6.9784865E0,1.1909742E1,7.948093E0,7.0110774E0,1.5934972E1,8.235401E1,1.9778166E1,7.9046955E0,6.9377666E0,8.997205E0,5.579741E1,2.6556606E1,7.9310083E0,1.1847157E1,4.197237E1,1.3825037E1,9.02945E0,1.7527155E1],"tree_param":{"num_deleted":"0","num_feature":"42","num_nodes":"31","size_leaf_vector":"1"}},{"base_weights":[-1.5531969E-2,2.8099534E-1,-6.4312704E-2,-0E0,4.6830192E-1,-8.688076E-2,4.535004E-2,1.0545084E-3,9.9218704E-2,-1.2715313E-1,1.6599128E-1,-1.7640413E-1,6.086197E-2,3.5119295E-1,-1.5476236E-2,-2.8099477E-2,1.5450751E-2,5.055592E-2,-1.4081582E-2,-0E0,7.450791E-2,-2.3168271E-2,4.2038526E-2],"categories":[],"categories_nodes":[],"categories_segments":[],"categories_sizes":[],"default_left":[0,0,0,0,0,0,0,0,0,0,0,0,0,0,0,0,0,0,0,0,0,0,0],"id":36,"left_children":[1,3,5,-1,7,9,-1,-1,-1,11,13,15,17,19,-1,-1,21,-1,-1,-1,-1,-1,-1],"loss_changes":[2.8644977E0,1.6263487E0,1.5788974E0,0E0,1.9992945E0,1.7414435E0,0E0,0E0,0E0,1.43313E0,1.3540142E0,9.4612E-1,1.8390925E0,1.0032759E0,0E0,0E0,1.3028516E0,0E0,0E0,0E0,0E0,0E0,0E0],"parents":[2147483647,0,0,1,1,2,2,4,4,5,5,9,9,10,10,11,11,12,12,13,13,16,16],"right_children":[2,4,6,-1,8,10,-1,-1,-1,12,14,16,18,20,-1,-1,22,-1,-1,-1,-1,-1,-1],"split_conditions":[8E0,2E0,6.4640937E0,-0E0,3.6851158E0,6.8E1,4.535004E-2,1.0545084E-3,9.9218704E-2,3.02E2,2.025E3,6.937E1,3.28E2,4.52E1,-1.5476236E-2,-2.8099477E-2,1.3E1,5.055592E-2,-1.4081582E-2,-0E0,7.450791E-2,-2.3168271E-2,4.2038526E-2],"split_indices":[0,37,6,0,6,11,0,0,0,14,15,33,14,33,0,0,0,0,0,0,0,0,0],"split_type":[0,0,0,0,0,0,0,0,0,0,0,0,0,0,0,0,0,0,0,0,0,0,0],"sum_hessian":[1.9979697E2,2.5919567E1,1.738774E2,1.0306781E1,1.5612785E1,1.6701749E2,6.859909E0,7.2225204E0,8.390265E0,1.4614359E2,2.0873903E1,1.1751336E2,2.863022E1,1.319813E1,7.675774E0,9.969379E1,1.7819574E1,9.772502E0,1.885772E1,6.133596E0,7.0645337E0,1.061932E1,7.2002535E0],"tree_param":{"num_deleted":"0","num_feature":"42","num_nodes":"23","size_leaf_vector":"1"}},{"base_weights":[-3.521428E-2,-8.672229E-2,4.3573126E-2,-5.243358E-2,-2.9126633E-2,3.506977E-2,-4.0727045E-2,1.3707614E-1,-2.679769E-1,2.20364E-1,-2.1179741E-2,-6.7447305E-2,5.037822E-3,2.828736E-1,-9.143566E-3,6.588124E-2,2.3810247E-2],"categories":[],"categories_nodes":[],"categories_segments":[],"categories_sizes":[],"default_left":[0,0,0,0,0,0,0,0,0,0,0,0,0,0,0,0,0],"id":37,"left_children":[1,3,-1,-1,5,7,-1,9,11,13,-1,-1,-1,15,-1,-1,-1],"loss_changes":[3.5930057E0,2.8941817E0,0E0,0E0,2.784193E0,3.7362673E0,0E0,2.3776278E0,2.4769034E0,1.4555233E0,0E0,0E0,0E0,9.5822763E-1,0E0,0E0,0E0],"parents":[2147483647,0,0,1,1,4,4,5,5,7,7,8,8,9,9,13,13],"right_children":[2,4,-1,-1,6,8,-1,10,12,14,-1,-1,-1,16,-1,-1,-1],"split_conditions":[9E0,5E0,4.3573126E-2,-5.243358E-2,2.9999998E0,5.4E1,-4.0727045E-2,5E0,1.2246469E-16,2.6E1,-2.1179741E-2,-6.7447305E-2,5.037822E-3,1.1E1,-9.143566E-3,6.588124E-2,2.3810247E-2],"split_indices":[36,12,0,0,3,12,0,2,21,37,0,0,0,12,0,0,0],"split_type":[0,0,0,0,0,0,0,0,0,0,0,0,0,0,0,0,0],"sum_hessian":[1.904266E2,1.6911183E2,2.1314764E1,2.361606E1,1.4549577E2,1.1861059E2,2.6885185E1,9.041547E1,2.8195124E1,7.205989E1,1.8355576E1,1.56654005E1,1.2529722E1,6.040918E1,1.1650711E1,1.5691564E1,4.4717617E1],"tree_param":{"num_deleted":"0","num_feature":"42","num_nodes":"17","size_leaf_vector":"1"}},{"base_weights":[-3.480599E-2,-2.8960413E-1,3.547036E-2,-0E0,-6.485081E-2,1.6922398E-1,-1.6282614E-1,4.650519E-2,-3.87413E-2,-4.5212984E-2,2.209324E-1,1.3478272E-2,-3.2733908E-1,2.9834387E-1,-1.5757014E-1,-1.9407926E-1,7.065469E-2,-8.137005E-2,-0E0,3.5224038E-1,-1.8884836E-2,2.2057502E-2,-6.1145995E-2,1.7571034E-2,-5.5342086E-2,2.7848722E-2,-4.101272E-2,7.201634E-2,2.3717776E-1,8.614515E-4,5.6438226E-2],"categories":[],"categories_nodes":[],"categories_segments":[],"categories_sizes":[],"default_left":[0,0,0,0,0,0,0,0,0,0,0,0,0,0,0,0,0,0,0,0,0,0,0,0,0,0,0,0,0,0,0],"id":38,"left_children":[1,3,5,7,-1,9,11,-1,-1,-1,13,15,17,19,21,23,-1,-1,25,27,-1,-1,-1,-1,-1,-1,-1,-1,29,-1,-1],"loss_changes":[3.614867E0,2.5277183E0,4.124228E0,2.2789168E0,0E0,2.5777953E0,1.9151616E0,0E0,0E0,0E0,2.6842914E0,3.6207306E0,2.953505E0,1.9247642E0,1.7678676E0,1.8913711E0,0E0,0E0,1.3430817E0,9.8087406E-1,0E0,0E0,0E0,0E0,0E0,0E0,0E0,0E0,1.8992352E0,0E0,0E0],"parents":[2147483647,0,0,1,1,2,2,3,3,5,5,6,6,10,10,11,11,12,12,13,13,14,14,15,15,18,18,19,19,28,28],"right_children":[2,4,6,8,-1,10,12,-1,-1,-1,14,16,18,20,22,24,-1,-1,26,28,-1,-1,-1,-1,-1,-1,-1,-1,30,-1,-1],"split_conditions":[-5E-1,7.8E0,4.653545E0,3.7976E0,-6.485081E-2,2.5298443E0,1.3E1,4.650519E-2,-3.87413E-2,-4.5212984E-2,3.54772E4,1.2E1,4.9E1,1.24E1,3.7306752E0,2E0,7.065469E-2,-8.137005E-2,2E0,1.1000001E0,-1.8884836E-2,2.2057502E-2,-6.1145995E-2,1.7571034E-2,-5.5342086E-2,2.7848722E-2,-4.101272E-2,7.201634E-2,3.267E1,8.614515E-4,5.6438226E-2],"split_indices":[18,5,6,34,0,6,0,0,0,0,41,0,12,5,6,37,0,0,35,3,0,0,0,0,0,0,0,0,39,0,0],"split_type":[0,0,0,0,0,0,0,0,0,0,0,0,0,0,0,0,0,0,0,0,0,0,0,0,0,0,0,0,0,0,0],"sum_hessian":[1.9363397E2,4.1845863E1,1.5178812E2,1.8295435E1,2.3550428E1,9.195828E1,5.9829834E1,7.974345E0,1.032109E1,6.8105083E0,8.514777E1,2.8538809E1,3.1291025E1,7.1844604E1,1.3303166E1,2.072965E1,7.8091593E0,1.511875E1,1.6172276E1,6.5136475E1,6.70813E0,6.257502E0,7.045665E0,8.102142E0,1.2627508E1,9.308521E0,6.863754E0,2.0345516E1,4.479096E1,2.2146652E1,2.2644306E1],"tree_param":{"num_deleted":"0","num_feature":"42","num_nodes":"31","size_leaf_vector":"1"}},{"base_weights":[2.5804171E-2,-1.88127E-1,8.8536106E-2,-2.8661653E-1,1.07236365E-2,6.634237E-2,5.57795E-2,9.707266E-3,-3.9494002E-1,-1.3093224E-2,1.9605629E-1,-5.862892E-3,-7.001111E-2,2.0707242E-1,-9.960832E-2,6.605781E-2,4.7989633E-2,-0E0,5.766907E-2,-2.0288715E-2,3.7575E-2,4.6919685E-2,-7.378729E-2,-3.5517033E-2,4.1675236E-2],"categories":[],"categories_nodes":[],"categories_segments":[],"categories_sizes":[],"default_left":[0,0,0,0,0,0,0,0,0,0,0,0,0,0,0,0,0,0,0,0,0,0,0,0,0],"id":39,"left_children":[1,3,5,7,-1,-1,9,-1,11,13,15,-1,-1,17,19,-1,21,-1,-1,-1,-1,-1,23,-1,-1],"loss_changes":[2.447714E0,1.2014947E0,1.7034239E0,1.3954179E0,0E0,0E0,1.3934208E0,0E0,9.554815E-1,1.7355789E0,1.87951E0,0E0,0E0,1.2027578E0,1.4727952E0,0E0,1.4546779E0,0E0,0E0,0E0,0E0,0E0,2.0846384E0,0E0,0E0],"parents":[2147483647,0,0,1,1,2,2,3,3,6,6,8,8,9,9,10,10,13,13,14,14,16,16,22,22],"right_children":[2,4,6,8,-1,-1,10,-1,12,14,16,-1,-1,18,20,-1,22,-1,-1,-1,-1,-1,24,-1,-1],"split_conditions":[8E0,4.551373E0,2.6898472E0,1.06E2,1.07236365E-2,6.634237E-2,1E1,9.707266E-3,6.234898E-1,1E0,1.6E1,-5.862892E-3,-7.001111E-2,1.104E1,6E0,6.605781E-2,1.13E0,-0E0,5.766907E-2,-2.0288715E-2,3.7575E-2,4.6919685E-2,1.824E1,-3.5517033E-2,4.1675236E-2],"split_indices":[12,6,6,14,0,0,37,0,20,37,37,0,0,39,2,0,39,0,0,0,0,0,39,0,0],"split_type":[0,0,0,0,0,0,0,0,0,0,0,0,0,0,0,0,0,0,0,0,0,0,0,0,0],"sum_hessian":[1.8126445E2,3.8908413E1,1.4235605E2,2.9467083E1,9.44133E0,7.647911E0,1.3470813E2,6.1177497E0,2.3349333E1,8.9590744E1,4.5117393E1,8.071877E0,1.5277456E1,2.3323877E1,6.626687E1,1.2440175E1,3.2677216E1,1.3300056E1,1.0023821E1,5.980115E1,6.4657125E0,9.145723E0,2.3531494E1,1.6672726E1,6.858768E0],"tree_param":{"num_deleted":"0","num_feature":"42","num_nodes":"25","size_leaf_vector":"1"}},{"base_weights":[1.0687968E-2,6.8828955E-2,-3.35313E-1,9.563194E-2,-5.1494077E-2,-6.004006E-2,-0E0,1.7508062E-3,2.53063E-1,-1.8965831E-1,2.020006E-1,-0E0,5.444649E-2,-5.595595E-2,-0E0,7.153051E-2,8.163736E-2,-2.6471647E-2,3.977375E-2,-1.8245137E-1,5.085944E-2,5.335048E-2,-9.532347E-2,1.0198971E-2,-4.2734776E-2,-4.0122136E-2,1.440654E-2],"categories":[],"categories_nodes":[],"categories_segments":[],"categories_sizes":[],"default_left":[0,0,0,0,0,0,0,0,0,0,0,0,0,0,0,0,0,0,0,0,0,0,0,0,0,0,0],"id":40,"left_children":[1,3,5,7,-1,-1,-1,9,11,13,15,17,-1,-1,19,-1,21,-1,-1,23,-1,-1,25,-1,-1,-1,-1],"loss_changes":[3.5832913E0,1.900255E0,8.826182E-1,2.134518E0,0E0,0E0,0E0,3.8277445E0,2.3104322E0,2.1601777E0,1.7337716E0,1.4902067E0,0E0,0E0,2.2072544E0,0E0,2.4725437E0,0E0,0E0,9.5919585E-1,0E0,0E0,1.2740115E0,0E0,0E0,0E0,0E0],"parents":[2147483647,0,0,1,1,2,2,3,3,7,7,8,8,9,9,10,10,11,11,14,14,16,16,19,19,22,22],"right_children":[2,4,6,8,-1,-1,-1,10,12,14,16,18,-1,-1,20,-1,22,-1,-1,24,-1,-1,26,-1,-1,-1,-1],"split_conditions":[5E-1,9.659258E-1,5E0,2.5881904E-1,-5.1494077E-2,-6.004006E-2,-0E0,1.286E4,4.3461223E0,-7.0710677E-1,-9.659258E-1,3.2E1,5.444649E-2,-5.595595E-2,1.3E1,7.153051E-2,3.604511E0,-2.6471647E-2,3.977375E-2,1E1,5.085944E-2,5.335048E-2,1.09E1,1.0198971E-2,-4.2734776E-2,-4.0122136E-2,1.440654E-2],"split_indices":[22,21,36,21,0,0,0,28,6,21,21,12,0,0,37,0,4,0,0,11,0,0,5,0,0,0,0],"split_type":[0,0,0,0,0,0,0,0,0,0,0,0,0,0,0,0,0,0,0,0,0,0,0,0,0,0,0],"sum_hessian":[1.7940419E2,1.5576152E2,2.3642658E1,1.4932365E2,6.4378695E0,1.6090008E1,7.552651E0,9.619372E1,5.3129936E1,4.8249676E1,4.7944042E1,2.1064781E1,3.2065155E1,1.9998327E1,2.825135E1,9.995646E0,3.7948395E1,1.3295347E1,7.7694335E0,2.0203072E1,8.048279E0,1.3333224E1,2.4615171E1,6.509241E0,1.36938305E1,1.2644236E1,1.1970937E1],"tree_param":{"num_deleted":"0","num_feature":"42","num_nodes":"27","size_leaf_vector":"1"}},{"base_weights":[-2.685956E-2,4.0716972E-2,-2.2000505E-1,-2.3590665E-1,1.5701187E-1,-2.28744E-2,-7.664181E-2,-1.7333648E-3,-6.368727E-2,-5.1583394E-2,2.2495161E-1,-5.733797E-2,1.7337537E-1,1.5684877E-1,-3.2802E-2,3.6308748E-1,4.9926993E-2,3.7945977E-1,-1.8217932E-2,5.4900855E-2,-1.195566E-2,4.7208124E-1,7.22068E-2,1.8057434E-1,-2.1460414E-1,9.137183E-2,-5.4222187E-3,-0E0,7.72751E-2,-2.2631327E-2,4.3267995E-2,2.9207802E-1,-1.6158797E-2,-6.65241E-2,1.0457724E-2,1.2065362E-2,7.119731E-2],"categories":[],"categories_nodes":[],"categories_segments":[],"categories_sizes":[],"default_left":[0,0,0,0,0,0,0,0,0,0,0,0,0,0,0,0,0,0,0,0,0,0,0,0,0,0,0,0,0,0,0,0,0,0,0,0,0],"id":41,"left_children":[1,3,5,7,9,11,-1,13,-1,-1,15,-1,17,19,-1,21,23,25,-1,-1,-1,27,29,31,33,-1,-1,-1,-1,-1,-1,35,-1,-1,-1,-1,-1],"loss_changes":[2.5042918E0,4.4539533E0,3.3173966E0,2.170582E0,3.7828314E0,3.066817E0,0E0,1.026762E0,0E0,0E0,1.9763546E0,0E0,1.7478926E0,1.1291056E0,0E0,1.2709088E0,1.5356022E0,2.4149282E0,0E0,0E0,0E0,1.8315868E0,1.1883937E0,1.1650085E0,1.4401647E0,0E0,0E0,0E0,0E0,0E0,0E0,8.627417E-1,0E0,0E0,0E0,0E0,0E0],"parents":[2147483647,0,0,1,1,2,2,3,3,4,4,5,5,7,7,10,10,12,12,13,13,15,15,16,16,17,17,21,21,22,22,23,23,24,24,31,31],"right_children":[2,4,6,8,10,12,-1,14,-1,-1,16,-1,18,20,-1,22,24,26,-1,-1,-1,28,30,32,34,-1,-1,-1,-1,-1,-1,36,-1,-1,-1,-1,-1],"split_conditions":[4.729703E0,-5E-1,4.11E0,4E1,3E0,3E0,-7.664181E-2,3.2649655E0,-6.368727E-2,-5.1583394E-2,9E0,-5.733797E-2,4E1,3E0,-3.2802E-2,7.818315E-1,1.1E1,1.3E1,-1.8217932E-2,5.4900855E-2,-1.195566E-2,1E0,3.8422E0,1.2E1,4.2636294E0,9.137183E-2,-5.4222187E-3,-0E0,7.72751E-2,-2.2631327E-2,4.3267995E-2,7E0,-1.6158797E-2,-6.65241E-2,1.0457724E-2,1.2065362E-2,7.119731E-2],"split_indices":[6,18,39,31,12,37,0,4,0,0,1,0,31,13,0,19,37,0,0,0,0,37,4,1,6,0,0,0,0,0,0,37,0,0,0,0,0],"split_type":[0,0,0,0,0,0,0,0,0,0,0,0,0,0,0,0,0,0,0,0,0,0,0,0,0,0,0,0,0,0,0,0,0,0,0,0,0],"sum_hessian":[1.8360123E2,1.355772E2,4.8024033E1,3.8610157E1,9.696703E1,3.30632E1,1.4960834E1,2.1631174E1,1.6978981E1,9.103972E0,8.786306E1,1.0560613E1,2.2502588E1,1.2653888E1,8.977286E0,4.681466E1,4.1048405E1,1.4066311E1,8.436277E0,6.3186812E0,6.3352065E0,3.2290012E1,1.4524645E1,2.8826551E1,1.2221854E1,7.8816466E0,6.1846642E0,6.8956094E0,2.5394405E1,6.983894E0,7.540751E0,2.2060474E1,6.766076E0,6.1426063E0,6.079248E0,1.4464383E1,7.5960913E0],"tree_param":{"num_deleted":"0","num_feature":"42","num_nodes":"37","size_leaf_vector":"1"}},{"base_weights":[-5.7933558E-2,-9.110112E-2,2.3306262E-1,-1.1869664E-1,5.1006753E-2,-2.4975082E-4,5.409064E-2,-8.315888E-2,-5.5834852E-2,2.3213564E-3,-2.1148768E-1,-4.097178E-3,5.3256188E-2,3.8908035E-2,-3.531476E-1,2.980304E-1,-4.0999122E-2,-6.685998E-2,-1.526397E-1,6.602703E-2,-0E0,1.5440159E-2,-4.6289183E-2],"categories":[],"categories_nodes":[],"categories_segments":[],"categories_sizes":[],"default_left":[0,0,0,0,0,0,0,0,0,0,0,0,0,0,0,0,0,0,0,0,0,0,0],"id":42,"left_children":[1,3,5,7,-1,-1,-1,9,-1,11,13,-1,-1,15,17,19,-1,-1,21,-1,-1,-1,-1],"loss_changes":[1.8989658E0,2.370147E0,9.85167E-1,1.6276164E0,0E0,0E0,0E0,1.8178853E0,0E0,1.4522499E0,2.4546165E0,0E0,0E0,2.3578913E0,9.480605E-1,9.60685E-1,0E0,0E0,1.372463E0,0E0,0E0,0E0,0E0],"parents":[2147483647,0,0,1,1,2,2,3,3,7,7,9,9,10,10,13,13,14,14,15,15,18,18],"right_children":[2,4,6,8,-1,-1,-1,10,-1,12,14,-1,-1,16,18,20,-1,-1,22,-1,-1,-1,-1],"split_conditions":[5.3225937E0,1E0,1.9E1,5.021205E0,5.1006753E-2,-2.4975082E-4,5.409064E-2,1.489E4,-5.5834852E-2,4.652956E0,1.3E1,-4.097178E-3,5.3256188E-2,5E0,4.43465E4,4.0521603E0,-4.0999122E-2,-6.685998E-2,8E0,6.602703E-2,-0E0,1.5440159E-2,-4.6289183E-2],"split_indices":[4,9,11,4,0,0,0,41,0,4,0,0,0,2,41,4,0,0,36,0,0,0,0],"split_type":[0,0,0,0,0,0,0,0,0,0,0,0,0,0,0,0,0,0,0,0,0,0,0],"sum_hessian":[1.967255E2,1.7887581E2,1.7849684E1,1.711674E2,7.708408E0,7.554202E0,1.0295483E1,1.5654285E2,1.4624556E1,9.320609E1,6.3336758E1,8.668468E1,6.5214205E0,2.2370249E1,4.0966507E1,1.3659488E1,8.710761E0,2.0401972E1,2.0564535E1,7.4337463E0,6.225741E0,8.242988E0,1.2321547E1],"tree_param":{"num_deleted":"0","num_feature":"42","num_nodes":"23","size_leaf_vector":"1"}},{"base_weights":[1.2925242E-2,-5.4619886E-2,4.5922264E-2,1.4917051E-2,6.26731E-2,-1.4927885E-1,7.683418E-2,-5.3573176E-2,-2.1783968E-2,1.21569276E-1,-2.3287982E-1,-4.904616E-2,9.141906E-2,-1.8835037E-3,2.2724476E-1,-6.810903E-2,5.202325E-3,-7.673847E-3,6.015682E-2,3.193904E-2,4.4739002E-1,-8.779775E-3,3.9237674E-2,1.5604674E-2,8.528585E-2],"categories":[],"categories_nodes":[],"categories_segments":[],"categories_sizes":[],"default_left":[0,0,0,0,0,0,0,0,0,0,0,0,0,0,0,0,0,0,0,0,0,0,0,0,0],"id":43,"left_children":[1,-1,3,5,-1,7,9,-1,11,13,15,-1,17,-1,19,-1,-1,-1,-1,21,23,-1,-1,-1,-1],"loss_changes":[2.5126185E0,0E0,2.1310732E0,1.6727117E0,0E0,1.2772996E0,1.7099903E0,0E0,1.462581E0,1.662155E0,1.3932312E0,0E0,1.5856247E0,0E0,2.515101E0,0E0,0E0,0E0,0E0,1.0861E0,1.4792938E0,0E0,0E0,0E0,0E0],"parents":[2147483647,0,0,2,2,3,3,5,5,6,6,8,8,9,9,10,10,12,12,14,14,19,19,20,20],"right_children":[2,-1,4,6,-1,8,10,-1,12,14,16,-1,18,-1,20,-1,-1,-1,-1,22,24,-1,-1,-1,-1],"split_conditions":[7E0,-5.4619886E-2,5E0,7E0,6.26731E-2,3.08E0,2.6E1,-5.3573176E-2,1E0,1.25E2,4.155E1,-4.904616E-2,4.588509E0,-1.8835037E-3,2.024E3,-6.810903E-2,5.202325E-3,-7.673847E-3,6.015682E-2,4.490764E0,3.39E0,-8.779775E-3,3.9237674E-2,1.5604674E-2,8.528585E-2],"split_indices":[0,0,35,32,0,39,37,0,37,14,33,0,6,0,15,0,0,0,0,6,39,0,0,0,0],"split_type":[0,0,0,0,0,0,0,0,0,0,0,0,0,0,0,0,0,0,0,0,0,0,0,0,0],"sum_hessian":[1.8329454E2,1.0783855E1,1.725107E2,1.6349377E2,9.016915E0,4.238577E1,1.2110801E2,1.1698985E1,3.0686783E1,1.07848175E2,1.3259831E1,7.2994285E0,2.3387354E1,4.625316E1,6.159502E1,6.3726015E0,6.8872294E0,1.692122E1,6.466132E0,3.4639706E1,2.6955313E1,2.5203304E1,9.436402E0,1.208047E1,1.4874842E1],"tree_param":{"num_deleted":"0","num_feature":"42","num_nodes":"25","size_leaf_vector":"1"}},{"base_weights":[-1.6754821E-2,7.8978434E-2,-2.8942502E-1,-1.14391E-2,2.7718902E-1,-4.4397295E-1,3.037044E-2,-2.7199033E-1,9.8665506E-2,-7.5496132E-3,4.627329E-2,-8.005191E-2,-1.8850162E-3,-3.668808E-2,4.2859014E-2,-0E0,-6.501195E-2,-5.249863E-2,2.4607559E-1,4.2246723E-1,-6.2301415E-3,4.2548957E-3,6.739136E-2,2.2531223E-2,-4.147123E-2],"categories":[],"categories_nodes":[],"categories_segments":[],"categories_sizes":[],"default_left":[0,0,0,0,0,0,0,0,0,0,0,0,0,0,0,0,0,0,0,0,0,0,0,0,0],"id":44,"left_children":[1,3,5,7,9,11,13,15,17,-1,-1,-1,-1,-1,-1,-1,-1,-1,19,21,23,-1,-1,-1,-1],"loss_changes":[4.7354183E0,2.4586217E0,2.5232778E0,2.7091675E0,1.2228713E0,2.0889802E0,1.6751059E0,1.8645108E0,4.8100147E0,0E0,0E0,0E0,0E0,0E0,0E0,0E0,0E0,0E0,2.4332974E0,8.600006E-1,1.355112E0,0E0,0E0,0E0,0E0],"parents":[2147483647,0,0,1,1,2,2,3,3,4,4,5,5,6,6,7,7,8,8,18,18,19,19,20,20],"right_children":[2,4,6,8,10,12,14,16,18,-1,-1,-1,-1,-1,-1,-1,-1,-1,20,22,24,-1,-1,-1,-1],"split_conditions":[4.729703E0,8.660254E-1,2.5881904E-1,1.4E1,3.2015622E0,8.8693E3,2E-1,-2.4492937E-16,3.2375226E0,-7.5496132E-3,4.627329E-2,-8.005191E-2,-1.8850162E-3,-3.668808E-2,4.2859014E-2,-0E0,-6.501195E-2,-5.249863E-2,2.024E3,7.7E-1,2.3E1,4.2548957E-3,6.739136E-2,2.2531223E-2,-4.147123E-2],"split_indices":[6,17,22,12,4,27,3,17,6,0,0,0,0,0,0,0,0,0,15,39,12,0,0,0,0],"split_type":[0,0,0,0,0,0,0,0,0,0,0,0,0,0,0,0,0,0,0,0,0,0,0,0,0],"sum_hessian":[1.7498485E2,1.294031E2,4.5581745E1,8.868224E1,4.0720867E1,3.1076077E1,1.4505668E1,2.6605108E1,6.2077137E1,6.6332293E0,3.4087635E1,2.1228113E1,9.847963E0,6.5039096E0,8.001758E0,1.2231939E1,1.4373169E1,1.2873264E1,4.9203873E1,2.915053E1,2.0053343E1,6.7751837E0,2.2375345E1,1.2452377E1,7.600966E0],"tree_param":{"num_deleted":"0","num_feature":"42","num_nodes":"25","size_leaf_vector":"1"}},{"base_weights":[3.5862857E-3,4.577101E-2,-3.2393057E-2,5.256782E-2,1.6934942E-2,-1.5761934E-2,3.226008E-1,-8.6993046E-2,1.387723E-1,-2.3152812E-3,8.868395E-2,-2.4010365E-1,-0E0,3.844375E-1,-1.0443093E-2,-5.613972E-2,-7.095635E-2,2.3628102E-1,-6.437581E-2,-0E0,6.92062E-2,3.1238291E-2,-5.473689E-2,5.9491258E-2,-4.6419892E-3,2.958044E-2,-1.7223524E-2],"categories":[],"categories_nodes":[],"categories_segments":[],"categories_sizes":[],"default_left":[0,0,0,0,0,0,0,0,0,0,0,0,0,0,0,0,0,0,0,0,0,0,0,0,0,0,0],"id":45,"left_children":[1,3,-1,-1,5,7,9,11,13,-1,-1,15,17,19,-1,-1,21,23,25,-1,-1,-1,-1,-1,-1,-1,-1],"loss_changes":[2.0334024E0,1.5891904E0,0E0,0E0,1.7466668E0,1.6192529E0,2.3029356E0,1.4539721E0,2.604155E0,0E0,0E0,9.865041E-1,1.0915499E0,1.0925329E0,0E0,0E0,2.7709599E0,1.1124256E0,1.0337878E0,0E0,0E0,0E0,0E0,0E0,0E0,0E0,0E0],"parents":[2147483647,0,0,1,1,4,4,5,5,6,6,7,7,8,8,11,11,12,12,13,13,16,16,17,17,18,18],"right_children":[2,4,-1,-1,6,8,10,12,14,-1,-1,16,18,20,-1,-1,22,24,26,-1,-1,-1,-1,-1,-1,-1,-1],"split_conditions":[8E0,7.6E0,-3.2393057E-2,5.256782E-2,6E0,1.2E1,4.0853395E0,3.7315187E0,4.5000525E0,-2.3152812E-3,8.868395E-2,1.3E1,8E0,2E0,-1.0443093E-2,-5.613972E-2,4.9E1,7.818315E-1,2.6843E0,-0E0,6.92062E-2,3.1238291E-2,-5.473689E-2,5.9491258E-2,-4.6419892E-3,2.958044E-2,-1.7223524E-2],"split_indices":[36,5,0,0,2,32,4,6,6,0,0,11,11,37,0,0,11,19,30,0,0,0,0,0,0,0,0],"split_type":[0,0,0,0,0,0,0,0,0,0,0,0,0,0,0,0,0,0,0,0,0,0,0,0,0,0,0],"sum_hessian":[1.9609476E2,1.7038113E2,2.5713627E1,1.008487E1,1.6029626E2,1.4519075E2,1.5105516E1,1.0161381E2,4.3576935E1,7.999197E0,7.10632E0,3.7019005E1,6.45948E1,2.069949E1,2.2877447E1,1.5182635E1,2.1836367E1,1.3881976E1,5.071283E1,6.606757E0,1.4092732E1,1.1244084E1,1.0592283E1,7.841962E0,6.0400143E0,7.6443563E0,4.3068474E1],"tree_param":{"num_deleted":"0","num_feature":"42","num_nodes":"27","size_leaf_vector":"1"}},{"base_weights":[-3.2038156E-2,-9.9103644E-2,2.5938293E-1,-0E0,-3.495249E-1,-0E0,3.5047892E-1,5.889201E-2,-4.3342985E-2,-5.9260406E-2,1.2720118E-2,6.503142E-2,-0E0,-2.1256845E-1,1.3282113E-1,-5.5267178E-2,-0E0,2.2814481E-1,-7.161331E-2,2.2508854E-2,3.5517588E-1,3.624838E-2,-2.4897921E-1,2.529115E-2,-2.438914E-2,6.292144E-2,-0E0,-6.2968865E-2,1.0872013E-2],"categories":[],"categories_nodes":[],"categories_segments":[],"categories_sizes":[],"default_left":[0,0,0,0,0,0,0,0,0,0,0,0,0,0,0,0,0,0,0,0,0,0,0,0,0,0,0,0,0],"id":46,"left_children":[1,3,5,7,9,-1,11,13,-1,-1,-1,-1,-1,15,17,-1,-1,19,21,23,25,-1,27,-1,-1,-1,-1,-1,-1],"loss_changes":[3.5856426E0,3.6828346E0,9.342165E-1,2.2772026E0,2.1459718E0,0E0,1.2756302E0,1.9359038E0,0E0,0E0,0E0,0E0,0E0,9.24741E-1,1.5946703E0,0E0,0E0,1.2616532E0,1.6316097E0,9.112008E-1,1.2495337E0,0E0,1.6009426E0,0E0,0E0,0E0,0E0,0E0,0E0],"parents":[2147483647,0,0,1,1,2,2,3,3,4,4,6,6,7,7,13,13,14,14,17,17,18,18,19,19,20,20,22,22],"right_children":[2,4,6,8,10,-1,12,14,-1,-1,-1,-1,-1,16,18,-1,-1,20,22,24,26,-1,28,-1,-1,-1,-1,-1,-1],"split_conditions":[5.1206975E0,8.660254E-1,4.155E1,5E-1,3.5E2,-0E0,6.2394156E0,1E0,-4.3342985E-2,-5.9260406E-2,1.2720118E-2,6.503142E-2,-0E0,2.0846E4,4E0,-5.5267178E-2,-0E0,1.287234E-1,6E0,4.1379886E0,2.4E0,3.624838E-2,2.02E2,2.529115E-2,-2.438914E-2,6.292144E-2,-0E0,-6.2968865E-2,1.0872013E-2],"split_indices":[6,18,33,22,14,0,6,37,0,0,0,0,0,41,2,0,0,38,12,6,3,0,14,0,0,0,0,0,0],"split_type":[0,0,0,0,0,0,0,0,0,0,0,0,0,0,0,0,0,0,0,0,0,0,0,0,0,0,0,0,0],"sum_hessian":[1.8250621E2,1.5038612E2,3.21201E1,1.09781296E2,4.060482E1,7.724013E0,2.4396084E1,9.3720795E1,1.6060501E1,3.3730103E1,6.874721E0,1.6505926E1,7.890158E0,1.8236383E1,7.548441E1,8.535018E0,9.701365E0,5.2621433E1,2.2862978E1,2.2045856E1,3.0575577E1,6.6552196E0,1.6207758E1,1.3221198E1,8.824659E0,2.1406061E1,9.169516E0,9.773028E0,6.43473E0],"tree_param":{"num_deleted":"0","num_feature":"42","num_nodes":"29","size_leaf_vector":"1"}},{"base_weights":[1.6899886E-2,-2.9407895E-1,7.9371445E-2,-3.8441734E-3,-6.427736E-2,-1.8694509E-2,2.6252306E-1,6.818378E-2,-2.582625E-1,3.785739E-1,-0E0,-1.2905785E-1,1.498335E-1,1.4806643E-2,-5.632279E-2,7.640933E-3,4.944542E-1,5.179481E-2,-3.4623113E-2,-7.036716E-2,2.0533068E-2,-3.454127E-2,3.5434368E-1,-0E0,8.5545E-2,3.0417869E-2,-5.805561E-2,7.092904E-2,-7.6714624E-3],"categories":[],"categories_nodes":[],"categories_segments":[],"categories_sizes":[],"default_left":[0,0,0,0,0,0,0,0,0,0,0,0,0,0,0,0,0,0,0,0,0,0,0,0,0,0,0,0,0],"id":47,"left_children":[1,3,5,-1,-1,7,9,11,13,15,17,19,21,-1,-1,-1,23,-1,-1,-1,-1,25,27,-1,-1,-1,-1,-1,-1],"loss_changes":[3.7325916E0,1.4258993E0,3.051141E0,0E0,0E0,2.335744E0,1.7381186E0,1.3130692E0,2.116229E0,1.2352839E0,2.2999737E0,2.93168E0,2.3317096E0,0E0,0E0,0E0,2.2592893E0,0E0,0E0,0E0,0E0,3.64548E0,2.4434257E0,0E0,0E0,0E0,0E0,0E0,0E0],"parents":[2147483647,0,0,1,1,2,2,5,5,6,6,7,7,8,8,9,9,10,10,11,11,12,12,16,16,21,21,22,22],"right_children":[2,4,6,-1,-1,8,10,12,14,16,18,20,22,-1,-1,-1,24,-1,-1,-1,-1,26,28,-1,-1,-1,-1,-1,-1],"split_conditions":[7.7E-1,3.8E1,6.123234E-17,-3.8441734E-3,-6.427736E-2,1.2E1,2.5369999E1,